
\data\
ngram 1=6067
ngram 2=34551
ngram 3=8663

\1-grams:
-3.994152	!	-0.4263228
-4.140184	'	-0.1088862
-4.421498	're	-0.1091858
-2.899952	's	-0.1091756
-1.712709	,	-0.2408125
-3.608943	.	-0.2626507
-4.235192	..	-0.109412
-4.421498	...	-0.1094247
-4.421498	.making	-0.1094373
-4.421498	.ready	-0.09882482
-4.421498	10,000	-0.1092487
-4.421498	100m	-0.1094523
-4.421498	12k	-0.08596074
-4.421498	1915	-0.09882482
-4.421498	1923	-0.1036415
-4.421498	1950s	-0.1093493
-4.421498	2	-0.1094373
-4.421498	20th	-0.1094247
-4.421498	25	-0.1009707
-4.421498	281	-0.1057511
-4.140184	3	-0.1052944
-4.421498	33	-0.1088335
-4.421498	3wheeler	-0.1094373
-4.421498	4	-0.1094435
-4.421498	5	-0.1009707
-4.421498	50	-0.1094247
-4.421498	5k	-0.1089216
-4.421498	661	-0.1094523
-4.421498	8	-0.1056686
-4.421498	80s	-0.1094247
-4.421498	93	-0.1093241
-3.47769	;	-0.2338147
-1.27827	</s>
-99	<s>	-1.321797
-3.47769	``	-0.08864256
-1.860396	a	-0.2459561
-4.421498	aa	-0.1085375
-4.421498	abandon	-0.08596074
-4.235192	abandoned	-0.1083107
-4.421498	abandons	-0.1089468
-4.235192	abilities	-0.09905016
-3.994152	ability	-0.4263228
-4.235192	able	-0.2405665
-2.964407	about	-0.3191183
-3.295374	above	-0.3163564
-4.421498	absorbs	-0.1044942
-4.421498	abut	-0.1094523
-4.421498	accelerates	-0.1092864
-4.421498	accept	-0.1044624
-4.235192	accident	-0.0808018
-4.421498	accidentally	-0.1094373
-4.421498	accolades	-0.08596074
-4.421498	accompanied	-0.1074718
-4.421498	accompanies	-0.1091732
-4.421498	accomplish	-0.1044942
-4.421498	accomplished	-0.1093116
-4.235192	accomplishment	-0.2277024
-4.235192	accomplishments	-0.2277024
-4.235192	according	-0.2405665
-4.235192	accordion	-0.1005026
-4.421498	accuracy	-0.08596074
-4.235192	achieve	-0.1669936
-3.994152	achievement	-0.22826
-4.421498	achievements	-0.08596074
-4.421498	achieves	-0.107156
-4.421498	achive	-0.1061819
-4.421498	acrobat	-0.1094523
-4.235192	acrobatic	-0.1094358
-2.899952	across	-0.6097688
-4.421498	acrouss	-0.109299
-3.797945	act	-0.06397776
-4.235192	acting	-0.1081847
-3.725418	action	-0.09528056
-4.421498	activities	-0.09882482
-4.235192	activity	-0.2277024
-4.421498	actor	-0.1009707
-4.421498	actress	-0.09879906
-4.421498	acts	-0.1087076
-4.421498	actually	-0.1086824
-4.421498	ad	-0.107434
-4.421498	adam	-0.1093996
-4.421498	add	-0.09877971
-4.421498	added	-0.1094121
-4.421498	adhd	-0.1093241
-4.421498	adjustments	-0.1087831
-4.235192	admiration	-0.08407911
-3.885061	admire	-0.1903916
-4.140184	admires	-0.09815443
-3.797945	admiring	-0.2621696
-4.235192	adopted	-0.1081973
-4.235192	adoption	-0.105694
-4.421498	adorable	-0.1089468
-4.421498	adorably	-0.1058018
-4.140184	adoration	-0.1712737
-4.421498	adores	-0.107156
-3.885061	adoring	-0.1047864
-4.235192	adoringly	-0.2277024
-4.235192	adorned	-0.09282584
-3.994152	adrenaline	-0.08589932
-4.421498	ads	-0.08596074
-3.994152	adult	-0.0838066
-3.517191	adults	-0.1395387
-4.235192	advantage	-0.0808018
-4.421498	adventerous	-0.1094247
-3.441483	adventure	-0.2302588
-4.235192	adventures	-0.09264947
-3.885061	adventurous	-0.1420918
-4.421498	adversity	-0.08596074
-4.421498	advertise	-0.1094121
-3.885061	advertisement	-0.1427519
-4.421498	advertizing	-0.1093744
-4.235192	advice	-0.09061296
-4.421498	advocates	-0.1093493
-4.421498	aerobatic	-0.1094373
-4.421498	affair	-0.1094121
-3.560648	affection	-0.3516599
-4.421498	affectionately	-0.1088838
-4.421498	affections	-0.1045832
-4.421498	afford	-0.08596074
-4.235192	afraid	-0.07471706
-4.421498	aframe	-0.1092864
-3.994152	african	-0.1742265
-2.581803	after	-0.3741446
-3.797945	afternoon	-0.1228804
-3.797945	again	-0.4126598
-3.167357	against	-0.4366101
-4.421498	agap	-0.08596074
-4.421498	aged	-0.1080712
-4.421498	agile	-0.1091229
-4.140184	agility	-0.09788983
-4.421498	aging	-0.1080145
-3.517191	ahead	-0.3661295
-4.235192	aid	-0.09877316
-4.421498	aided	-0.1074718
-4.421498	aig	-0.1093116
-4.235192	aim	-0.09285197
-4.140184	aiming	-0.153047
-4.421498	aimlessly	-0.09879906
-4.235192	aims	-0.2405665
-3.167357	air	-0.1213754
-3.797945	airborne	-0.116649
-4.140184	airplane	-0.1020652
-4.235192	airport	-0.07210156
-4.421498	akin	-0.09882482
-4.140184	album	-0.06980778
-4.421498	alertly	-0.1093996
-4.421498	alien	-0.1093493
-4.421498	alike	-0.1088083
-4.235192	alive	-0.1114533
-2.920392	all	-0.09768053
-4.235192	alley	-0.09692056
-4.421498	alleyway	-0.1009707
-4.235192	alligator	-0.08560894
-4.421498	allowing	-0.104939
-4.421498	allwhite	-0.1092322
-3.797945	almost	-0.1091439
-4.421498	almostdried	-0.1080523
-4.421498	aloft	-0.1057511
-3.348075	alone	-0.1829193
-2.952978	along	-0.6522288
-3.994152	alongside	-0.09814148
-4.421498	also	-0.1061819
-4.421498	always	-0.1094523
-4.235192	am	-0.1080838
-4.235192	amazed	-0.1030742
-4.235192	amazement	-0.2277024
-4.235192	amazing	-0.1035331
-4.421498	ambulance	-0.1036415
-4.421498	amd	-0.1094373
-4.421498	america	-0.08596074
-3.517191	american	-0.2133769
-4.421498	amicably	-0.09882482
-4.140184	amidst	-0.1043034
-4.421498	amish	-0.1094247
-4.421498	amnesty	-0.1094435
-3.725418	among	-0.1725044
-4.421498	amongst	-0.1042207
-4.421498	amorous	-0.1090852
-4.140184	amount	-0.3200065
-4.421498	amour	-0.08596074
-4.421498	amplified	-0.1074718
-4.421498	amuse	-0.107156
-4.235192	amused	-0.07071576
-3.797945	amusement	-0.2414853
-2.558448	an	-0.2528595
-4.421498	ancesters	-0.08596074
-4.421498	ancestors	-0.1094373
-4.140184	ancient	-0.1092785
-1.724545	and	-0.1198622
-4.421498	andy	-0.1094523
-4.421498	angel	-0.08596074
-4.235192	angels	-0.2277024
-4.421498	anger	-0.08596074
-4.421498	angled	-0.1092235
-4.421498	angrily	-0.1036415
-3.441483	animal	-0.09545743
-3.608943	animals	-0.08056501
-4.421498	ankledeep	-0.09879906
-3.994152	anniversary	-0.2315623
-4.421498	annually	-0.08596074
-4.421498	anonymous	-0.1094523
-2.930985	another	-0.1953133
-4.421498	antelope	-0.1087957
-3.885061	anticipating	-0.1163904
-3.994152	anticipation	-0.1239388
-4.421498	antiquated	-0.1092613
-4.421498	antique	-0.1093619
-4.235192	anxious	-0.2405665
-4.235192	anxiously	-0.08002227
-3.608943	any	-0.1085901
-4.421498	anyone	-0.08596074
-4.235192	anything	-0.2277024
-4.235192	apart	-0.09418204
-4.421498	apartments	-0.08596074
-4.421498	apex	-0.1066503
-4.421498	apologies	-0.09882482
-4.235192	apparatus	-0.09593619
-4.421498	appealing	-0.09882482
-4.421498	appearance	-0.08596074
-4.421498	appearing	-0.09882482
-4.421498	appearl	-0.08596074
-4.235192	appears	-0.09868952
-4.421498	applauds	-0.08596074
-4.235192	apple	-0.09872817
-4.421498	apples	-0.1082036
-4.235192	applies	-0.1090285
-4.421498	appreciate	-0.1075224
-4.421498	appreciation	-0.1088083
-4.421498	approached	-0.1074718
-3.885061	approaches	-0.1221191
-3.885061	approaching	-0.0919367
-4.235192	approval	-0.1018351
-4.235192	apron	-0.1057345
-4.421498	aproned	-0.1089468
-4.421498	aqua	-0.1094435
-4.421498	aquacolored	-0.1094247
-4.421498	arc	-0.08596074
-4.421498	arcade	-0.1089845
-4.235192	arch	-0.09877316
-4.421498	arches	-0.1084935
-4.421498	architectural	-0.1093619
-4.421498	archway	-0.09882482
-2.330283	are	-0.2759132
-3.295374	area	-0.2800438
-4.421498	areas	-0.08596074
-4.140184	arena	-0.1740228
-4.421498	arizona	-0.1094247
-3.517191	arm	-0.07233109
-4.421498	armenian	-0.1094523
-4.421498	armoire	-0.1094523
-4.421498	armor	-0.08596074
-3.408065	arms	-0.170715
-4.421498	armstand	-0.08596074
-4.421498	army	-0.1092613
-2.627293	around	-0.3762634
-4.421498	arouse	-0.1086572
-4.235192	arrival	-0.2463248
-4.421498	arrive	-0.07749958
-4.421498	arrived	-0.08596074
-4.421498	arrives	-0.08596074
-4.421498	arriving	-0.1090223
-4.421498	arrow	-0.1058018
-3.725418	art	-0.07553838
-4.421498	artfully	-0.1036415
-4.140184	artist	-0.08515716
-4.421498	artistic	-0.1094247
-4.140184	artists	-0.107295
-4.421498	arts	-0.09225075
-2.189179	as	-0.6543843
-4.235192	ascending	-0.1022187
-4.421498	ascends	-0.09882482
-3.47769	asian	-0.220613
-4.421498	aside	-0.1034376
-4.421498	ask	-0.104939
-4.235192	asked	-0.08463845
-3.994152	asking	-0.2090155
-4.235192	asks	-0.09991192
-4.140184	asleep	-0.09250572
-4.421498	asperations	-0.1009707
-4.235192	asphalt	-0.07374915
-4.235192	aspirations	-0.1038007
-4.421498	assassins	-0.108758
-4.421498	assault	-0.1093116
-4.421498	assistance	-0.08596074
-4.421498	assists	-0.1089593
-4.421498	assure	-0.1088461
-4.421498	astonishing	-0.1093493
-4.421498	astonishingly	-0.1058018
-4.421498	astro	-0.1094523
-2.075312	at	-0.6840227
-4.421498	ate	-0.1061819
-4.421498	ater	-0.1014575
-4.421498	athe	-0.1094435
-3.994152	athlete	-0.1049247
-4.235192	athletes	-0.08513062
-3.797945	athletic	-0.1061067
-4.421498	atm	-0.1094247
-4.235192	atmosphere	-0.0808018
-3.994152	atop	-0.4437997
-4.140184	attached	-0.3142482
-4.140184	attack	-0.1046848
-4.421498	attacked	-0.09893428
-4.421498	attain	-0.1094523
-4.421498	attaining	-0.1044942
-3.797945	attempt	-0.212023
-4.421498	attempted	-0.1094523
-3.248383	attempting	-0.9635627
-3.725418	attempts	-0.682225
-4.421498	attend	-0.09882482
-4.235192	attending	-0.1044369
-3.560648	attention	-0.2949083
-4.421498	attentive	-0.1080145
-3.885061	attire	-0.05792706
-4.421498	attract	-0.0937911
-4.421498	attracting	-0.1093619
-4.421498	attraction	-0.108909
-4.140184	attractive	-0.08516383
-4.421498	attractively	-0.1036415
-4.140184	attracts	-0.1083484
-4.421498	attributing	-0.10906
-4.140184	atv	-0.1239348
-4.421498	audiance	-0.08596074
-3.885061	audience	-0.1938391
-4.235192	audiences	-0.08564878
-4.421498	audition	-0.1094121
-4.235192	auditorium	-0.09502751
-4.421498	aurora	-0.1045832
-4.235192	australian	-0.251179
-4.421498	autograph	-0.08596074
-4.235192	automobiles	-0.08538313
-3.994152	autumn	-0.1736828
-4.421498	avalanche	-0.08596074
-4.421498	avenue	-0.08596074
-4.421498	average	-0.1088335
-4.421498	averting	-0.1094121
-4.421498	avoid	-0.1037943
-4.140184	avoiding	-0.1021867
-4.421498	avoids	-0.1092738
-4.235192	await	-0.09879892
-4.421498	awaited	-0.1086446
-3.608943	awaiting	-0.1832287
-3.725418	awaits	-0.2587834
-4.421498	award	-0.08596074
-4.235192	awards	-0.07698514
-3.14926	away	-0.3650724
-4.140184	awe	-0.09049064
-4.235192	awesome	-0.1088485
-4.235192	awkward	-0.08298496
-4.235192	awkwardly	-0.1078946
-4.421498	awoman	-0.09879906
-4.421498	ax	-0.08596074
-4.421498	axe	-0.1082288
-4.140184	babies	-0.1964861
-3.226666	baby	-0.07003529
-2.843838	back	-0.1673933
-4.140184	backdrop	-0.1699866
-3.725418	background	-0.09483421
-4.421498	backhand	-0.1066503
-4.235192	backlit	-0.1035841
-3.663287	backpack	-0.1151454
-4.421498	backpackers	-0.1094121
-4.421498	backpacking	-0.1063402
-4.421498	backpacks	-0.107434
-4.235192	backs	-0.1045514
-4.421498	backseat	-0.1090349
-4.421498	backsides	-0.08596074
-4.421498	backstroke	-0.09879906
-4.421498	backstrokes	-0.09879906
-4.421498	backward	-0.108632
-3.725418	backwards	-0.1146882
-3.994152	backyard	-0.08937533
-4.421498	bad	-0.1089215
-4.421498	badge	-0.1058018
-4.421498	badges	-0.1009707
-4.140184	badminton	-0.09056032
-3.408065	bag	-0.07699221
-4.235192	bagpipes	-0.07471706
-3.517191	bags	-0.08130966
-4.421498	baked	-0.1092613
-3.994152	balance	-0.08433212
-3.797945	balances	-0.2872294
-3.994152	balancing	-0.1602387
-4.421498	balck	-0.1080145
-3.994152	balcony	-0.1155441
-3.797945	bald	-0.3706453
-4.421498	bales	-0.1045832
-2.952978	ball	-0.2485094
-4.421498	ballad	-0.1067009
-4.421498	ballads	-0.1082288
-4.421498	ballerina	-0.1091607
-4.421498	ballerinas	-0.09879906
-4.235192	ballet	-0.08574172
-4.235192	ballon	-0.1008104
-4.421498	ballons	-0.08596074
-3.725418	balloon	-0.117484
-3.725418	balloons	-0.1335628
-4.421498	ballplayer	-0.1076865
-4.421498	ballroom	-0.1092613
-3.797945	balls	-0.1711587
-4.421498	balmy	-0.1093619
-4.421498	bananas	-0.1058018
-3.608943	band	-0.1475997
-4.421498	bandaged	-0.1088964
-4.235192	bandanna	-0.1050215
-4.421498	bandmates	-0.09879906
-4.421498	banjo	-0.1009707
-4.140184	bank	-0.1165677
-4.235192	banner	-0.09011383
-3.885061	bar	-0.07997864
-4.421498	barack	-0.1094373
-4.421498	barb	-0.1094373
-4.421498	barber	-0.1056306
-4.235192	bare	-0.109104
-4.421498	bareback	-0.08596074
-4.421498	bared	-0.08596074
-3.885061	barefoot	-0.1759753
-4.421498	barely	-0.1094523
-4.421498	bark	-0.108758
-3.885061	barking	-0.1371212
-4.235192	barks	-0.09280623
-4.421498	barn	-0.09882482
-4.140184	barrel	-0.08712014
-4.140184	barrels	-0.1965871
-4.140184	barren	-0.108695
-4.421498	barricade	-0.1009707
-4.235192	barrier	-0.1004256
-4.235192	barriers	-0.0844654
-3.797945	bars	-0.1642013
-3.994152	base	-0.09585968
-3.441483	baseball	-0.1490298
-4.421498	baseman	-0.1012014
-4.421498	basement	-0.09868952
-4.421498	bask	-0.09879906
-4.140184	basket	-0.1746344
-3.295374	basketball	-0.1721212
-4.421498	basketballs	-0.1094121
-4.235192	baskets	-0.09058671
-4.235192	basking	-0.07468983
-4.421498	bass	-0.08596074
-3.797945	bat	-0.06936799
-3.663287	bath	-0.1956383
-4.235192	bathe	-0.2405407
-4.421498	bathed	-0.1086446
-3.608943	bathing	-0.4270454
-4.235192	bathrobe	-0.1035841
-4.421498	bathroom	-0.1087831
-4.235192	bathtub	-0.08556501
-4.421498	bathtube	-0.1090852
-4.421498	batman	-0.1088838
-4.421498	baton	-0.1067009
-4.421498	batting	-0.09282584
-4.421498	battle	-0.104939
-4.235192	battling	-0.1027679
-4.421498	bawl	-0.08596074
-4.421498	bay	-0.108758
-3.560648	be	-0.09672186
-3.320926	beach	-0.05740495
-4.421498	beached	-0.1093493
-4.421498	beachgoers	-0.1091732
-4.235192	beads	-0.1088146
-4.235192	beagle	-0.2474927
-4.421498	beaks	-0.08596074
-4.140184	beam	-0.1901387
-4.421498	beaming	-0.08596074
-4.421498	beams	-0.08596074
-4.140184	bear	-0.07228221
-3.797945	beard	-0.08762479
-4.235192	bearded	-0.1975963
-4.235192	bearing	-0.1058842
-4.140184	bears	-0.1080523
-4.235192	beat	-0.1642991
-4.235192	beaten	-0.1072129
-4.421498	beating	-0.1038516
-4.421498	beatnik	-0.1094523
-4.421498	beauties	-0.1094523
-3.248383	beautiful	-0.08655943
-4.421498	beautifully	-0.08596074
-3.608943	beauty	-0.2248388
-4.421498	beaver	-0.1014575
-3.408065	because	-0.4477046
-3.797945	become	-0.1429067
-4.140184	becomes	-0.149011
-4.235192	becoming	-0.1033802
-3.408065	bed	-0.130501
-4.235192	bedroom	-0.07980704
-4.235192	bedspread	-0.09011383
-4.235192	bee	-0.08574172
-4.421498	beef	-0.1036415
-3.994152	been	-0.1073314
-3.797945	beer	-0.1110622
-2.802049	before	-0.303987
-4.421498	beg	-0.104939
-4.421498	begger	-0.1084431
-3.885061	begging	-0.1859387
-4.140184	begin	-0.1382962
-4.235192	beginning	-0.1022442
-3.797945	begins	-0.2170588
-4.421498	behaviour	-0.08596074
-2.786397	behind	-0.5126625
-4.140184	beige	-0.1729894
-3.083586	being	-0.1273234
-4.421498	belays	-0.08596074
-4.421498	beleiving	-0.09882482
-4.421498	believe	-0.1044942
-4.421498	believes	-0.107434
-4.421498	believing	-0.1085817
-4.421498	beliving	-0.1085817
-4.235192	belly	-0.1092448
-4.235192	belong	-0.07471706
-4.421498	belonging	-0.09882482
-3.994152	beloved	-0.1183906
-4.421498	beloveds	-0.08596074
-3.517191	below	-0.2584173
-4.421498	belts	-0.1082162
-3.47769	bench	-0.1266323
-4.421498	benches	-0.1037879
-4.421498	bend	-0.1058018
-4.140184	bending	-0.1953983
-4.140184	bends	-0.1953983
-3.994152	beneath	-0.1277566
-4.421498	benefits	-0.08596074
-4.421498	bent	-0.08596074
-4.235192	beret	-0.1088082
-4.421498	bernard	-0.1086824
-3.47769	beside	-0.2101035
-4.421498	besides	-0.1034376
-3.167357	best	-0.3771843
-4.421498	bet	-0.08596074
-4.421498	betrayal	-0.08596074
-3.994152	better	-0.1212377
-3.408065	between	-0.212285
-4.421498	beverage	-0.1009707
-4.421498	beverages	-0.1012014
-4.235192	bevy	-0.2463248
-3.248383	bicycle	-0.1142317
-4.421498	bicycler	-0.1056813
-3.797945	bicycles	-0.0797336
-4.421498	bicycling	-0.1014575
-4.140184	bicyclist	-0.1230966
-4.235192	bicyclists	-0.1858983
-4.421498	bicylce	-0.1094373
-4.421498	bides	-0.1061819
-3.408065	big	-0.1362803
-4.235192	biggest	-0.1084872
-3.131887	bike	-0.1427702
-3.517191	biker	-0.1857117
-3.725418	bikers	-0.09841465
-3.608943	bikes	-0.1437965
-4.140184	biking	-0.1643377
-3.994152	bikini	-0.09056024
-4.235192	bikinis	-0.1055228
-4.421498	bile	-0.109299
-4.421498	billboard	-0.08596074
-4.421498	billboards	-0.08596074
-4.421498	billowing	-0.109387
-4.421498	bin	-0.08596074
-4.421498	binding	-0.1083423
-4.421498	binocular	-0.1058018
-4.421498	binoculars	-0.1057511
-3.47769	bird	-0.1471297
-3.725418	birds	-0.1670464
-4.235192	birth	-0.1045576
-3.663287	birthday	-0.3319094
-4.421498	biscuit	-0.09879906
-3.994152	bite	-0.1883755
-4.140184	bites	-0.1330053
-3.797945	biting	-0.1862038
-4.421498	bits	-0.1044942
-4.421498	bitten	-0.08596074
-4.421498	bizarre	-0.1090349
-2.930985	black	-0.2199667
-4.421498	blackandwhite	-0.1080145
-4.421498	blackboard	-0.104939
-4.235192	blacktop	-0.1093304
-4.235192	blades	-0.2277024
-4.421498	blading	-0.1014575
-3.797945	blanket	-0.07533282
-4.235192	blast	-0.07745893
-4.235192	blazing	-0.1091418
-4.140184	bleachers	-0.1066945
-4.421498	blends	-0.1082288
-4.421498	bless	-0.108254
-4.421498	blessing	-0.08596074
-4.421498	blew	-0.1077622
-4.235192	blind	-0.08579482
-4.421498	blinddate	-0.08596074
-4.421498	blindfolded	-0.1074718
-4.421498	blindfolds	-0.107434
-4.235192	bliss	-0.0808018
-4.235192	blissfully	-0.1092801
-4.140184	block	-0.09450336
-4.140184	blocks	-0.09691411
-4.421498	blog	-0.08596074
-3.608943	blond	-0.2320829
-3.517191	blonde	-0.2501315
-4.421498	blondehaired	-0.1088964
-4.421498	blone	-0.1091858
-4.421498	bloody	-0.1094523
-4.421498	bloom	-0.08596074
-4.421498	blooms	-0.09882482
-4.421498	blossoming	-0.1094523
-4.421498	blossoms	-0.08596074
-4.421498	blouse	-0.1084935
-3.885061	blow	-0.2066754
-3.725418	blowing	-0.2062824
-4.421498	blown	-0.1074718
-4.421498	blownup	-0.1094435
-3.885061	blows	-0.1256325
-3.040123	blue	-0.1263449
-4.421498	blueeyed	-0.109211
-4.235192	bluegreen	-0.1083107
-4.421498	bluff	-0.1009707
-4.421498	blurred	-0.1094435
-4.421498	blurry	-0.1093996
-4.421498	blurs	-0.1058018
-4.421498	blury	-0.1092235
-4.421498	blushing	-0.09879906
-4.421498	bmw	-0.109299
-3.797945	bmx	-0.1327049
-4.421498	boa	-0.1012014
-3.663287	board	-0.1469034
-4.421498	boarded	-0.1080523
-4.421498	boarder	-0.1092738
-4.140184	boarding	-0.1413109
-4.235192	boards	-0.1067704
-4.140184	boardwalk	-0.09597505
-3.320926	boat	-0.05605306
-3.725418	boats	-0.09794013
-4.140184	bodies	-0.09573513
-3.663287	body	-0.2813331
-4.421498	bodyboarder	-0.1036415
-4.421498	bodyless	-0.1092235
-4.421498	boisterously	-0.1083423
-4.421498	bold	-0.1090474
-4.140184	bond	-0.08049282
-3.517191	bonding	-0.434743
-4.421498	bonds	-0.08596074
-3.663287	bone	-0.2832773
-4.421498	bonfire	-0.1046658
-4.421498	bonnets	-0.1089719
-4.235192	boogie	-0.1985278
-3.994152	book	-0.09283265
-4.421498	booking	-0.1044942
-4.421498	books	-0.1094435
-4.421498	bookshelf	-0.08596074
-4.421498	booth	-0.09905659
-4.421498	booths	-0.1014575
-3.608943	boots	-0.05515813
-4.421498	border	-0.1094373
-4.421498	bored	-0.109211
-4.421498	boredom	-0.1067009
-4.421498	boss	-0.08596074
-4.235192	boston	-0.1091418
-3.408065	both	-0.06806429
-3.725418	bottle	-0.1238131
-4.421498	bottles	-0.08596074
-4.421498	bottom	-0.08071449
-4.421498	bottoms	-0.1091732
-4.235192	bought	-0.09645458
-4.235192	boulder	-0.08542962
-3.994152	bounce	-0.1555363
-4.421498	bounces	-0.1014575
-4.421498	bounciness	-0.1045832
-3.725418	bouncing	-0.2023077
-4.235192	bouncy	-0.1089656
-4.235192	bound	-0.1087894
-4.421498	boundaries	-0.08596074
-3.994152	bounding	-0.1475727
-3.994152	bounds	-0.1668272
-4.421498	bouquet	-0.09882482
-4.235192	bow	-0.1011053
-3.994152	bowl	-0.07720843
-4.140184	bowling	-0.1879579
-4.421498	bowls	-0.1014575
-4.421498	bows	-0.09879906
-4.421498	bowtie	-0.1088838
-4.140184	box	-0.1113479
-4.421498	boxer	-0.098518
-4.140184	boxes	-0.09250572
-4.140184	boxing	-0.07068402
-2.920392	boy	-0.1054472
-4.140184	boyfriend	-0.1047624
-4.235192	boyfriends	-0.07287478
-3.226666	boys	-0.1188815
-4.421498	braces	-0.1094247
-4.421498	bracing	-0.1092738
-4.421498	bracn	-0.1045832
-3.797945	branch	-0.1102749
-4.235192	branches	-0.0808018
-3.725418	brave	-0.07222456
-4.235192	bravely	-0.08568862
-4.421498	braves	-0.1034376
-4.421498	brawl	-0.09879906
-4.235192	bread	-0.09635095
-3.885061	break	-0.09053165
-4.421498	breakfast	-0.1058018
-3.797945	breaking	-0.08592078
-4.421498	breaks	-0.1034376
-4.421498	breastfeeding	-0.1036415
-4.421498	breaststroke	-0.09879906
-4.140184	breath	-0.1957655
-4.421498	breathe	-0.08596074
-4.421498	breather	-0.1094523
-4.421498	breathes	-0.1093493
-4.235192	breathtaking	-0.1092951
-4.421498	breeds	-0.1087957
-3.994152	breeze	-0.2315623
-4.421498	brethern	-0.08596074
-4.421498	brich	-0.1094523
-4.140184	brick	-0.2010246
-4.421498	bricks	-0.1009707
-4.421498	bridal	-0.1092235
-3.797945	bride	-0.1275631
-4.235192	brides	-0.1082351
-4.421498	bridesmaids	-0.1084053
-3.560648	bridge	-0.1043921
-3.663287	bright	-0.08736295
-4.421498	brightest	-0.109211
-4.140184	brightly	-0.1507957
-4.421498	brightlycolored	-0.1091732
-4.421498	brindle	-0.1094373
-3.994152	bring	-0.08737144
-4.421498	bringin	-0.1044942
-3.797945	bringing	-0.1360967
-3.885061	brings	-0.09766634
-4.421498	brochure	-0.1014575
-3.797945	broken	-0.08231468
-4.235192	broom	-0.1016751
-4.421498	brooms	-0.1012014
-4.421498	brothel	-0.1009707
-3.663287	brother	-0.1386822
-4.421498	brotherhood	-0.08596074
-4.235192	brotherly	-0.2503989
-4.421498	brothers	-0.09879906
-4.140184	brought	-0.07870879
-2.976145	brown	-0.2517102
-4.421498	brownspotted	-0.1080145
-4.421498	brownstone	-0.1094121
-4.235192	browse	-0.1027679
-4.421498	brunch	-0.08596074
-4.235192	brunette	-0.1006309
-4.421498	brush	-0.1009707
-4.235192	brushes	-0.09923038
-4.421498	bting	-0.1034376
-3.994152	bubble	-0.1014778
-3.560648	bubbles	-0.05874549
-4.421498	bubbly	-0.08596074
-4.235192	buck	-0.08203536
-4.140184	bucket	-0.1277837
-4.140184	buckets	-0.09578702
-4.421498	bucking	-0.1093556
-4.421498	buddies	-0.08596074
-4.421498	buddy	-0.08596074
-4.421498	budweisersponsored	-0.1089216
-4.140184	bug	-0.1164074
-4.421498	buggies	-0.1094121
-4.421498	buggy	-0.1091858
-4.421498	buidings	-0.09879906
-3.994152	build	-0.07523653
-3.054133	building	-0.1396228
-3.885061	buildings	-0.1373467
-4.235192	built	-0.08465177
-3.994152	bull	-0.07992798
-4.235192	bulldog	-0.1087013
-4.421498	bullet	-0.1076699
-4.235192	bulls	-0.1071371
-4.421498	bullying	-0.08596074
-4.421498	bumpy	-0.1094373
-4.421498	bun	-0.1057511
-4.235192	bunch	-0.1876681
-4.140184	bundled	-0.3234757
-4.421498	bundles	-0.1080523
-4.235192	bungee	-0.1083233
-4.421498	bunk	-0.109299
-4.421498	bunnies	-0.1087957
-4.421498	bunny	-0.1093744
-4.421498	burgers	-0.08596074
-3.994152	buried	-0.2142725
-4.421498	buries	-0.1056052
-4.421498	burn	-0.109387
-4.235192	burned	-0.08594337
-4.421498	bury	-0.1083045
-3.725418	bus	-0.09710176
-4.421498	buses	-0.08596074
-4.235192	bush	-0.06550355
-4.140184	bushes	-0.07591626
-4.140184	bushy	-0.1969785
-4.421498	busily	-0.09879906
-4.140184	business	-0.08578406
-4.421498	businesses	-0.08596074
-4.421498	bustle	-0.08596074
-4.421498	busty	-0.1082981
-3.885061	busy	-0.1324208
-3.517191	but	-0.1417878
-4.235192	butt	-0.1043479
-4.421498	butte	-0.1058018
-4.421498	butter	-0.1082162
-4.421498	butterflies	-0.09879906
-4.235192	butterfly	-0.07471706
-4.235192	button	-0.09838016
-4.421498	buttonup	-0.1093493
-4.235192	buy	-0.09282572
-3.994152	buying	-0.09470248
-4.421498	buzy	-0.1093116
-2.338426	by	-0.3456875
-4.421498	bystanders	-0.1009707
-3.994152	ca	-0.4497868
-4.235192	cab	-0.1703624
-4.421498	cabin	-0.08596074
-4.421498	cadet	-0.1057511
-4.235192	cafe	-0.097399
-4.235192	cage	-0.09011383
-3.994152	cake	-0.07040633
-4.421498	calf	-0.09879906
-3.797945	call	-0.1363406
-4.140184	called	-0.09863151
-4.235192	calling	-0.1028317
-4.140184	calm	-0.1269255
-4.235192	calmly	-0.07749958
-4.421498	calmness	-0.09879906
-4.140184	came	-0.09638332
-4.235192	camel	-0.08444541
-4.140184	camels	-0.0993782
-3.408065	camera	-0.07881247
-4.421498	camerades	-0.08596074
-4.421498	cameraman	-0.08532999
-4.140184	cameras	-0.09784468
-4.235192	camouflage	-0.2510029
-4.235192	camp	-0.08592754
-4.421498	camper	-0.1093367
-4.421498	campfire	-0.1093619
-3.994152	camping	-0.1637839
-4.235192	campsite	-0.1689918
-4.421498	campus	-0.1012014
-3.248383	can	-0.1151586
-4.421498	canadian	-0.1093996
-4.421498	candidate	-0.08596074
-4.235192	candle	-0.09867664
-3.994152	candles	-0.09073105
-3.994152	candy	-0.07046141
-4.421498	canine	-0.1094523
-4.421498	cannon	-0.1014575
-3.560648	canoe	-0.07686617
-4.235192	canoeing	-0.09965486
-4.140184	canoes	-0.07559444
-4.421498	canon	-0.1086572
-4.421498	canopy	-0.1094523
-4.235192	cans	-0.09889564
-4.421498	cant	-0.1092361
-4.421498	canvas	-0.1009707
-4.235192	canyon	-0.1009387
-3.560648	cap	-0.0840528
-4.421498	capabilities	-0.1066503
-4.421498	capable	-0.08596074
-4.421498	capacity	-0.09882482
-3.885061	cape	-0.1275107
-4.421498	capes	-0.1088838
-4.235192	capped	-0.1083107
-4.140184	caps	-0.08288473
-4.421498	captivated	-0.1074718
-4.421498	captivates	-0.1089468
-4.421498	capture	-0.09580645
-4.140184	capturing	-0.1044178
-3.14926	car	-0.09222189
-4.421498	caravan	-0.1045832
-4.421498	card	-0.1092738
-3.994152	cardboard	-0.1001905
-4.421498	cardio	-0.1089845
-4.235192	cards	-0.0772289
-3.608943	care	-0.15247
-4.235192	career	-0.07468983
-4.140184	carefree	-0.07710025
-4.421498	careful	-0.09882482
-3.797945	carefully	-0.07359894
-4.421498	caregiver	-0.08548941
-4.421498	careless	-0.1012014
-4.421498	cares	-0.1089971
-4.235192	caress	-0.0807078
-4.140184	caring	-0.1697096
-3.994152	carnival	-0.2074241
-4.421498	carousel	-0.1092613
-3.797945	carpet	-0.1153528
-4.140184	carriage	-0.1549177
-4.421498	carriageride	-0.08596074
-4.140184	carried	-0.09368695
-4.421498	carrier	-0.08596074
-3.441483	carries	-0.3821773
-3.994152	carry	-0.1070359
-3.000617	carrying	-0.3964897
-3.560648	cars	-0.1248908
-3.994152	cart	-0.1109424
-4.421498	carton	-0.1012014
-4.421498	cartoons	-0.08596074
-4.235192	carts	-0.1699866
-4.235192	cartwheel	-0.2405407
-4.421498	carved	-0.1091984
-4.421498	carving	-0.1034376
-4.421498	carwalk	-0.1089342
-4.140184	case	-0.1048906
-4.421498	cases	-0.1067009
-4.421498	casino	-0.1093367
-4.140184	cast	-0.1087515
-4.140184	casting	-0.1000878
-4.421498	casual	-0.109299
-4.235192	casually	-0.108802
-3.608943	cat	-0.09317394
-3.47769	catch	-0.0907167
-4.140184	catcher	-0.09688175
-3.205983	catches	-0.3814096
-3.408065	catching	-0.3897878
-4.235192	cats	-0.1010668
-3.608943	caught	-0.09540451
-4.140184	cause	-0.3013841
-4.421498	causes	-0.1088335
-4.235192	causing	-0.1093681
-4.235192	caution	-0.1092197
-4.421498	cautiously	-0.1094373
-4.235192	cave	-0.1895205
-4.421498	cavort	-0.1083423
-4.421498	cavorting	-0.1014575
-4.421498	cds	-0.1086572
-4.421498	ceiling	-0.1094435
-3.994152	celebrate	-0.110846
-4.421498	celebrated	-0.107156
-3.797945	celebrates	-0.07523409
-3.099097	celebrating	-0.5202622
-3.994152	celebration	-0.2652371
-4.421498	celebrity	-0.09879906
-3.994152	cellphone	-0.1292938
-4.421498	cellphones	-0.109299
-3.994152	cement	-0.1355387
-4.140184	center	-0.08912042
-4.421498	centipede	-0.1090349
-4.235192	centuries	-0.1044751
-3.994152	ceremony	-0.3223875
-4.421498	certain	-0.1094523
-4.421498	certificates	-0.1009707
-4.235192	chain	-0.0983117
-4.421498	chained	-0.09882482
-3.560648	chair	-0.13416
-3.725418	chairs	-0.08533338
-4.140184	chalk	-0.08536575
-3.797945	challenge	-0.4121551
-4.421498	challenged	-0.1089468
-4.140184	challenges	-0.08463179
-3.885061	challenging	-0.1077115
-4.421498	champ	-0.08596074
-4.140184	champion	-0.1751188
-3.885061	championship	-0.2143108
-4.421498	chance	-0.09882482
-4.421498	chances	-0.09879906
-3.994152	change	-0.1313357
-4.421498	changes	-0.1085817
-4.235192	changing	-0.08390583
-4.421498	chapter	-0.09879906
-4.421498	characters	-0.1014575
-4.421498	charges	-0.1084935
-4.421498	charished	-0.1093996
-3.994152	charity	-0.201534
-4.421498	charm	-0.08596074
-3.725418	chase	-0.131446
-4.235192	chased	-0.2492135
-3.517191	chases	-0.2407305
-4.421498	chasess	-0.1086446
-3.205983	chasing	-0.3711253
-4.140184	chat	-0.07467201
-4.421498	chats	-0.1036415
-3.994152	chatting	-0.07070886
-4.421498	chauvinsts	-0.1086194
-4.421498	check	-0.1080523
-3.994152	checkered	-0.1089152
-4.235192	checking	-0.1038516
-4.421498	checks	-0.1044942
-4.235192	cheek	-0.1045665
-4.421498	cheekily	-0.09879906
-4.421498	cheeks	-0.08596074
-3.797945	cheer	-0.1318902
-4.421498	cheered	-0.1014575
-4.235192	cheerfully	-0.09841884
-3.663287	cheering	-0.1208398
-3.994152	cheerleader	-0.08921918
-3.994152	cheerleaders	-0.157728
-4.421498	cheerleading	-0.1094523
-3.797945	cheers	-0.1430594
-4.421498	cherish	-0.1088209
-4.421498	cherry	-0.1092235
-4.421498	chess	-0.1090097
-4.235192	chest	-0.09591025
-3.994152	chew	-0.449397
-3.885061	chewing	-0.422165
-4.140184	chews	-0.2521923
-4.421498	chewy	-0.08596074
-4.421498	chicago	-0.1058018
-4.235192	chicken	-0.08514392
-4.235192	chickens	-0.101259
-4.421498	chid	-0.1092864
-2.976145	child	-0.1187074
-3.797945	childhood	-0.1565628
-4.421498	childhoods	-0.08596074
-4.421498	childhoold	-0.08596074
-2.930985	children	-0.2231922
-4.421498	childrens	-0.1091732
-4.421498	chili	-0.1080145
-4.421498	chill	-0.1094373
-4.421498	chills	-0.108695
-4.421498	chilly	-0.1092864
-4.421498	chin	-0.1009707
-4.421498	chippy	-0.1093493
-4.421498	chirping	-0.09879906
-4.421498	chit	-0.1094247
-4.421498	chivalrously	-0.1057511
-3.885061	chocolate	-0.07581439
-4.421498	choice	-0.1045832
-4.421498	choices	-0.08596074
-4.421498	chomps	-0.1014575
-4.235192	choose	-0.1025253
-4.421498	chops	-0.1091229
-4.235192	chopsticks	-0.1010796
-3.663287	christmas	-0.104289
-4.421498	chunk	-0.1045832
-3.885061	church	-0.06228559
-4.421498	cigar	-0.1012014
-4.140184	cigarette	-0.05634146
-4.235192	circle	-0.08477153
-4.235192	circles	-0.1090687
-4.421498	cirgarette	-0.08596074
-4.421498	citizen	-0.08596074
-4.421498	citizens	-0.1093996
-3.517191	city	-0.132361
-4.421498	civic	-0.1094523
-4.421498	civilian	-0.1009707
-4.421498	clack	-0.1094247
-4.235192	clap	-0.09680414
-4.421498	clapped	-0.1014575
-4.235192	clapping	-0.09746367
-3.608943	class	-0.1768548
-4.421498	classmates	-0.08596074
-4.421498	claus	-0.1090663
-4.421498	claustrophobia	-0.08596074
-4.421498	clay	-0.109211
-4.235192	clean	-0.1003934
-4.421498	cleaned	-0.08596074
-4.421498	cleaning	-0.1044942
-4.421498	cleans	-0.1044942
-4.421498	cleansing	-0.08596074
-3.885061	clear	-0.1436493
-4.421498	clears	-0.1034376
-4.421498	clever	-0.1094523
-4.421498	click	-0.08596074
-3.441483	cliff	-0.2337494
-4.421498	climate	-0.07163554
-4.421498	climax	-0.08596074
-3.560648	climb	-0.135195
-4.235192	climbed	-0.07471706
-3.797945	climber	-0.1308708
-4.140184	climbers	-0.1076612
-4.421498	climbin	-0.1092864
-3.083586	climbing	-0.3190584
-3.295374	climbs	-0.2964804
-4.421498	climing	-0.1034376
-4.421498	clings	-0.09882482
-4.421498	cloaks	-0.1012014
-3.517191	close	-0.5084319
-4.421498	closed	-0.09032406
-3.885061	closely	-0.08243527
-4.421498	closer	-0.1083423
-4.421498	closes	-0.09879906
-4.140184	closeup	-0.1699866
-4.235192	closing	-0.07468983
-4.235192	cloth	-0.09526135
-4.421498	clothed	-0.09879906
-3.47769	clothes	-0.1265416
-3.320926	clothing	-0.07774642
-4.235192	cloud	-0.0808018
-4.140184	clouds	-0.1529742
-4.421498	cloudy	-0.1088083
-3.994152	clown	-0.1111329
-4.235192	clowns	-0.1015791
-4.235192	club	-0.07698514
-4.421498	clustered	-0.1084431
-4.235192	coach	-0.09319785
-4.421498	coaches	-0.1076865
-4.421498	coaster	-0.06803288
-3.377035	coat	-0.1520009
-4.140184	coats	-0.09714039
-4.235192	cob	-0.1033547
-4.235192	cobblestone	-0.1089277
-4.421498	coconut	-0.09879906
-3.608943	coffee	-0.2707944
-4.421498	coiled	-0.1093493
-4.421498	colander	-0.1014575
-3.663287	cold	-0.1359009
-4.421498	coldness	-0.08596074
-4.421498	coldweather	-0.1092613
-4.421498	collage	-0.1045832
-3.885061	collar	-0.1124496
-4.421498	collared	-0.1090726
-4.421498	colleage	-0.1094435
-4.235192	collected	-0.08487795
-4.421498	collecting	-0.1093367
-4.421498	collection	-0.1045832
-4.421498	collective	-0.1094523
-3.885061	college	-0.1275173
-4.421498	collide	-0.09058671
-4.140184	collie	-0.1723961
-4.421498	colonial	-0.1092613
-4.235192	color	-0.1088272
-3.408065	colored	-0.1012996
-3.441483	colorful	-0.07889925
-4.421498	colorfully	-0.1091229
-4.421498	coloring	-0.1093493
-3.994152	colors	-0.07712053
-3.994152	colourful	-0.1002394
-4.421498	colourfully	-0.09882482
-4.421498	combat	-0.08596074
-4.421498	combo	-0.08596074
-3.560648	come	-0.1859404
-4.421498	comedians	-0.08596074
-4.140184	comes	-0.09608527
-4.421498	comfort	-0.1063275
-4.421498	comfortable	-0.1090474
-4.235192	comfortably	-0.08586118
-4.421498	comforting	-0.1034376
-4.421498	comforts	-0.1061819
-4.421498	comic	-0.1094523
-4.421498	comics	-0.08596074
-3.517191	coming	-0.09431915
-4.235192	committed	-0.2405665
-4.421498	common	-0.1093241
-4.421498	communicating	-0.1036415
-3.994152	community	-0.1425795
-4.421498	commuting	-0.1094247
-3.797945	companion	-0.4038368
-4.140184	company	-0.07073633
-4.421498	compared	-0.09882482
-3.885061	compete	-0.2916371
-4.421498	competes	-0.09882482
-4.421498	competetive	-0.1090978
-3.608943	competing	-0.2892385
-3.205983	competition	-0.4795555
-4.421498	competitions	-0.08596074
-4.140184	competitive	-0.100913
-4.421498	competitively	-0.1091732
-4.421498	competitors	-0.1094523
-4.235192	complete	-0.1043479
-4.140184	completely	-0.08573507
-4.421498	completes	-0.1034376
-4.421498	complex	-0.1090349
-4.140184	computer	-0.0923644
-4.421498	computers	-0.1012014
-4.235192	concentrates	-0.1797978
-4.235192	concern	-0.08407911
-4.421498	concerned	-0.1094247
-4.235192	concert	-0.1674818
-3.797945	concrete	-0.1050569
-4.421498	conditions	-0.08596074
-4.421498	condolence	-0.09882482
-4.421498	condoms	-0.1036415
-4.421498	conduct	-0.1044942
-3.885061	cone	-0.1637384
-3.994152	cones	-0.08500018
-4.421498	confers	-0.1036415
-4.421498	confetti	-0.1014575
-4.140184	confidence	-0.1639019
-4.140184	confident	-0.07337371
-4.421498	confront	-0.1061819
-4.235192	confusing	-0.0807078
-4.421498	connected	-0.08596074
-4.421498	conquer	-0.09837364
-4.235192	conquered	-0.1038516
-3.885061	conquering	-0.1439164
-4.421498	conquests	-0.1012014
-4.421498	considered	-0.1094523
-4.421498	constructed	-0.1093116
-3.885061	construction	-0.0977994
-4.421498	contact	-0.1094523
-4.421498	container	-0.08596074
-4.421498	containing	-0.1094373
-4.140184	contemplates	-0.1035013
-3.377035	contemplating	-0.2620876
-4.235192	contents	-0.1045576
-4.140184	contest	-0.07836458
-4.421498	contestant	-0.1087957
-4.140184	continues	-0.08379912
-4.421498	contraption	-0.108254
-4.421498	contrasts	-0.08596074
-4.140184	control	-0.1699866
-4.421498	controller	-0.1079893
-4.421498	contruction	-0.1094435
-4.421498	convenience	-0.1093619
-3.994152	conversation	-0.1099196
-4.421498	conversations	-0.08596074
-4.421498	conversing	-0.108695
-4.421498	convey	-0.1034376
-4.421498	convoy	-0.1045832
-4.235192	cook	-0.09345881
-4.421498	cookie	-0.1012014
-4.421498	cookies	-0.107156
-3.885061	cooking	-0.1022786
-4.235192	cooks	-0.1046912
-3.377035	cool	-0.07802065
-4.421498	cooler	-0.08596074
-3.994152	cooling	-0.259376
-4.421498	coolly	-0.1093241
-4.421498	coolness	-0.1045832
-4.421498	cools	-0.108632
-4.421498	cop	-0.1057511
-4.421498	copied	-0.1074718
-4.421498	coppery	-0.1080145
-4.421498	cord	-0.1079893
-4.421498	cords	-0.104939
-4.421498	core	-0.1094523
-3.885061	corn	-0.09675083
-4.421498	corndog	-0.1092864
-4.421498	corndogs	-0.1012014
-4.140184	corner	-0.08862732
-4.421498	corporate	-0.1090852
-4.421498	corral	-0.1093241
-4.421498	corridor	-0.1012014
-3.320926	costume	-0.06649531
-4.235192	costumed	-0.1092989
-3.560648	costumes	-0.08010845
-4.235192	cots	-0.1086635
-4.421498	cottage	-0.1045832
-4.421498	cotton	-0.1094247
-3.663287	couch	-0.1116107
-4.421498	couching	-0.1091229
-3.663287	could	-0.2146302
-4.421498	count	-0.1025253
-3.994152	counter	-0.141098
-3.885061	country	-0.2295879
-4.140184	countryside	-0.05584149
-4.421498	countrysides	-0.08596074
-4.421498	county	-0.1094247
-3.47769	couple	-0.07352262
-3.994152	couples	-0.09776315
-4.235192	courage	-0.06603175
-4.235192	courageous	-0.108399
-3.441483	course	-0.1832399
-3.608943	court	-0.114459
-4.421498	courtship	-0.09877316
-4.140184	courtyard	-0.09286498
-4.421498	cousin	-0.1088083
-4.140184	cover	-0.1081027
-3.377035	covered	-0.1748867
-4.140184	covering	-0.09341969
-4.140184	coverings	-0.09037001
-4.421498	covers	-0.1036415
-3.797945	cow	-0.08759931
-4.421498	cowboy	-0.1053769
-4.421498	cowboys	-0.1014575
-4.421498	coworkers	-0.1094435
-4.421498	cows	-0.09882482
-4.421498	coyotes	-0.08596074
-4.421498	cpr	-0.08596074
-4.421498	crab	-0.1093493
-4.421498	cracked	-0.1090852
-4.421498	crackers	-0.08596074
-4.421498	cramped	-0.1094523
-4.235192	crane	-0.1049071
-4.421498	crank	-0.09879906
-3.885061	crash	-0.07434221
-4.421498	crashes	-0.09882482
-4.235192	crashing	-0.1088523
-4.235192	crate	-0.09035033
-4.235192	crates	-0.2453831
-4.421498	crawl	-0.1082162
-4.421498	crawling	-0.1014575
-4.140184	crawls	-0.1901491
-4.421498	crazily	-0.1077622
-4.235192	crazy	-0.1091166
-4.421498	cream	-0.08394571
-3.994152	create	-0.1040361
-4.421498	creates	-0.1088083
-3.797945	creating	-0.1824911
-4.421498	creation	-0.08596074
-4.421498	creativity	-0.08596074
-4.421498	creature	-0.1094121
-4.421498	credits	-0.08596074
-4.140184	creek	-0.1159338
-4.421498	crest	-0.08596074
-4.421498	cresting	-0.1034376
-4.235192	crests	-0.2451792
-4.235192	crevasse	-0.07749958
-4.421498	crib	-0.09882482
-3.994152	cricket	-0.1463181
-4.421498	cries	-0.1067009
-4.140184	crisp	-0.1089089
-4.421498	crocodile	-0.1036415
-4.421498	crocs	-0.1090223
-4.421498	crooked	-0.1091984
-4.421498	croquette	-0.1074718
-3.797945	cross	-0.312021
-4.421498	crossbones	-0.1092361
-4.140184	crosscountry	-0.1984775
-4.235192	crossed	-0.07471706
-3.725418	crosses	-0.2199961
-3.797945	crossing	-0.1829044
-4.235192	crosswalk	-0.07698514
-4.421498	crotch	-0.1094373
-4.421498	crouch	-0.09879906
-4.421498	crouched	-0.1076991
-3.994152	crouches	-0.08407238
-4.140184	crouching	-0.08873824
-4.421498	croud	-0.08596074
-4.421498	crow	-0.1045832
-3.348075	crowd	-0.1157265
-3.994152	crowded	-0.1288157
-4.421498	crowed	-0.1009707
-4.235192	crown	-0.1059158
-4.421498	crumbling	-0.1012014
-4.421498	crunchy	-0.1091732
-3.797945	crush	-0.2356081
-4.235192	crushing	-0.1014318
-4.421498	cry	-0.1066503
-4.235192	crying	-0.1062389
-4.235192	cuddle	-0.09032406
-4.421498	cuddling	-0.1087831
-4.140184	culture	-0.09416249
-4.140184	cup	-0.152862
-4.235192	curb	-0.1338445
-3.608943	curious	-0.08419348
-4.421498	curiousity	-0.08596074
-3.560648	curiously	-0.06651872
-3.994152	curly	-0.1741108
-4.421498	curlyhaired	-0.1089468
-4.140184	current	-0.06911172
-4.421498	currently	-0.09879906
-4.421498	currents	-0.1036415
-4.235192	curve	-0.1523332
-3.994152	curved	-0.100274
-4.421498	curves	-0.1076991
-4.421498	customers	-0.1012014
-4.140184	cut	-0.09321091
-3.797945	cute	-0.1092896
-3.994152	cutely	-0.1574364
-4.421498	cutest	-0.1091984
-4.421498	cutie	-0.08596074
-4.421498	cutouts	-0.108254
-4.235192	cuts	-0.1016431
-4.235192	cutting	-0.1020013
-4.140184	cycle	-0.1739563
-4.421498	cycles	-0.1074718
-4.235192	cycling	-0.2510029
-3.885061	cyclist	-0.1812785
-4.235192	cyclists	-0.1073897
-4.235192	dachshund	-0.1089026
-3.885061	dad	-0.2718298
-3.994152	daddy	-0.09187785
-4.235192	daily	-0.1065807
-4.421498	daintily	-0.109387
-4.421498	dalmation	-0.1087957
-4.421498	damage	-0.1044942
-3.320926	dance	-0.1746418
-3.994152	dancer	-0.1706428
-4.421498	dancers	-0.1084053
-3.517191	dances	-0.2325507
-3.320926	dancing	-0.1851727
-4.421498	dandelion	-0.1094523
-3.885061	danger	-0.2791314
-4.235192	dangerous	-0.1083737
-4.421498	dangerously	-0.08596074
-4.421498	dangers	-0.1092487
-4.421498	dangling	-0.1094523
-4.421498	dappled	-0.1092613
-4.421498	dare	-0.1094523
-4.421498	dared	-0.1086446
-3.994152	daredevil	-0.09946192
-4.421498	daredevils	-0.1014575
-3.994152	daring	-0.1511405
-3.560648	dark	-0.06678003
-4.235192	darkhaired	-0.1086005
-4.235192	darkness	-0.2277024
-4.421498	darkskinned	-0.1084431
-4.421498	darling	-0.1091103
-4.421498	dash	-0.1088461
-4.421498	dashing	-0.1084431
-3.441483	date	-0.2565572
-4.421498	dated	-0.08596074
-4.421498	dates	-0.07471706
-3.725418	daughter	-0.1460174
-4.421498	david	-0.09882482
-2.818285	day	-0.3760074
-4.421498	daylight	-0.08596074
-3.725418	days	-0.2312868
-4.235192	dead	-0.1092424
-4.421498	deaf	-0.1094523
-4.140184	dear	-0.08487129
-4.421498	debating	-0.1036415
-4.421498	debonair	-0.08596074
-4.421498	deceased	-0.1094121
-4.421498	decide	-0.1014575
-4.421498	decides	-0.1094121
-4.140184	deciding	-0.198163
-3.994152	deck	-0.107945
-4.235192	decorated	-0.1090663
-4.235192	dedicates	-0.1057194
-3.725418	deep	-0.1313971
-3.994152	deeply	-0.2495336
-4.421498	deer	-0.1004641
-4.235192	defeat	-0.07942329
-4.421498	defeating	-0.1044942
-4.235192	defend	-0.1979364
-4.421498	defenders	-0.09882482
-4.421498	defending	-0.1044942
-4.421498	defensive	-0.1092864
-4.421498	defiant	-0.1084431
-4.421498	defying	-0.1094523
-4.421498	delay	-0.08596074
-4.421498	delicately	-0.1012014
-4.140184	delicious	-0.0986983
-4.421498	deliciously	-0.1094121
-3.994152	delight	-0.1943538
-4.421498	delighted	-0.09882482
-4.421498	delightfully	-0.1093619
-4.421498	delighting	-0.09879906
-4.421498	deliver	-0.1094523
-4.421498	delivers	-0.109387
-4.421498	democratic	-0.1094523
-4.421498	demolished	-0.1093493
-4.421498	demonstrate	-0.1061565
-4.421498	demonstrates	-0.1061819
-4.421498	demonstrating	-0.1075224
-4.421498	demonstration	-0.07468983
-4.421498	denali	-0.08596074
-4.235192	denim	-0.1081027
-4.421498	department	-0.08596074
-4.421498	depicting	-0.1091355
-4.421498	derby	-0.09526135
-4.421498	derringdo	-0.104939
-4.421498	descend	-0.1014575
-4.235192	descending	-0.1013294
-4.421498	descends	-0.1094247
-4.421498	describe	-0.107156
-3.994152	desert	-0.1595127
-4.421498	deserves	-0.08596074
-4.421498	design	-0.08596074
-4.421498	desires	-0.1094435
-4.235192	desk	-0.09394109
-4.421498	despair	-0.1083297
-4.421498	desparately	-0.1094121
-3.994152	desperately	-0.1040959
-4.421498	despite	-0.1093619
-3.885061	destination	-0.1798724
-4.421498	destinations	-0.08596074
-3.560648	destiny	-0.4980808
-4.235192	determination	-0.07471706
-4.421498	determindly	-0.1093619
-4.421498	determine	-0.1094247
-3.517191	determined	-0.3810647
-4.421498	determining	-0.1094435
-4.421498	devel	-0.1092864
-4.421498	device	-0.09879906
-4.421498	devices	-0.1009707
-4.421498	devil	-0.1092613
-4.235192	devoted	-0.09872817
-4.421498	dg	-0.1057511
-4.421498	diaper	-0.1086824
-4.421498	diapers	-0.1085817
-3.994152	did	-0.08015677
-4.421498	differences	-0.08596074
-3.797945	different	-0.1362147
-4.421498	differently	-0.08596074
-4.421498	difficult	-0.1093493
-4.421498	digger	-0.09879906
-3.885061	digging	-0.1079229
-4.421498	digs	-0.1034376
-4.421498	dilute	-0.1075224
-4.421498	dimly	-0.1094121
-4.421498	dine	-0.1058018
-4.235192	dining	-0.1092951
-3.47769	dinner	-0.2811667
-4.235192	dip	-0.07468983
-4.140184	direction	-0.09674589
-4.421498	directly	-0.108758
-4.421498	director	-0.08596074
-4.421498	directs	-0.1093619
-3.271244	dirt	-0.1792729
-4.421498	dirtbike	-0.08596074
-4.421498	dirtbikers	-0.107434
-3.885061	dirty	-0.1069751
-4.421498	disagree	-0.1014575
-4.421498	disappears	-0.08596074
-4.421498	disappointed	-0.1066503
-4.421498	disaster	-0.1074718
-4.140184	disc	-0.07007621
-4.235192	discover	-0.0807078
-4.140184	discovering	-0.1033356
-4.421498	discovery	-0.1058018
-4.235192	discuss	-0.1093077
-4.421498	discusses	-0.1091355
-3.885061	discussing	-0.1497182
-4.421498	disdain	-0.08596074
-4.421498	disgustedly	-0.08596074
-4.421498	disgusting	-0.1090726
-4.235192	dish	-0.08592754
-4.421498	disk	-0.1094373
-4.421498	dismay	-0.1067009
-4.421498	disney	-0.1093241
-3.560648	display	-0.1172139
-4.421498	displayed	-0.1094373
-4.140184	displaying	-0.1730906
-4.421498	displays	-0.1061819
-3.797945	distance	-0.0854205
-4.235192	distant	-0.1092951
-4.421498	distribute	-0.1088713
-4.421498	district	-0.09882482
-4.421498	ditch	-0.09285197
-4.140184	dive	-0.09748946
-4.421498	diver	-0.1089153
-4.421498	divers	-0.107434
-3.994152	dives	-0.09932041
-4.421498	divided	-0.1074718
-3.608943	diving	-0.2003714
-4.421498	dj	-0.1094247
-3.248383	do	-0.1781977
-4.421498	doberman	-0.1086824
-4.421498	dobernab	-0.1014575
-4.235192	dock	-0.07409252
-3.115183	does	-0.453718
-2.475871	dog	-0.2414828
-4.235192	doge	-0.09991193
-4.421498	doggy	-0.1094121
-2.818285	dogs	-0.2019449
-4.421498	dogsled	-0.1008361
-3.06861	doing	-0.4434004
-4.235192	doll	-0.08591427
-4.421498	dollars	-0.08596074
-4.421498	dolly	-0.1092613
-4.421498	dolphin	-0.1094435
-4.421498	dolphins	-0.1092487
-4.421498	dome	-0.1093116
-4.421498	domino	-0.1093619
-4.421498	donating	-0.1075224
-4.140184	done	-0.1703624
-4.235192	dong	-0.09799314
-4.421498	dont	-0.1094373
-4.235192	donut	-0.2510909
-4.421498	donuts	-0.1036415
-4.421498	donw	-0.1034376
-3.885061	door	-0.0728527
-4.421498	doorbell	-0.09882482
-4.421498	doors	-0.08596074
-4.421498	doorstep	-0.09879906
-4.140184	doorway	-0.0833121
-4.421498	dos	-0.1091229
-4.421498	dose	-0.1034376
-4.235192	dot	-0.09860574
-4.421498	double	-0.1093116
-4.421498	dove	-0.08596074
-2.390778	down	-0.4660747
-3.663287	downhill	-0.1621475
-4.235192	downs	-0.1045259
-4.421498	downsteps	-0.1076865
-4.421498	downtown	-0.1093493
-4.235192	drag	-0.1089051
-4.421498	dragged	-0.1089216
-4.421498	dragging	-0.1034376
-4.421498	dragon	-0.1092613
-4.235192	drags	-0.1033802
-4.421498	drainage	-0.1092487
-4.421498	dramatic	-0.1094523
-4.235192	dramatically	-0.1013359
-4.421498	drams	-0.1045832
-4.140184	drawing	-0.090777
-4.421498	drawn	-0.1093744
-4.421498	dreadlocks	-0.1085501
-3.441483	dream	-0.2123531
-4.421498	dreamed	-0.1045832
-4.421498	dreamily	-0.1092864
-3.054133	dreaming	-0.6567989
-3.441483	dreams	-0.3096537
-4.421498	dreamsetting	-0.08596074
-4.421498	dreamsitting	-0.108758
-4.421498	dreamy	-0.1093619
-4.421498	dreeds	-0.1084053
-4.421498	drenched	-0.1080145
-3.186241	dress	-0.1016306
-3.099097	dressed	-0.5657846
-4.421498	dresser	-0.09882482
-3.47769	dresses	-0.1455501
-4.421498	dressing	-0.1080523
-4.421498	dresss	-0.1057511
-4.421498	dribbled	-0.1044942
-4.421498	dribbles	-0.1040044
-4.235192	dribbling	-0.09701116
-4.421498	dried	-0.1094121
-4.421498	drift	-0.1084431
-3.441483	drink	-0.09677675
-3.408065	drinking	-0.1207633
-3.517191	drinks	-0.1198941
-3.725418	drive	-0.07067442
-3.663287	driver	-0.08129382
-4.421498	drivers	-0.1093116
-4.421498	driverside	-0.1093367
-3.797945	drives	-0.1371236
-4.140184	driveway	-0.08182776
-3.663287	driving	-0.146255
-4.421498	drop	-0.08596074
-4.235192	droplets	-0.09648048
-4.235192	dropped	-0.08574172
-4.235192	dropping	-0.08407911
-4.140184	drops	-0.07435605
-4.421498	drought	-0.1094523
-4.140184	drove	-0.1017519
-4.421498	drown	-0.1094523
-4.421498	drowned	-0.08596074
-4.421498	drowning	-0.08596074
-4.421498	druids	-0.08596074
-4.421498	drum	-0.1082288
-4.235192	drummer	-0.1004128
-3.885061	drums	-0.1234908
-4.421498	drunk	-0.1036415
-3.560648	dry	-0.1368637
-3.885061	duck	-0.1396563
-3.797945	ducks	-0.08434545
-4.421498	duel	-0.09879906
-4.235192	duke	-0.2500461
-4.421498	dumping	-0.1034376
-4.421498	dumps	-0.1034376
-4.140184	dune	-0.08972187
-4.421498	dunes	-0.1091103
-4.235192	dunking	-0.2451792
-2.899952	during	-0.4886489
-4.421498	durnig	-0.1034376
-4.421498	dusk	-0.06397784
-4.140184	dust	-0.1007014
-4.421498	dusted	-0.1036415
-4.140184	dusty	-0.1089656
-4.421498	dutifully	-0.08596074
-4.421498	duty	-0.1009707
-4.421498	dwarfed	-0.1074718
-4.421498	dwelling	-0.09882482
-4.235192	dyed	-0.1086383
-2.843838	each	-0.5980839
-3.797945	eachother	-0.1715421
-3.994152	eager	-0.2058174
-3.885061	eagerly	-0.1513606
-4.421498	eagerness	-0.08596074
-4.140184	eagle	-0.08177418
-4.140184	ear	-0.1722232
-4.235192	early	-0.0985502
-4.421498	earn	-0.1034376
-4.235192	earning	-0.1073897
-4.421498	earns	-0.1088713
-4.140184	earphones	-0.09807044
-4.421498	earrings	-0.1093744
-3.663287	ears	-0.04432683
-4.140184	earth	-0.3013841
-4.421498	easier	-0.09882482
-4.421498	easiest	-0.1091984
-4.235192	easily	-0.09773494
-4.421498	easter	-0.1094523
-3.994152	easy	-0.1397559
-3.797945	eat	-0.09064566
-3.377035	eating	-0.08311211
-3.663287	eats	-0.08619373
-4.421498	eavesdropping	-0.1094435
-4.421498	eclectic	-0.1094373
-4.140184	ecstatic	-0.1074718
-3.885061	edge	-0.1105981
-4.421498	effect	-0.08596074
-4.421498	effects	-0.09882482
-4.235192	effort	-0.07471706
-4.235192	efforts	-0.07471706
-4.421498	eggs	-0.09879906
-4.421498	egytianlike	-0.1094435
-4.421498	eight	-0.1085753
-4.421498	either	-0.1045832
-4.421498	ejected	-0.1076865
-3.797945	elaborate	-0.1089427
-4.421498	elated	-0.08596074
-4.140184	elder	-0.1076612
-3.885061	elderly	-0.2447631
-4.421498	electric	-0.1094247
-4.421498	electronic	-0.1094523
-4.421498	electronics	-0.08596074
-4.421498	elegantly	-0.1094523
-4.235192	elephant	-0.1003743
-4.421498	elephants	-0.107434
-4.421498	elope	-0.08596074
-4.421498	else	-0.1084431
-4.421498	eluding	-0.1044942
-4.421498	elusive	-0.1093744
-3.663287	embrace	-0.1667887
-4.421498	embraces	-0.1034376
-4.140184	embracing	-0.1045196
-4.421498	emergency	-0.1094121
-4.421498	emerges	-0.1076865
-4.421498	emerging	-0.1076865
-4.421498	emotional	-0.1094373
-4.235192	emotionally	-0.08582137
-4.421498	emotions	-0.08596074
-4.235192	empty	-0.1077684
-4.421498	emulating	-0.1044942
-4.421498	encased	-0.09879906
-4.421498	enchants	-0.1044942
-4.421498	enclosed	-0.1093996
-4.235192	enclosure	-0.1082351
-4.140184	encourage	-0.09853482
-4.235192	encouragement	-0.08407911
-3.725418	end	-0.1231897
-4.421498	endeavors	-0.1080523
-4.140184	ending	-0.07872228
-4.421498	endless	-0.1092738
-4.421498	endlessly	-0.1094247
-4.140184	ends	-0.08297826
-4.235192	endurance	-0.2277024
-4.421498	endure	-0.1094247
-4.421498	enduring	-0.1093241
-4.421498	endzone	-0.08596074
-4.421498	enemies	-0.1045832
-4.421498	enemy	-0.08596074
-4.235192	energetic	-0.1079577
-3.994152	energetically	-0.07320292
-4.421498	energized	-0.08596074
-3.725418	energy	-0.3974621
-4.421498	enforcement	-0.08596074
-4.235192	engage	-0.09282584
-4.421498	engaged	-0.09879906
-4.235192	engagement	-0.08591427
-4.421498	engine	-0.09381732
-4.421498	enhance	-0.1092864
-4.421498	enhancing	-0.1075224
-3.186241	enjoy	-0.2563992
-4.235192	enjoyable	-0.1090285
-4.421498	enjoyed	-0.1082036
-2.56302	enjoying	-0.5120208
-3.994152	enjoyment	-0.2315623
-3.271244	enjoys	-0.294652
-4.421498	enlarged	-0.1012014
-4.421498	enojys	-0.1094121
-4.421498	enormous	-0.1094373
-4.421498	enough	-0.1091732
-4.421498	enoying	-0.1044942
-4.421498	ensemble	-0.1012014
-4.421498	ensure	-0.104958
-4.421498	ensuring	-0.108254
-4.421498	entangles	-0.1093116
-4.421498	enter	-0.07959165
-4.421498	entertain	-0.1060386
-4.421498	entertainer	-0.08596074
-4.421498	entertainers	-0.1090474
-3.885061	entertaining	-0.09477399
-4.421498	enthusiasm	-0.0772289
-4.421498	enthusiastic	-0.1084431
-3.725418	enthusiastically	-0.09069816
-4.421498	enthusiasts	-0.1094523
-4.421498	entice	-0.1034376
-4.421498	enticing	-0.1009707
-4.421498	entrance	-0.1036415
-4.421498	entries	-0.08596074
-4.140184	environment	-0.09841486
-4.421498	envisioning	-0.1044942
-4.421498	enymies	-0.08596074
-4.235192	equally	-0.08594337
-4.421498	equals	-0.1034376
-4.421498	equestrian	-0.09226635
-3.994152	equipment	-0.1002715
-4.421498	equipments	-0.1014575
-4.421498	equpiment	-0.1009707
-4.421498	ernestly	-0.1084935
-4.421498	escalator	-0.08596074
-4.140184	escape	-0.1028902
-4.235192	escapes	-0.1034209
-4.140184	escaping	-0.1064249
-4.421498	estranged	-0.1090852
-4.421498	etc	-0.08596074
-4.421498	eternal	-0.1093116
-4.421498	eternally	-0.1083423
-4.421498	ethereal	-0.1093619
-4.421498	ethnic	-0.1088335
-4.421498	euipment	-0.1058018
-4.421498	euphoric	-0.08596074
-4.421498	evade	-0.1034376
-3.885061	evening	-0.1798724
-3.517191	event	-0.152118
-4.421498	events	-0.08596074
-4.421498	eventual	-0.1093367
-3.994152	ever	-0.1251176
-4.421498	everest	-0.08596074
-4.421498	evergreen	-0.1091984
-3.797945	every	-0.2033904
-3.994152	everyone	-0.102372
-4.421498	everything	-0.1093116
-4.421498	everywhere	-0.09879906
-4.421498	evil	-0.109387
-4.421498	exam	-0.09879906
-4.235192	examine	-0.1025253
-4.235192	examines	-0.09839305
-4.140184	examining	-0.1031953
-4.421498	excel	-0.1014575
-4.421498	except	-0.104939
-4.421498	excercising	-0.1014575
-4.235192	exchange	-0.08572844
-4.421498	exchanging	-0.1094523
-3.271244	excited	-0.2545755
-3.348075	excitedly	-0.1060828
-3.560648	excitement	-0.3116359
-4.140184	exciting	-0.1077266
-4.421498	excitingly	-0.1091103
-4.421498	exclaims	-0.1091607
-4.421498	executes	-0.1034376
-3.797945	exercise	-0.06083278
-4.421498	exercises	-0.1093744
-4.421498	exercising	-0.09882482
-4.140184	exhausted	-0.1054974
-4.421498	exhaustion	-0.08596074
-4.235192	exhibit	-0.08208892
-4.140184	exhibiting	-0.1934055
-4.421498	exhibition	-0.1045832
-4.421498	exhilarated	-0.08596074
-4.235192	exhilaration	-0.0858081
-4.421498	exhilerated	-0.08596074
-4.421498	exhilirating	-0.109387
-4.421498	exilarated	-0.1074718
-4.421498	existence	-0.1067009
-4.235192	exotic	-0.09879892
-4.421498	expands	-0.107156
-4.421498	expanses	-0.1045832
-4.421498	expect	-0.09882482
-4.421498	expecting	-0.09882482
-4.421498	expects	-0.1034376
-4.421498	expedition	-0.1045832
-3.441483	experience	-0.2694385
-4.421498	experiences	-0.1044942
-3.47769	experiencing	-0.6346565
-4.235192	expert	-0.07468983
-4.421498	exploration	-0.08596074
-4.235192	explore	-0.08069023
-4.140184	exploring	-0.1372564
-4.235192	explosion	-0.08579482
-4.421498	explosive	-0.109387
-4.421498	exposure	-0.08596074
-4.421498	express	-0.09489743
-4.140184	expresses	-0.1903541
-3.885061	expressing	-0.1883532
-4.421498	expression	-0.1014575
-4.421498	expressions	-0.08596074
-4.421498	extending	-0.109387
-4.421498	extinct	-0.1094373
-4.421498	extinguish	-0.1034376
-4.421498	extinguishers	-0.08596074
-4.235192	extra	-0.1092927
-4.235192	extreme	-0.1088523
-4.140184	extremely	-0.108924
-3.725418	eye	-0.06000952
-4.235192	eyebrows	-0.1011756
-4.421498	eyed	-0.1090097
-4.421498	eyeing	-0.1034376
-4.421498	eyepatch	-0.1091984
-3.608943	eyes	-0.09003503
-4.140184	fabric	-0.09951337
-3.040123	face	-0.1859074
-4.421498	faced	-0.1061819
-3.560648	faces	-0.1362742
-4.235192	facial	-0.1093556
-4.235192	facility	-0.2277024
-3.663287	facing	-0.1172743
-4.421498	fail	-0.09882482
-3.994152	fair	-0.1845317
-4.421498	fairground	-0.1090726
-4.421498	fairy	-0.1092172
-4.421498	fairytale	-0.1094247
-4.235192	faith	-0.08583464
-4.235192	faithful	-0.1007335
-4.235192	faithfully	-0.09880796
-4.421498	fake	-0.1093414
-3.441483	fall	-0.1432433
-3.725418	fallen	-0.08800169
-3.517191	falling	-0.1125407
-3.608943	falls	-0.2332024
-4.235192	false	-0.1093743
-4.140184	fame	-0.2366216
-4.421498	families	-0.08596074
-3.226666	family	-0.1445428
-4.140184	famous	-0.1743686
-3.994152	fan	-0.07506672
-4.421498	fancily	-0.1094435
-4.140184	fancy	-0.1597107
-4.421498	fanning	-0.1093116
-3.725418	fans	-0.1609314
-4.235192	fantastic	-0.1093053
-4.421498	fantasy	-0.1093241
-4.140184	far	-0.1489062
-4.140184	farm	-0.1078907
-4.421498	farmers	-0.1093996
-4.421498	farmland	-0.08596074
-4.235192	farther	-0.2509023
-4.421498	fashion	-0.08596074
-4.421498	fashioned	-0.1092298
-3.441483	fast	-0.07705196
-4.421498	fastball	-0.08596074
-4.421498	faster	-0.08596074
-4.235192	fastly	-0.08578154
-4.235192	fat	-0.1088649
-4.140184	fate	-0.1751123
-3.517191	father	-0.1169711
-4.421498	fathers	-0.1094523
-4.421498	faucet	-0.109387
-4.421498	favorable	-0.1094523
-3.885061	favorite	-0.1101853
-4.421498	favorites	-0.08596074
-4.421498	favourite	-0.1091607
-4.421498	fawkes	-0.1093619
-3.517191	fear	-0.5182678
-4.421498	fearing	-0.104939
-4.235192	fearless	-0.1093366
-4.140184	fearlessly	-0.1732639
-3.608943	fears	-0.2339028
-4.235192	feast	-0.2277024
-4.140184	feather	-0.1090648
-4.235192	feathered	-0.2508394
-4.235192	feathers	-0.07640904
-4.421498	feats	-0.08596074
-4.421498	feature	-0.1093744
-4.421498	features	-0.08596074
-4.421498	fed	-0.09879906
-3.994152	feed	-0.1472227
-4.235192	feeding	-0.2451792
-3.663287	feel	-0.1279303
-3.083586	feeling	-0.116446
-4.235192	feelings	-0.08117761
-3.608943	feels	-0.1795965
-3.663287	feet	-0.1463758
-4.421498	feigns	-0.1094373
-4.140184	fell	-0.09612416
-4.421498	fellow	-0.1094523
-3.560648	female	-0.1112445
-3.994152	females	-0.08788694
-3.47769	fence	-0.1177227
-4.421498	fenced	-0.09861863
-4.421498	fencers	-0.09879906
-4.235192	fencing	-0.08584791
-4.140184	ferociously	-0.08538976
-4.421498	ferris	-0.1093744
-3.885061	festival	-0.2709882
-4.421498	festively	-0.1091229
-4.421498	festivelypainted	-0.1094523
-4.140184	festivities	-0.3013841
-3.885061	fetch	-0.1496665
-4.421498	fetches	-0.1034376
-4.140184	fetching	-0.2538729
-4.235192	few	-0.1068928
-4.421498	fiance	-0.07749958
-2.988209	field	-0.2014779
-4.421498	fields	-0.07980704
-4.421498	fielf	-0.1092235
-4.421498	fierce	-0.1086572
-4.421498	fiercely	-0.1094247
-4.421498	fifteen	-0.1087957
-3.226666	fight	-0.244963
-4.235192	fighter	-0.2277024
-4.421498	fighters	-0.1087642
-3.226666	fighting	-0.3126921
-4.140184	fights	-0.09338056
-4.235192	figure	-0.07468983
-4.421498	figurine	-0.1091103
-4.421498	figuring	-0.1082162
-3.517191	filled	-0.3472765
-4.421498	film	-0.109387
-4.235192	films	-0.1026019
-4.421498	fin	-0.1092738
-3.994152	final	-0.1450107
-4.235192	finally	-0.1091418
-4.235192	finals	-0.08567534
-4.421498	finance	-0.08596074
-3.608943	find	-0.1323708
-3.663287	finding	-0.1614666
-3.797945	finds	-0.09983066
-4.421498	fine	-0.08596074
-4.140184	finger	-0.09500796
-3.885061	fingers	-0.1162624
-3.994152	finish	-0.1355201
-4.235192	finishes	-0.08594337
-4.235192	finishing	-0.1011693
-4.421498	finishline	-0.08596074
-4.421498	fins	-0.1093619
-3.560648	fire	-0.08033837
-4.421498	fired	-0.1076865
-3.994152	firefighter	-0.1084871
-4.421498	firefighters	-0.1093493
-4.421498	fireplace	-0.08566206
-4.421498	fires	-0.1034376
-4.235192	firetruck	-0.09876037
-4.235192	fireworks	-0.1819845
-4.421498	firing	-0.1034376
-3.271244	first	-0.1877233
-3.441483	fish	-0.1813327
-4.421498	fisher	-0.1093996
-4.421498	fisherman	-0.1090058
-3.797945	fishes	-0.1458865
-3.348075	fishing	-0.115371
-4.421498	fishscales	-0.08596074
-4.235192	fist	-0.1064288
-4.140184	fit	-0.08058017
-4.421498	fitness	-0.1094373
-3.994152	five	-0.173914
-4.421498	fix	-0.1070865
-3.797945	flag	-0.1044175
-4.421498	flaggers	-0.1094247
-3.560648	flags	-0.06820025
-4.421498	flame	-0.1076865
-3.994152	flames	-0.08668321
-4.140184	flaming	-0.1071521
-4.421498	flapping	-0.1083045
-4.421498	flaps	-0.1088964
-4.421498	flares	-0.1094247
-4.421498	flash	-0.1093367
-4.235192	flat	-0.08594337
-4.421498	flattened	-0.1089845
-4.421498	flaw	-0.08596074
-4.421498	fleas	-0.08596074
-4.421498	flexes	-0.1061819
-4.235192	flexing	-0.1029721
-4.421498	flickr	-0.1094523
-3.320926	flies	-0.3873076
-3.994152	flight	-0.08042563
-3.797945	flip	-0.1405257
-4.421498	flipflops	-0.1057511
-4.421498	flipped	-0.109387
-4.140184	flipping	-0.09777364
-4.235192	flips	-0.2503737
-4.421498	flirt	-0.1036415
-4.235192	flirting	-0.2453831
-4.421498	flirts	-0.1093116
-3.885061	float	-0.1415974
-3.885061	floaties	-0.1284342
-4.235192	floating	-0.1012334
-3.994152	floats	-0.1323165
-4.140184	flock	-0.06939443
-4.421498	flooded	-0.1090223
-3.560648	floor	-0.105976
-4.421498	flooring	-0.09882482
-4.421498	floors	-0.1009707
-4.421498	floppy	-0.1093744
-4.421498	floral	-0.1091001
-4.235192	florida	-0.1092951
-3.885061	flower	-0.05500833
-4.235192	flowered	-0.1091418
-3.408065	flowers	-0.3003806
-4.235192	flowery	-0.1088272
-4.235192	flowing	-0.08588773
-4.421498	flown	-0.1036415
-4.421498	flows	-0.1076991
-3.994152	fluffy	-0.1059118
-4.235192	flute	-0.09502751
-3.885061	fly	-0.1626707
-3.295374	flying	-0.1440821
-4.421498	foal	-0.1088713
-4.235192	focus	-0.0937261
-3.994152	focused	-0.1522124
-4.421498	focuses	-0.1014575
-4.421498	focusing	-0.1014575
-4.421498	foe	-0.107156
-4.235192	fog	-0.1066186
-4.421498	foggy	-0.1092298
-4.235192	folded	-0.09755411
-4.421498	folding	-0.109387
-4.421498	foliage	-0.09882482
-4.421498	folks	-0.09879906
-3.994152	follow	-0.1426201
-3.994152	followed	-0.2581755
-3.725418	following	-0.1236409
-3.994152	follows	-0.06437543
-3.167357	food	-0.2716074
-3.885061	foot	-0.07696469
-3.099097	football	-0.2656575
-4.421498	footprint	-0.09879906
-4.421498	footprints	-0.1014575
-1.983969	for	-0.5099415
-4.421498	force	-0.08596074
-4.235192	foreground	-0.09959698
-4.421498	forehand	-0.09882482
-3.725418	forest	-0.1641048
-4.421498	forested	-0.1092298
-3.994152	forever	-0.2354388
-4.421498	forgets	-0.1089971
-3.994152	form	-0.08998488
-4.235192	formal	-0.1089593
-4.421498	formallydressed	-0.1084431
-4.421498	formation	-0.05119461
-4.421498	forming	-0.1034376
-4.421498	forms	-0.1094435
-4.421498	fortess	-0.1094247
-4.421498	forth	-0.09879906
-4.421498	fortune	-0.08596074
-3.994152	forward	-0.2254775
-4.421498	foster	-0.1014575
-3.994152	found	-0.09246638
-3.663287	fountain	-0.0868135
-4.140184	fountains	-0.1738632
-3.560648	four	-0.1712394
-4.421498	fourth	-0.1066503
-4.421498	fourty	-0.1094121
-4.421498	fox	-0.1094247
-4.421498	fragrance	-0.08596074
-4.421498	frame	-0.1084935
-4.235192	framed	-0.1093053
-4.421498	frames	-0.09879906
-4.421498	frantic	-0.1089216
-4.421498	frantically	-0.09882482
-4.421498	freak	-0.1093241
-4.421498	freddy	-0.1094523
-3.663287	free	-0.09896565
-3.47769	freedom	-0.383922
-4.421498	freely	-0.1079893
-4.421498	freespirited	-0.1091103
-4.235192	french	-0.1092197
-3.885061	fresh	-0.1686477
-4.421498	freshly	-0.109387
-3.320926	friend	-0.2275481
-3.797945	friendly	-0.1264313
-3.167357	friends	-0.1943962
-3.47769	friendship	-0.644178
-4.421498	fries	-0.1012014
-4.140184	frightened	-0.1066882
-3.348075	frisbee	-0.1643879
-4.421498	frisbees	-0.1009707
-4.421498	frivolity	-0.1045832
-4.421498	frizbee	-0.1036415
-4.421498	frizzy	-0.1094373
-4.421498	frog	-0.1094523
-4.421498	frolicking	-0.09032406
-4.235192	frolics	-0.2405407
-4.421498	frollicing	-0.09879906
-2.387698	from	-0.456551
-4.421498	fron	-0.1045832
-3.725418	front	-0.2267206
-4.421498	frontal	-0.1094523
-4.421498	frosting	-0.1076865
-4.421498	frosty	-0.1093619
-4.421498	frown	-0.1058018
-4.235192	frowning	-0.1087768
-4.140184	frozen	-0.1089718
-3.885061	fruit	-0.06001675
-4.235192	fruits	-0.09011383
-4.421498	frying	-0.1094435
-4.421498	fuiling	-0.1094247
-4.421498	fulfill	-0.1014639
-3.994152	fulfilling	-0.446544
-3.248383	full	-0.4984199
-4.421498	fullest	-0.07762807
-3.186241	fun	-0.2080219
-4.421498	function	-0.1009707
-4.421498	funded	-0.1074718
-4.421498	fundraising	-0.1093493
-4.421498	funloving	-0.1091984
-4.421498	funnily	-0.08596074
-3.797945	funny	-0.1400562
-4.140184	fur	-0.1397287
-4.140184	furry	-0.09935246
-4.421498	further	-0.1094247
-4.421498	fuss	-0.1079893
-3.608943	future	-0.2645802
-4.421498	futures	-0.107434
-4.421498	fuzzy	-0.107998
-4.421498	gain	-0.1021213
-4.421498	gained	-0.1092487
-4.421498	gains	-0.1044942
-4.421498	gallery	-0.08573507
-3.994152	galloping	-0.09868947
-4.235192	gallops	-0.1082603
-4.421498	gambling	-0.1094435
-2.976145	game	-0.2443721
-4.235192	games	-0.08117761
-4.235192	gap	-0.09832858
-4.421498	garb	-0.1090474
-4.235192	garbage	-0.1009515
-3.885061	garden	-0.05853774
-4.421498	garments	-0.1009707
-4.421498	garter	-0.1014575
-4.421498	gas	-0.1094247
-4.421498	gasp	-0.08596074
-4.421498	gasps	-0.104939
-3.994152	gate	-0.1252157
-4.421498	gates	-0.1090852
-3.560648	gather	-0.1318344
-4.140184	gathered	-0.1205381
-3.885061	gathering	-0.08799925
-4.421498	gathers	-0.1083423
-4.421498	gaurd	-0.09879906
-4.140184	gave	-0.1051548
-4.421498	gaze	-0.1058018
-4.421498	gazes	-0.1036415
-3.885061	gazing	-0.1767756
-3.320926	gear	-0.09114037
-4.421498	geater	-0.08596074
-3.797945	geese	-0.09730866
-4.421498	generates	-0.1088838
-4.421498	generations	-0.1087831
-4.421498	genetic	-0.1094523
-4.421498	genius	-0.1045832
-4.421498	genocide	-0.1076865
-4.235192	gentle	-0.1092675
-4.235192	gentleman	-0.09630559
-3.994152	gently	-0.08433219
-4.421498	geocery	-0.1093367
-4.421498	georgeously	-0.08596074
-4.421498	georges	-0.08596074
-4.421498	georgous	-0.1093241
-3.797945	german	-0.3165199
-4.421498	germs	-0.1091607
-4.421498	gestering	-0.09882482
-4.235192	gesture	-0.09980912
-4.235192	gestures	-0.09905016
-3.348075	get	-0.1108653
-3.099097	gets	-0.2414025
-3.205983	getting	-0.2056202
-4.235192	gettogether	-0.0808018
-4.421498	getway	-0.08596074
-4.421498	geyser	-0.08596074
-4.421498	ghostbusters	-0.1093619
-4.421498	giant	-0.1088018
-4.421498	giddy	-0.1091103
-3.994152	gift	-0.102682
-4.235192	gifted	-0.09677826
-4.235192	gifts	-0.1031379
-4.421498	giggle	-0.1079893
-4.140184	giggling	-0.1058271
-4.421498	gir	-0.09879906
-2.880431	girl	-0.1556987
-4.421498	girld	-0.1084053
-3.994152	girlfriend	-0.0779202
-4.235192	girlfriends	-0.07020693
-3.099097	girls	-0.1461245
-3.797945	give	-0.1328203
-4.140184	given	-0.1818278
-3.725418	gives	-0.1315519
-3.441483	giving	-0.1592448
-4.421498	glacial	-0.1091732
-4.421498	glacier	-0.08596074
-4.421498	glad	-0.09791569
-4.421498	glamorous	-0.1091229
-4.421498	glances	-0.1084935
-3.994152	glass	-0.08505978
-3.608943	glasses	-0.09177675
-4.421498	glassy	-0.1085061
-4.421498	gleaming	-0.1036415
-4.140184	glee	-0.2279893
-4.421498	gleeful	-0.08596074
-3.797945	gleefully	-0.05369573
-4.421498	glider	-0.1014575
-3.994152	glides	-0.1616007
-3.885061	gliding	-0.08511046
-4.421498	glimps	-0.08596074
-4.421498	glimpse	-0.1045832
-4.421498	glistening	-0.1009707
-4.235192	glorious	-0.1093995
-3.377035	glory	-0.5065078
-4.421498	glove	-0.08596074
-3.994152	gloves	-0.1467405
-4.421498	glumily	-0.1058018
-4.235192	gnaws	-0.1012846
-3.441483	go	-0.09403277
-3.47769	goal	-0.1551606
-3.994152	goalie	-0.09817369
-4.421498	goaling	-0.1094435
-4.235192	goals	-0.2277024
-4.421498	goaltender	-0.1094523
-4.235192	goat	-0.09976412
-4.140184	goats	-0.1867647
-4.140184	god	-0.10055
-3.377035	goes	-0.2173556
-3.725418	goggles	-0.1562231
-3.186241	going	-0.2494673
-3.797945	gold	-0.2226422
-4.421498	goldcolored	-0.1080145
-3.885061	golden	-0.1644411
-4.235192	golf	-0.1012974
-4.421498	gondola	-0.1094523
-4.235192	gone	-0.1062515
-4.421498	gonzaga	-0.1093996
-3.517191	good	-0.09110284
-4.421498	goodbye	-0.09882482
-4.235192	goods	-0.09032406
-4.235192	goofing	-0.2503737
-4.140184	gorgeous	-0.108953
-4.140184	got	-0.07755364
-4.421498	gothic	-0.1093116
-4.421498	gown	-0.1092738
-4.421498	grab	-0.1027232
-4.421498	grabbing	-0.1044942
-4.140184	grabs	-0.09774138
-4.235192	grace	-0.08117761
-4.235192	graceful	-0.100913
-4.421498	gracefull	-0.1093619
-3.885061	gracefully	-0.1243828
-4.421498	gradient	-0.104939
-4.235192	graduation	-0.08594337
-4.421498	graffit	-0.1066503
-3.994152	graffiti	-0.1204777
-4.421498	graffiticovered	-0.1092487
-4.235192	graffitied	-0.1085879
-4.421498	grain	-0.1093996
-4.421498	grand	-0.1088398
-4.421498	grandad	-0.08596074
-4.421498	grandaughter	-0.1090852
-4.421498	grandbaby	-0.08596074
-4.421498	granddaughter	-0.107434
-4.421498	grandfather	-0.1094523
-4.421498	grandkids	-0.08596074
-4.421498	grandma	-0.08596074
-3.994152	grandmother	-0.1423249
-4.421498	grandpa	-0.08596074
-4.421498	grandson	-0.08596074
-4.421498	granma	-0.1088335
-4.421498	granted	-0.08596074
-4.421498	grasps	-0.1014575
-3.083586	grass	-0.1679325
-3.441483	grassy	-0.2876704
-4.421498	grateful	-0.10906
-4.421498	gratefully	-0.1094121
-4.421498	grating	-0.1014575
-4.140184	gravel	-0.08992963
-4.421498	gravity	-0.1012014
-3.797945	gray	-0.1518604
-4.421498	grayhound	-0.1080145
-3.797945	great	-0.112901
-3.994152	greatest	-0.1600381
-4.421498	greatly	-0.1094435
-4.140184	greatness	-0.3013841
-3.14926	green	-0.1484947
-4.421498	greenhouse	-0.1009707
-4.235192	greet	-0.131474
-4.421498	greeted	-0.1088461
-4.421498	greeting	-0.1088461
-4.421498	greets	-0.1089593
-3.663287	grey	-0.1464744
-4.421498	greyhaired	-0.1084431
-3.797945	greyhound	-0.08515024
-3.885061	greyhounds	-0.1814424
-4.421498	greyhouse	-0.1089216
-4.421498	grilling	-0.1094121
-4.421498	grin	-0.1012014
-4.235192	grind	-0.1888396
-3.797945	grinding	-0.2737736
-3.725418	grinds	-0.2760289
-4.421498	grinning	-0.1091607
-4.421498	grips	-0.1061819
-4.140184	grocery	-0.1091858
-4.140184	groom	-0.09129747
-4.421498	groucho	-0.1094523
-3.295374	ground	-0.1070585
-4.421498	grounded	-0.109299
-4.421498	groundhog	-0.08596074
-4.421498	grounds	-0.1094523
-3.608943	group	-0.2490515
-4.421498	groups	-0.1045832
-4.421498	growing	-0.1034376
-4.235192	growling	-0.09867664
-4.421498	growls	-0.1066503
-4.140184	grown	-0.07843209
-4.140184	guard	-0.08445872
-4.140184	guardian	-0.1335145
-4.421498	guardians	-0.1094373
-4.235192	guarding	-0.09839305
-4.421498	guards	-0.1066503
-4.421498	guest	-0.1034376
-4.421498	guests	-0.08596074
-4.421498	guide	-0.1094121
-4.421498	guides	-0.107156
-3.517191	guitar	-0.1784654
-4.421498	guitarist	-0.1088713
-4.421498	guitars	-0.1012014
-4.421498	gull	-0.1014575
-4.140184	gun	-0.0576226
-4.421498	guns	-0.09879906
-4.421498	gushing	-0.1085061
-4.421498	gust	-0.108254
-3.47769	guy	-0.1389002
-3.885061	guys	-0.1636288
-4.140184	gym	-0.1167621
-4.235192	gymnast	-0.1054657
-4.235192	gymnastics	-0.1014318
-4.421498	ha	-0.1093367
-3.797945	had	-0.1715829
-4.421498	haikus	-0.08596074
-3.186241	hair	-0.173918
-4.421498	haircut	-0.09882482
-4.421498	hairdresser	-0.1087831
-3.725418	haired	-0.2115579
-4.421498	hairstyle	-0.1093996
-4.421498	hairy	-0.1080145
-3.797945	half	-0.1838481
-4.421498	halfcompleted	-0.1094523
-4.421498	halfpipe	-0.1084707
-4.421498	hall	-0.08596074
-4.235192	halloween	-0.08579469
-4.235192	hallway	-0.1060932
-4.421498	halter	-0.1093367
-4.421498	ham	-0.1093744
-4.421498	hamburgers	-0.104939
-3.408065	hand	-0.1244513
-4.421498	handbags	-0.107434
-4.235192	handed	-0.1034209
-4.421498	handgun	-0.09378473
-4.421498	handheld	-0.1094523
-4.421498	handing	-0.1034376
-4.421498	handle	-0.1093619
-4.421498	handlebars	-0.1067009
-4.235192	handles	-0.09253842
-4.421498	handling	-0.09882482
-4.421498	handout	-0.1094373
-4.235192	handrail	-0.05682001
-4.421498	handrails	-0.1014575
-3.517191	hands	-0.1560199
-4.235192	handsome	-0.09945142
-4.421498	handsomely	-0.1012014
-4.235192	handstand	-0.2431992
-3.663287	hang	-0.1768598
-3.295374	hanging	-0.2997594
-4.421498	hanglider	-0.09879906
-3.663287	hangs	-0.2298741
-4.421498	happen	-0.1076865
-4.421498	happening	-0.08596074
-4.421498	happens	-0.08596074
-4.421498	happier	-0.08596074
-2.835153	happily	-0.2413936
-3.797945	happiness	-0.2930409
-3.099097	happy	-0.1823041
-3.560648	hard	-0.05363836
-4.235192	hardhat	-0.1051738
-4.421498	hardhats	-0.1093241
-4.421498	hardships	-0.08596074
-4.421498	hardwork	-0.08596074
-4.421498	harm	-0.1083045
-4.421498	harmless	-0.1094373
-4.235192	harmoniously	-0.07749958
-4.421498	harmony	-0.08596074
-3.994152	harness	-0.05562805
-4.421498	harnessed	-0.1012014
-4.235192	harnesses	-0.0984833
-4.421498	harsh	-0.1088209
-4.235192	harvested	-0.1070233
-2.835153	has	-0.2350501
-3.06861	hat	-0.2233946
-4.421498	hate	-0.1012014
-3.560648	hats	-0.1430661
-3.186241	have	-0.1843042
-2.952978	having	-0.616438
-4.421498	hawaii	-0.08596074
-4.421498	hawaiian	-0.1093493
-4.140184	hay	-0.08370576
-4.421498	haystack	-0.1067009
-4.421498	hazardous	-0.1089719
-4.421498	hazy	-0.1092235
-2.690259	he	-0.2801352
-3.167357	head	-0.1188392
-3.885061	headband	-0.1963305
-4.421498	headbands	-0.09882482
-4.421498	headboard	-0.1057511
-4.235192	headdress	-0.09279972
-4.140184	headed	-0.1869585
-3.885061	headfirst	-0.145182
-3.994152	heading	-0.2359237
-4.421498	headlight	-0.1092613
-4.421498	headlong	-0.1072508
-4.421498	headon	-0.08596074
-4.421498	headphone	-0.1057511
-3.885061	headphones	-0.07053009
-3.663287	heads	-0.1235381
-3.994152	headscarf	-0.1436681
-4.421498	headset	-0.09879906
-4.421498	healing	-0.1092864
-4.140184	healthy	-0.08371246
-4.421498	heap	-0.1089216
-3.885061	hear	-0.151404
-4.421498	heard	-0.1045832
-4.235192	hearing	-0.1033037
-4.421498	hears	-0.1094435
-3.560648	heart	-0.2169188
-4.421498	hearted	-0.1084431
-3.994152	hearts	-0.07666662
-4.140184	heat	-0.1229015
-4.421498	heaven	-0.1014575
-4.421498	heavens	-0.08596074
-3.885061	heavy	-0.1090207
-4.421498	heavyset	-0.1084431
-4.421498	hectic	-0.1094523
-4.235192	heels	-0.09648048
-3.885061	height	-0.1715583
-4.235192	heights	-0.1483191
-3.797945	held	-0.1976527
-4.421498	helicopter	-0.1080208
-4.235192	hell	-0.0858081
-4.421498	hello	-0.1094435
-4.421498	hells	-0.1083423
-4.421498	helm	-0.09882482
-3.377035	helmet	-0.1882409
-4.421498	helmeted	-0.1084431
-3.994152	helmets	-0.1044927
-3.517191	help	-0.2029379
-4.421498	helped	-0.1074718
-4.235192	helpful	-0.1093203
-3.797945	helping	-0.2963726
-4.421498	helps	-0.1044942
-4.421498	henna	-0.1014575
-2.27482	her	-0.2014822
-3.885061	herding	-0.1981881
-4.421498	heritage	-0.07468983
-3.994152	hero	-0.1214069
-4.140184	heroes	-0.1749
-4.235192	heroic	-0.109427
-4.421498	heroically	-0.1089468
-4.421498	heros	-0.08596074
-4.421498	hers	-0.08596074
-3.441483	herself	-0.1573789
-4.421498	herselt	-0.09879906
-4.421498	hey	-0.1094435
-4.421498	hi	-0.1093116
-4.235192	hidden	-0.09697235
-4.235192	hide	-0.1010925
-4.235192	hides	-0.1026913
-3.885061	hiding	-0.1576267
-3.06861	high	-0.225597
-3.725418	higher	-0.1988559
-4.421498	highest	-0.1045665
-4.421498	highfives	-0.1034376
-4.421498	highflying	-0.1088964
-4.421498	highlight	-0.1093241
-4.235192	highly	-0.2511939
-4.140184	highs	-0.201348
-3.663287	hike	-0.1724213
-3.885061	hiker	-0.1090354
-3.994152	hikers	-0.1423981
-4.140184	hikes	-0.08241006
-3.663287	hiking	-0.1198725
-4.421498	hilariously	-0.1094435
-3.408065	hill	-0.1550136
-4.140184	hills	-0.09787299
-4.421498	hillside	-0.09253842
-2.722206	him	-0.3159349
-3.348075	himself	-0.1661454
-4.140184	hind	-0.2599777
-4.421498	hindlegs	-0.1094121
-4.421498	hippies	-0.1088838
-4.421498	hips	-0.1012014
-4.421498	hire	-0.1034376
-2.12265	his	-0.3077528
-4.421498	historic	-0.1090097
-4.235192	historical	-0.109358
-4.421498	history	-0.08596074
-3.994152	hit	-0.1301349
-3.608943	hits	-0.2972522
-4.235192	hitter	-0.1005026
-3.797945	hitting	-0.202474
-3.608943	hockey	-0.1731251
-4.421498	hocky	-0.1092613
-4.421498	hodling	-0.1088461
-4.421498	hoes	-0.09882482
-3.441483	hold	-0.1618633
-2.802049	holding	-0.3832797
-2.988209	holds	-0.4740297
-3.994152	hole	-0.1385694
-4.140184	holiday	-0.1661699
-4.235192	holidays	-0.2277024
-4.421498	hollywood	-0.1088838
-4.421498	hols	-0.1088964
-2.988209	home	-0.4195786
-4.421498	homeless	-0.1082099
-4.421498	homemade	-0.1085061
-4.421498	homerun	-0.07698514
-4.421498	honest	-0.1094435
-3.885061	honeymoon	-0.1573275
-4.421498	honoring	-0.1044942
-3.994152	hooded	-0.2598771
-4.140184	hoodie	-0.1010603
-4.421498	hook	-0.1020013
-3.608943	hoop	-0.1205013
-4.421498	hooping	-0.1036415
-3.885061	hoops	-0.1157042
-3.885061	hope	-0.1367494
-4.421498	hopeful	-0.1093744
-4.421498	hopeing	-0.09882482
-3.560648	hopes	-0.3540646
-3.099097	hoping	-0.4038698
-4.421498	hopper	-0.1090852
-4.235192	hopping	-0.09880796
-4.421498	hops	-0.1089216
-4.421498	hopscotch	-0.1066503
-4.421498	horizon	-0.104939
-4.421498	horizons	-0.08596074
-4.421498	hormony	-0.08596074
-4.235192	horns	-0.08467838
-4.421498	horny	-0.108909
-3.320926	horse	-0.08256166
-4.235192	horseback	-0.07624204
-3.560648	horses	-0.111854
-4.235192	horseshoes	-0.07468983
-3.994152	hose	-0.08608005
-4.235192	hospital	-0.07430832
-4.421498	host	-0.08596074
-3.408065	hot	-0.1790771
-4.235192	hotel	-0.1092611
-3.994152	hours	-0.2315623
-3.377035	house	-0.1502105
-4.235192	houses	-0.09866375
-4.421498	housing	-0.104939
-3.115183	how	-0.3065527
-4.421498	howling	-0.1051358
-4.421498	hree	-0.1089593
-4.421498	hubbies	-0.08596074
-4.140184	huddle	-0.1642604
-4.421498	huddled	-0.1014575
-4.421498	huddling	-0.1080523
-3.725418	hug	-0.1519767
-4.140184	huge	-0.09754731
-3.517191	hugging	-0.1210547
-3.994152	hugs	-0.09077042
-3.797945	hula	-0.2570221
-4.421498	hulahoops	-0.09058671
-3.797945	human	-0.112841
-4.421498	humans	-0.08596074
-4.421498	humidity	-0.08596074
-4.421498	hummer	-0.1091229
-4.421498	humming	-0.1094435
-4.421498	humor	-0.09879906
-4.421498	humping	-0.1034376
-4.421498	humungous	-0.1094121
-4.421498	hunches	-0.09879906
-4.421498	hundreds	-0.1045832
-4.235192	hung	-0.1012846
-4.421498	hungriness	-0.08596074
-4.235192	hungry	-0.1090159
-4.421498	hunks	-0.08596074
-4.235192	hunt	-0.1712202
-4.235192	hunter	-0.08538313
-4.140184	hunting	-0.1035013
-4.140184	hurdle	-0.07428062
-3.994152	hurdles	-0.05438845
-4.421498	hurray	-0.1094523
-4.421498	hurries	-0.108632
-4.421498	hurry	-0.09011383
-4.140184	hurt	-0.1730373
-4.421498	hurting	-0.1092613
-3.797945	husband	-0.09171182
-4.421498	husbands	-0.08596074
-4.421498	husk	-0.1058018
-4.235192	huskies	-0.1074174
-4.235192	husky	-0.2497561
-4.421498	huskylike	-0.1089216
-4.421498	hustle	-0.1012014
-4.140184	hut	-0.09999542
-4.421498	huts	-0.1084935
-4.235192	hydrant	-0.1792986
-4.421498	hyenas	-0.1094523
-4.421498	hysterically	-0.1092738
-3.994152	i	-0.1084555
-3.167357	ice	-0.1805905
-4.421498	iced	-0.1079893
-4.421498	icicle	-0.1009707
-3.885061	icy	-0.1312431
-4.421498	id	-0.1094523
-4.421498	idea	-0.08596074
-4.421498	ideal	-0.1091984
-4.421498	identical	-0.1093619
-4.421498	identifies	-0.1036415
-4.421498	idling	-0.1091607
-3.994152	if	-0.1355763
-4.421498	igloo	-0.1009707
-4.421498	ignore	-0.1094121
-4.421498	ignoring	-0.1044942
-4.421498	illuminated	-0.1074718
-4.421498	illusions	-0.08596074
-4.421498	illustration	-0.1091229
-4.235192	image	-0.2463248
-4.421498	image_url_0	-0.1088713
-4.235192	images	-0.2431992
-4.421498	imaging	-0.1044942
-3.663287	imagining	-0.09411678
-4.421498	immense	-0.1094523
-4.421498	immersed	-0.09879906
-4.421498	impassioned	-0.08596074
-4.421498	impatient	-0.09882482
-4.421498	impatiently	-0.09658408
-4.421498	impeding	-0.1093367
-4.235192	importance	-0.0808018
-3.994152	important	-0.1077179
-3.994152	impress	-0.1065081
-4.235192	impressed	-0.0838525
-3.994152	impresses	-0.242911
-3.47769	impressing	-0.2732923
-4.421498	impression	-0.1045832
-4.421498	impressioning	-0.1075224
-4.235192	improve	-0.1691626
-4.421498	improvement	-0.1084053
-4.421498	improvements	-0.08596074
-4.421498	improving	-0.1075224
-1.614957	in	-0.5616221
-4.421498	inappropriately	-0.1094523
-4.421498	incense	-0.09879906
-3.994152	incline	-0.07007621
-4.140184	including	-0.1078945
-4.421498	incognito	-0.08596074
-4.421498	incoming	-0.1094523
-4.421498	increasing	-0.1044942
-4.421498	incredible	-0.109387
-4.421498	independence	-0.1088083
-4.421498	india	-0.08596074
-4.140184	indian	-0.1079829
-4.421498	indicate	-0.1044942
-4.421498	indigo	-0.1093116
-4.235192	individual	-0.08203536
-4.421498	individualism	-0.1012014
-4.140184	individuals	-0.1027615
-4.140184	indoor	-0.1079639
-3.725418	indoors	-0.141632
-4.421498	inexhaustibly	-0.09879906
-4.421498	infant	-0.109387
-4.421498	infinite	-0.1090726
-4.140184	inflatable	-0.143536
-4.421498	inflated	-0.1092235
-4.421498	information	-0.08596074
-4.235192	infront	-0.2463248
-4.421498	inground	-0.1092235
-4.421498	inhales	-0.1044942
-4.421498	injured	-0.1094247
-4.421498	injury	-0.08596074
-4.421498	injustices	-0.08596074
-4.140184	inline	-0.1984901
-4.421498	inlineskates	-0.1058018
-4.235192	inner	-0.108953
-4.421498	innertube	-0.08339223
-4.421498	inning	-0.1045832
-4.140184	innocence	-0.1900081
-4.140184	innocent	-0.1086572
-4.421498	innocently	-0.1094435
-4.421498	inpires	-0.09882482
-4.421498	inquisitive	-0.1045832
-4.235192	insect	-0.1013999
-4.421498	inseparable	-0.08596074
-3.099097	inside	-0.4957551
-4.421498	inspect	-0.1094523
-4.421498	inspecting	-0.1034376
-4.421498	inspects	-0.1034376
-4.421498	inspired	-0.1094523
-4.421498	inspires	-0.09882482
-4.421498	inspiring	-0.1092361
-4.421498	instantly	-0.1094373
-4.235192	instead	-0.0808018
-4.235192	instructions	-0.2277024
-4.421498	instrument	-0.09058657
-3.797945	instruments	-0.1229838
-4.421498	insurance	-0.08596074
-4.421498	int	-0.1085817
-4.235192	intense	-0.1082981
-4.421498	intensely	-0.1082036
-4.235192	intently	-0.08298496
-4.140184	interacting	-0.3190648
-4.421498	interaction	-0.1067009
-4.140184	interest	-0.3013841
-4.421498	interested	-0.1080145
-4.140184	interesting	-0.0998411
-4.421498	interestingly	-0.104939
-4.421498	interests	-0.08596074
-4.235192	international	-0.1092172
-4.421498	internet	-0.08596074
-4.421498	intersection	-0.09253842
-4.235192	interview	-0.2277024
-4.235192	interviews	-0.0978705
-4.421498	intimate	-0.1093493
-4.421498	intimidated	-0.08596074
-2.545016	into	-0.6657057
-4.421498	intricate	-0.1091858
-4.421498	intrigued	-0.1012014
-4.421498	introduced	-0.08596074
-4.421498	invaders	-0.08596074
-4.421498	invading	-0.1094523
-4.421498	inverted	-0.08596074
-4.421498	investigation	-0.1093619
-4.421498	invisible	-0.1094523
-4.140184	involved	-0.1638746
-4.421498	inward	-0.08596074
-4.421498	ipod	-0.1009707
-4.421498	iridescent	-0.1093116
-4.421498	irish	-0.1094247
-4.421498	iron	-0.1091607
-2.069373	is	-0.297564
-4.235192	island	-0.1094358
-4.421498	isolated	-0.1093619
-4.421498	israel	-0.1094121
-2.57231	it	-0.2611439
-4.421498	italy	-0.1067009
-4.421498	item	-0.1083045
-3.885061	items	-0.1490731
-2.880431	its	-0.2480126
-3.994152	itself	-0.1351123
-4.140184	jack	-0.08590864
-3.186241	jacket	-0.1548971
-3.994152	jackets	-0.08609991
-4.421498	jackpot	-0.08596074
-4.421498	jackson	-0.1009707
-4.421498	jagged	-0.1092235
-4.421498	jam	-0.1084431
-4.235192	japanese	-0.1092927
-4.421498	jar	-0.1094523
-4.421498	jasmine	-0.1094121
-4.421498	jaunty	-0.109387
-4.421498	jaws	-0.1094435
-4.421498	jay	-0.1093241
-4.421498	jealous	-0.08596074
-4.235192	jean	-0.1054657
-3.885061	jeans	-0.08167082
-3.725418	jeep	-0.1068399
-4.421498	jeeps	-0.1014575
-4.421498	jerkin	-0.1036415
-3.441483	jersey	-0.0852396
-4.140184	jerseys	-0.1959426
-4.421498	jesus	-0.1094435
-3.994152	jet	-0.1038643
-4.421498	jets	-0.1034376
-4.421498	jewelry	-0.1094435
-4.421498	jewish	-0.1094435
-4.421498	jim	-0.1093744
-3.725418	job	-0.2424821
-4.140184	jockey	-0.09012038
-4.140184	jockeys	-0.09987974
-4.421498	jog	-0.1084431
-4.421498	joggers	-0.1086824
-3.797945	jogging	-0.1305968
-3.994152	jogs	-0.08924551
-4.421498	john	-0.1094247
-4.421498	johns	-0.1084935
-4.140184	join	-0.09304138
-4.421498	joining	-0.1061819
-4.421498	joins	-0.107156
-4.421498	joke	-0.08596074
-4.421498	joking	-0.1084431
-4.421498	jolly	-0.1093996
-3.994152	journey	-0.2164587
-4.421498	journeying	-0.1083423
-4.421498	joust	-0.1009707
-3.348075	joy	-0.2220901
-3.885061	joyful	-0.07937605
-3.348075	joyfully	-0.1094729
-4.235192	joyous	-0.1079766
-4.421498	joyously	-0.1077622
-4.235192	joys	-0.2463248
-4.421498	jubilant	-0.1080145
-4.235192	judges	-0.07469925
-4.421498	juggler	-0.1014575
-4.235192	juggles	-0.1071118
-4.421498	juggling	-0.1094373
-4.235192	juice	-0.09061296
-4.421498	juicy	-0.1093744
-4.421498	juming	-0.1082288
-3.000617	jump	-0.1938895
-4.235192	jumped	-0.09216576
-4.235192	jumper	-0.1055672
-2.742567	jumping	-0.3407611
-2.778778	jumps	-0.4169734
-4.421498	jumpsuits	-0.1009707
-4.235192	jungle	-0.251179
-4.421498	junk	-0.1009707
-4.421498	junos	-0.1088461
-3.320926	just	-0.1168903
-4.421498	kangaroo	-0.08596074
-3.725418	karate	-0.05199162
-4.421498	kart	-0.1093367
-4.421498	kawaski	-0.1009707
-3.725418	kayak	-0.08878878
-4.421498	kayaker	-0.1091229
-4.421498	kayakers	-0.1093241
-3.725418	kayaking	-0.3658308
-4.235192	kayaks	-0.09728272
-4.421498	keep	-0.09957117
-4.421498	keepaway	-0.1036415
-3.797945	keeping	-0.1802773
-4.140184	keeps	-0.106979
-4.235192	kennel	-0.2277024
-4.421498	khaki	-0.1092613
-3.47769	kick	-0.08469457
-4.421498	kicked	-0.1080523
-4.421498	kicker	-0.1009707
-4.421498	kickflip	-0.1089845
-3.608943	kicking	-0.2502841
-3.517191	kicks	-0.3096663
-4.421498	kickstart	-0.1034376
-3.725418	kid	-0.1112422
-4.235192	kiddie	-0.1980245
-4.421498	kidnap	-0.08596074
-3.320926	kids	-0.08848966
-4.421498	kidsized	-0.1091607
-4.421498	kill	-0.1088964
-4.421498	killing	-0.1089593
-4.235192	kilt	-0.1052754
-4.421498	kimono	-0.1009707
-4.421498	kind	-0.1094523
-3.608943	kiss	-0.1741309
-3.797945	kisses	-0.1172487
-3.560648	kissing	-0.1384354
-3.725418	kitchen	-0.1369754
-3.725418	kite	-0.06731091
-4.140184	kites	-0.08795968
-4.235192	kitty	-0.09871529
-4.421498	knee	-0.1009707
-4.235192	kneeling	-0.09863798
-4.235192	kneels	-0.09965486
-4.235192	knees	-0.08143912
-4.421498	knife	-0.1014575
-4.421498	knight	-0.09879906
-4.421498	knit	-0.1093493
-4.421498	knitted	-0.1090978
-4.421498	knocking	-0.1092738
-4.140184	know	-0.1082162
-3.885061	knowing	-0.09994399
-4.421498	knowledge	-0.104939
-3.663287	knows	-0.1637645
-4.421498	krueger	-0.104939
-4.421498	lab	-0.1093053
-4.421498	laboring	-0.1087957
-4.421498	labradoodle	-0.1093241
-4.421498	labrador	-0.1055799
-4.421498	labs	-0.107434
-4.421498	lacross	-0.1091607
-4.140184	lacrosse	-0.1002651
-4.421498	lad	-0.109387
-3.994152	ladder	-0.1525845
-3.885061	ladies	-0.07050259
-4.421498	ladle	-0.09879906
-3.377035	lady	-0.147996
-4.421498	laid	-0.1088461
-3.560648	lake	-0.1027059
-4.421498	lakeshore	-0.08596074
-4.421498	lamb	-0.1092613
-4.421498	lambs	-0.1012014
-4.421498	lamp	-0.1009707
-3.47769	land	-0.141092
-3.608943	landing	-0.1846597
-3.797945	lands	-0.1208429
-3.797945	landscape	-0.0933219
-4.421498	language	-0.09882482
-4.140184	lap	-0.1484554
-4.235192	laptop	-0.1965871
-4.421498	laptops	-0.1091229
-3.167357	large	-0.1358695
-4.140184	larger	-0.258693
-4.421498	las	-0.1094523
-4.421498	lassie	-0.1083423
-4.235192	lasso	-0.1023976
-3.797945	last	-0.1205549
-4.140184	lasting	-0.1604157
-3.885061	late	-0.1056164
-3.725418	later	-0.1155023
-4.235192	latest	-0.1093831
-4.421498	lattice	-0.1092361
-4.421498	lauded	-0.1094247
-3.441483	laugh	-0.2049426
-3.348075	laughing	-0.1500945
-3.608943	laughs	-0.102111
-4.235192	laughter	-0.09303477
-4.421498	launch	-0.1092864
-4.421498	launched	-0.1082288
-4.235192	launches	-0.1053388
-4.421498	laundry	-0.09879906
-4.421498	law	-0.1094523
-3.608943	lawn	-0.04074011
-3.885061	lay	-0.2123588
-4.421498	layered	-0.1092613
-4.421498	layin	-0.1014575
-3.560648	laying	-0.2612048
-3.994152	lays	-0.1829836
-4.421498	lazy	-0.1093493
-4.140184	lead	-0.1716751
-3.885061	leading	-0.1363241
-3.885061	leads	-0.1313052
-4.421498	leaf	-0.1092864
-4.421498	leafcovered	-0.1094373
-4.421498	leafless	-0.1091984
-3.994152	leafy	-0.1088901
-4.235192	league	-0.1087767
-4.421498	leaguer	-0.1091984
-3.885061	lean	-0.09472843
-4.421498	leaned	-0.1091732
-3.725418	leaning	-0.191867
-3.885061	leans	-0.1565492
-3.797945	leap	-0.1042056
-3.560648	leaping	-0.1699322
-3.226666	leaps	-0.1852034
-3.994152	learn	-0.1792712
-3.994152	learned	-0.1496523
-3.608943	learning	-0.2487924
-3.994152	learns	-0.1412558
-3.608943	leash	-0.07946578
-4.235192	leashed	-0.1971299
-4.421498	leashes	-0.09946197
-3.797945	leather	-0.2031654
-3.994152	leave	-0.1259219
-3.517191	leaves	-0.06572227
-4.140184	leaving	-0.1930109
-4.140184	ledge	-0.09683979
-3.663287	left	-0.09156051
-3.47769	leg	-0.2145601
-4.421498	legendary	-0.1009707
-4.421498	legged	-0.1093367
-4.421498	legos	-0.09882482
-3.608943	legs	-0.1414879
-4.421498	legue	-0.1093116
-4.235192	leisure	-0.1089279
-4.421498	leisurely	-0.1087957
-4.421498	lemonade	-0.1012014
-4.235192	leotard	-0.1004641
-4.421498	less	-0.1093996
-4.421498	lesson	-0.08596074
-4.235192	lessons	-0.07959165
-4.140184	let	-0.1547432
-4.140184	lets	-0.1961828
-4.421498	letters	-0.1076865
-4.140184	letting	-0.1036287
-4.421498	liberty	-0.1093493
-4.421498	library	-0.1009707
-4.235192	license	-0.09867664
-4.235192	lick	-0.0807078
-4.140184	licking	-0.1646336
-3.994152	licks	-0.1078568
-4.421498	lie	-0.1014575
-3.797945	lies	-0.3201386
-2.826637	life	-0.2671528
-4.421498	lifegaurds	-0.08596074
-4.421498	lifeguard	-0.08596074
-3.994152	lifelong	-0.1600633
-4.421498	lifer	-0.08596074
-3.994152	lifetime	-0.09799695
-4.235192	lift	-0.0977349
-4.140184	lifting	-0.1911861
-3.994152	lifts	-0.1078189
-3.560648	light	-0.1300684
-4.421498	lighter	-0.1090097
-4.421498	lighting	-0.1089216
-4.140184	lights	-0.08584382
-2.756691	like	-0.3830175
-4.140184	likes	-0.1742755
-4.421498	liking	-0.1093367
-4.421498	lilypads	-0.09879906
-4.421498	limb	-0.09879906
-4.421498	lime	-0.1091607
-4.421498	limousine	-0.1094435
-3.517191	line	-0.1165534
-3.885061	lined	-0.156803
-4.421498	lines	-0.1094373
-4.421498	lining	-0.1080523
-4.421498	link	-0.1093241
-4.235192	lion	-0.07638191
-4.235192	lips	-0.09591025
-4.235192	liquid	-0.0772289
-4.421498	list	-0.08596074
-4.235192	listen	-0.07471706
-3.608943	listening	-0.4459911
-4.235192	listens	-0.2405665
-3.885061	lit	-0.09501679
-4.235192	litter	-0.1074402
-4.421498	littered	-0.1036415
-3.083586	little	-0.3734587
-3.608943	live	-0.1065097
-4.421498	lively	-0.1094247
-4.421498	liven	-0.1080523
-3.560648	lives	-0.1754664
-4.421498	livestock	-0.1093241
-3.013391	living	-0.4656871
-4.421498	llama	-0.1009707
-4.235192	lobby	-0.09279972
-4.421498	lobster	-0.1093996
-3.797945	local	-0.10772
-4.421498	locals	-0.08596074
-4.421498	locate	-0.1061819
-4.421498	location	-0.08596074
-4.421498	locker	-0.1092864
-4.421498	lockers	-0.08596074
-4.421498	locking	-0.1061819
-4.235192	lodge	-0.0772289
-3.797945	log	-0.08843078
-3.994152	logs	-0.08945616
-4.421498	lolly	-0.1094435
-4.235192	lone	-0.1394363
-3.994152	lonely	-0.1214605
-4.421498	lonesomely	-0.104939
-3.408065	long	-0.1412415
-4.421498	longboard	-0.1090223
-4.421498	longeared	-0.1080145
-4.421498	longer	-0.1094435
-4.421498	longhaired	-0.1065237
-4.140184	longing	-0.2449425
-4.140184	longingly	-0.1904182
-4.421498	longnecked	-0.1093241
-4.140184	longs	-0.1833668
-4.421498	longstanding	-0.1094435
-4.421498	longtime	-0.1090852
-3.054133	look	-0.2301333
-4.235192	looked	-0.1091795
-2.586628	looking	-0.5325742
-2.87099	looks	-0.3807291
-4.421498	looming	-0.1091732
-4.421498	looptheloop	-0.1012014
-4.235192	loses	-0.08592754
-4.421498	loss	-0.1045832
-3.608943	lost	-0.08388334
-3.885061	lot	-0.09864603
-4.140184	lots	-0.3200065
-4.235192	loudly	-0.08465177
-4.421498	louis	-0.1094523
-4.140184	lounge	-0.1984523
-4.421498	lounging	-0.109387
-4.140184	lovable	-0.101022
-2.728888	love	-0.2125565
-3.725418	loved	-0.1884343
-4.421498	lovelife	-0.08596074
-3.560648	lovely	-0.08157273
-3.054133	lover	-0.255924
-4.421498	lover/toward	-0.1061819
-3.348075	lovers	-0.1996827
-3.271244	loves	-0.2789299
-4.421498	lovesick	-0.1084431
-3.026551	loving	-0.2319191
-3.14926	lovingly	-0.1076095
-3.797945	low	-0.04804221
-4.140184	lower	-0.109148
-4.421498	lows	-0.06939443
-3.994152	loyal	-0.1573711
-4.421498	loyally	-0.1094121
-4.421498	luck	-0.08596074
-4.421498	lucky	-0.109387
-4.140184	luggage	-0.09715988
-4.421498	luminous	-0.1094247
-4.140184	lunch	-0.1311177
-4.421498	lunges	-0.1089216
-4.421498	luscious	-0.1091858
-4.421498	lush	-0.1091103
-4.421498	lusty	-0.1093996
-3.663287	lying	-0.34446
-3.994152	machine	-0.08524345
-4.235192	machines	-0.1009002
-4.421498	macintosh	-0.1094435
-3.663287	made	-0.1564629
-4.421498	madly	-0.09879906
-4.421498	magazine	-0.085901
-4.235192	magazines	-0.1086131
-4.421498	magenta	-0.1093493
-4.140184	magic	-0.1044521
-4.421498	magician	-0.09882482
-4.421498	magnonismly	-0.08596074
-4.421498	mail	-0.09882482
-3.994152	majestic	-0.1081279
-4.235192	majestically	-0.0772289
-4.235192	major	-0.1091479
-3.377035	make	-0.1639488
-4.421498	maker	-0.1094523
-3.348075	makes	-0.3181026
-3.994152	makeup	-0.08642076
-3.06861	making	-0.2033848
-3.663287	male	-0.1085407
-4.235192	males	-0.09938478
-4.235192	mall	-0.07697835
-4.421498	mama	-0.1057511
-4.421498	mambo	-0.1014575
-2.627293	man	-0.1265342
-4.421498	mand	-0.1090852
-4.421498	maneuver	-0.1012014
-4.421498	maneuvers	-0.08596074
-4.421498	manhood	-0.1077622
-4.235192	manicured	-0.1090537
-4.421498	manis	-0.1087831
-4.235192	manly	-0.08588773
-4.421498	mannequins	-0.1034376
-4.421498	mans	-0.1094523
-4.421498	mansion	-0.1084935
-4.421498	mantle	-0.08596074
-4.421498	manuals	-0.1014575
-3.517191	many	-0.1191584
-4.421498	maps	-0.09882482
-4.235192	marathon	-0.1661699
-4.421498	marbled	-0.1090726
-4.235192	march	-0.07959165
-4.235192	marches	-0.2405407
-4.140184	marching	-0.1978735
-4.421498	marco	-0.1094435
-4.421498	mare	-0.1094121
-4.235192	mark	-0.1085123
-4.235192	marker	-0.104297
-3.797945	market	-0.1564204
-4.235192	marketplace	-0.09011383
-4.421498	marking	-0.1034376
-4.421498	markings	-0.1086824
-4.421498	marks	-0.1094523
-4.421498	marlins	-0.1093493
-4.421498	maroon	-0.1093367
-3.797945	marriage	-0.1750841
-4.235192	married	-0.08561557
-4.421498	marry	-0.08588773
-4.235192	marsh	-0.09011383
-4.421498	marshmallows	-0.08596074
-3.994152	martial	-0.3570913
-4.421498	marvel	-0.1058018
-4.421498	marx	-0.1014575
-4.421498	mascot	-0.109387
-3.608943	mask	-0.184788
-4.421498	masked	-0.1084431
-4.421498	masks	-0.1009707
-4.421498	massage	-0.109387
-4.235192	massive	-0.1090034
-3.47769	master	-0.2667763
-4.421498	masterpiece	-0.08596074
-4.421498	masters	-0.107434
-4.421498	mastiff	-0.08596074
-3.885061	mat	-0.0536601
-4.421498	matador	-0.09879906
-3.47769	match	-0.1671785
-4.421498	matched	-0.1074718
-4.235192	matching	-0.1091732
-3.994152	mate	-0.2210231
-4.235192	material	-0.07468983
-4.421498	materials	-0.104939
-3.994152	mates	-0.1501579
-4.421498	math	-0.1094435
-4.421498	mats	-0.09882482
-4.421498	matter	-0.1088713
-4.421498	matters	-0.08596074
-4.421498	mature	-0.1090726
-4.421498	maximum	-0.1094523
-4.421498	may	-0.1094121
-4.421498	maybe	-0.1087328
-4.421498	me	-0.107156
-4.235192	meadow	-0.0772289
-3.608943	meal	-0.1820147
-4.421498	meals	-0.08596074
-4.421498	mean	-0.1067009
-4.421498	meanders	-0.1076991
-4.421498	meaning	-0.1045832
-4.421498	means	-0.104939
-4.421498	meant	-0.104939
-4.421498	meat	-0.08596074
-4.421498	mechanical	-0.1088649
-3.994152	medal	-0.3306554
-4.421498	medals	-0.1090223
-4.421498	medatative	-0.1089845
-4.421498	media	-0.08596074
-4.235192	medieval	-0.1090159
-4.235192	medium	-0.251179
-3.885061	meet	-0.06042074
-3.797945	meeting	-0.07749268
-4.421498	megaphone	-0.1094373
-3.797945	melting	-0.1501978
-4.421498	melts	-0.1076991
-4.421498	member	-0.1087454
-4.235192	members	-0.1025253
-4.235192	memorial	-0.1081847
-3.663287	memories	-0.4020921
-3.797945	memory	-0.2236945
-3.06861	men	-0.1688374
-4.235192	menacingly	-0.09058671
-4.235192	mentally	-0.09253842
-4.421498	menu	-0.1094523
-4.421498	merchandise	-0.1076865
-4.421498	mercy	-0.08596074
-4.235192	mermaid	-0.08586118
-4.421498	merrygoround	-0.1009707
-4.421498	mesh	-0.1093241
-4.235192	mesmerized	-0.1068842
-4.421498	mess	-0.1045832
-3.994152	message	-0.1570395
-4.421498	messages	-0.09879906
-4.421498	messiah	-0.08596074
-4.421498	messily	-0.1009707
-3.994152	metal	-0.1086115
-4.421498	mets	-0.1093116
-4.140184	miami	-0.1089971
-4.421498	mic	-0.1009707
-4.421498	michael	-0.1094523
-4.235192	mickey	-0.2511939
-4.421498	microphone	-0.07827678
-4.421498	microphones	-0.1092738
-4.421498	mid	-0.1091127
-3.608943	midair	-0.05185133
-4.140184	middle	-0.1937513
-4.421498	middleeastern	-0.1093744
-4.421498	midget	-0.09879906
-4.235192	midjump	-0.1010284
-4.421498	midnight	-0.1093116
-4.421498	midriff	-0.1009707
-4.421498	midspeach	-0.09882482
-4.421498	midst	-0.1045832
-4.421498	midsummers	-0.1088083
-4.140184	might	-0.07464214
-3.797945	military	-0.1447989
-4.140184	milk	-0.07506414
-4.421498	milkweed	-0.09879906
-4.421498	millenum	-0.08596074
-4.421498	million	-0.1094523
-4.421498	mind	-0.08596074
-4.421498	minding	-0.1044942
-4.421498	mines	-0.08596074
-4.421498	mingle	-0.1036415
-4.421498	mini	-0.1092487
-4.421498	miniature	-0.1093744
-4.421498	minitrampoline	-0.09879906
-4.421498	minivan	-0.1009707
-4.421498	minute	-0.0808018
-4.421498	minutes	-0.08596074
-4.421498	miraculously	-0.1094435
-4.140184	mirror	-0.07240279
-4.235192	missed	-0.1001046
-4.235192	misses	-0.0772289
-3.797945	missing	-0.1159356
-4.235192	mission	-0.2277024
-4.421498	mistletoe	-0.1094373
-4.421498	mistress	-0.08596074
-4.235192	mitt	-0.09862509
-4.421498	mitten	-0.09879906
-4.235192	mittens	-0.1054023
-4.421498	mobile	-0.1009707
-4.421498	mock	-0.1094373
-4.235192	model	-0.09858643
-4.421498	models	-0.1089845
-4.421498	modern	-0.1088209
-4.421498	modest	-0.1093493
-4.421498	mogul	-0.08596074
-3.885061	mohawk	-0.141025
-4.421498	mold	-0.1067009
-3.560648	mom	-0.2165544
-3.608943	moment	-0.1621774
-3.994152	moments	-0.1345082
-3.994152	mommy	-0.1308398
-3.517191	money	-0.1220773
-4.421498	monitor	-0.1009707
-4.421498	monitoring	-0.1044942
-4.421498	monk	-0.1094121
-3.994152	monkey	-0.0974118
-4.235192	monster	-0.1090914
-4.421498	month	-0.08596074
-4.421498	months	-0.104939
-4.421498	monument	-0.1092361
-3.797945	mood	-0.2223619
-4.421498	moody	-0.1088964
-3.994152	more	-0.1282603
-3.377035	morning	-0.2937628
-4.421498	mosaic	-0.1014575
-4.421498	mosque	-0.1009707
-4.421498	mosscovered	-0.1089719
-4.421498	mossy	-0.1089719
-3.885061	most	-0.07454938
-3.994152	mostly	-0.1078528
-3.441483	mother	-0.1606665
-4.421498	motherhood	-0.08596074
-4.235192	mothers	-0.08583464
-4.421498	motion	-0.1012014
-4.421498	motioning	-0.1083423
-4.421498	motivated	-0.1089782
-4.235192	motocross	-0.1082414
-4.235192	motor	-0.08592754
-4.140184	motorbike	-0.1479337
-4.421498	motorbikes	-0.1009258
-4.421498	motorboat	-0.1093116
-3.377035	motorcycle	-0.1077425
-3.994152	motorcycles	-0.08186123
-4.140184	motorcyclist	-0.09559874
-4.235192	motorcyclists	-0.09058671
-4.421498	motorcycylist	-0.1090223
-4.235192	motorcyle	-0.08508407
-4.421498	motors	-0.1093367
-4.140184	mound	-0.07395381
-4.421498	mounds	-0.1092487
-4.140184	mount	-0.1986206
-3.348075	mountain	-0.1454087
-3.47769	mountains	-0.1050415
-3.885061	mountainside	-0.1670697
-4.235192	mountaintop	-0.1076675
-4.421498	mountians	-0.1087328
-4.421498	mouse	-0.1011053
-4.421498	moustache	-0.08596074
-3.517191	mouth	-0.1075786
-4.421498	mouths	-0.09664232
-3.797945	move	-0.09423423
-4.235192	movement	-0.2277024
-3.885061	moves	-0.1331612
-3.994152	movie	-0.1071011
-3.517191	moving	-0.07412408
-4.421498	mowed	-0.1091103
-3.608943	much	-0.1390926
-3.725418	mud	-0.09724661
-3.797945	muddy	-0.1143301
-4.421498	mudfight	-0.1009707
-4.421498	mug	-0.1045832
-4.235192	multicolor	-0.1093617
-4.140184	multicolored	-0.1071875
-4.421498	multiple	-0.1093116
-4.421498	mummy	-0.08596074
-4.235192	mural	-0.08551598
-4.235192	murky	-0.2502477
-4.421498	muscle	-0.1088461
-4.140184	muscles	-0.1349215
-4.235192	muscular	-0.09895999
-4.140184	museum	-0.08301155
-3.517191	music	-0.2860401
-3.994152	musical	-0.1085753
-4.235192	musicians	-0.1090159
-4.421498	musicisans	-0.1094523
-4.421498	muslim	-0.108909
-3.994152	must	-0.1742366
-4.421498	mustache	-0.1057511
-4.421498	mutual	-0.1094373
-3.994152	muzzle	-0.08885678
-3.797945	muzzled	-0.1423024
-4.421498	muzzles	-0.1067578
-4.421498	my	-0.1084431
-4.421498	mysteries	-0.08596074
-4.421498	mysterious	-0.1094523
-4.421498	n	-0.1093619
-3.994152	n't	-0.107331
-4.421498	nabbing	-0.1044942
-4.235192	nail	-0.1044115
-3.994152	naked	-0.1727875
-4.235192	name	-0.0808018
-4.421498	nametags	-0.1089845
-4.421498	nap	-0.1089593
-4.421498	nappy	-0.08596074
-4.140184	narrow	-0.160242
-4.140184	narrowly	-0.1092171
-4.421498	nasty	-0.1094523
-4.421498	national	-0.1093869
-4.421498	nations	-0.08596074
-3.994152	native	-0.1740982
-4.140184	natural	-0.1085122
-3.47769	nature	-0.395257
-4.421498	naughty	-0.1090097
-4.421498	navigate	-0.1034376
-4.421498	navigating	-0.1044942
-4.235192	navy	-0.08554254
-4.421498	nazis	-0.08596074
-4.421498	nba	-0.08596074
-4.421498	nbut	-0.1094435
-2.487301	near	-0.6065773
-3.377035	nearby	-0.185427
-4.235192	nearing	-0.2462358
-4.421498	nears	-0.1034376
-3.994152	neck	-0.06805521
-3.994152	necklace	-0.09444943
-4.421498	necklase	-0.1091858
-4.421498	nectar	-0.08596074
-4.235192	need	-0.1045259
-4.421498	needed	-0.1094523
-4.421498	needs	-0.09882482
-4.421498	negative	-0.1094523
-4.421498	negotiates	-0.1088083
-4.235192	neighbor	-0.2277024
-4.140184	neighborhood	-0.07318925
-4.421498	neither	-0.1094121
-4.421498	neon	-0.1091607
-4.421498	nerf	-0.1089845
-4.421498	nerverse	-0.08596074
-4.421498	nerves	-0.1045832
-4.421498	nervously	-0.08596074
-4.140184	nest	-0.1639019
-4.421498	nestlings	-0.08596074
-3.885061	net	-0.07217845
-4.421498	netting	-0.09882482
-4.421498	network	-0.08596074
-3.994152	never	-0.1089278
-3.517191	new	-0.0819615
-4.421498	newborn	-0.109211
-3.885061	newly	-0.09867895
-4.235192	news	-0.09880796
