
\data\
ngram 1=6684
ngram 2=36833
ngram 3=7933

\1-grams:
-3.110297	!	-0.83897
-4.308788	#	-0.1038783
-4.446595	$	-0.1039028
-4.446595	&	-0.1037994
-4.013329	'	-0.07268942
-4.308788	''	-0.2089625
-4.446595	'crease	-0.103882
-4.446595	'fastest	-0.1028431
-4.446595	'll	-0.1036579
-4.446595	'm	-0.09807535
-4.308788	're	-0.09822194
-2.769857	's	-0.05495871
-4.446595	'seyeview	-0.1000921
-4.446595	(	-0.1037641
-4.446595	)	-0.07288527
-1.816832	,	-0.2026663
-3.141813	.	-0.14541
-4.308788	..	-0.07286236
-4.446595	...	-0.1038938
-4.155971	1	-0.07246532
-4.308788	100	-0.07286859
-4.446595	104	-0.103823
-4.446595	10lb	-0.1037051
-4.446595	11	-0.103292
-4.308788	15	-0.1037573
-4.446595	17	-0.1037523
-4.446595	18	-0.1039028
-4.446595	181	-0.07288527
-4.308788	19	-0.1038517
-4.155971	2	-0.09936716
-4.155971	20	-0.1896021
-4.446595	23	-0.09960407
-4.446595	25	-0.1035281
-4.155971	3	-0.1032521
-4.446595	300	-0.1039086
-4.446595	3rd	-0.1037877
-4.308788	4	-0.1037191
-4.446595	4th	-0.1000921
-4.308788	5	-0.09515641
-4.446595	6	-0.09417561
-4.446595	8	-0.1037455
-4.446595	80s	-0.1033983
-4.446595	9	-0.1039028
-4.446595	:	-0.09866226
-4.013329	;	-0.1028819
-1.161306	</s>
-99	<s>	-1.23295
-4.155971	?	-0.3274426
-4.446595	]	-0.1038938
-3.053393	``	-0.174866
-1.919273	a	-0.1843468
-4.446595	aa	-0.1037523
-4.446595	abacus	-0.07288527
-4.446595	abandoned	-0.1035517
-4.446595	abba	-0.101007
-4.446595	abdomen	-0.09725168
-4.446595	abducted	-0.1020385
-4.446595	ableskeivers	-0.07288527
-4.446595	aboard	-0.1033864
-4.446595	abominable	-0.1034033
-4.446595	aboriginal	-0.1034691
-2.829268	about	-0.2172291
-3.158473	above	-0.3716838
-4.446595	abseiling	-0.1023937
-4.446595	absolutely	-0.1038938
-4.446595	ac	-0.07288527
-4.446595	acceleration	-0.09556013
-4.446595	accept	-0.09930625
-4.446595	accident	-0.07187637
-4.446595	accidentally	-0.1014934
-4.308788	accordion	-0.09029267
-4.446595	accused	-0.1000921
-4.308788	ache	-0.2089625
-4.446595	achieve	-0.09930625
-4.446595	acorns	-0.1005082
-4.446595	acreage	-0.07288527
-4.446595	acrobat	-0.1005082
-4.446595	acrobatic	-0.1038466
-4.308788	acrobatics	-0.09916833
-2.907539	across	-0.4705313
-4.155971	act	-0.08699337
-3.820228	acting	-0.273417
-4.155971	action	-0.09995777
-4.308788	active	-0.0941538
-4.446595	activities	-0.1035281
-4.308788	activity	-0.0994305
-4.446595	actor	-0.09652068
-4.446595	actors	-0.07288527
-4.308788	actress	-0.2089625
-4.308788	acts	-0.2369418
-4.155971	actually	-0.09837402
-4.446595	adding	-0.1039086
-4.446595	adjust	-0.09930625
-4.446595	admires	-0.09866226
-4.155971	admiring	-0.06762126
-4.446595	adopt	-0.07288527
-4.446595	adorable	-0.103351
-4.446595	adoring	-0.1034691
-4.446595	adorned	-0.09417561
-3.748541	adult	-0.04253719
-3.542081	adults	-0.1499019
-4.308788	adventure	-0.2089625
-4.446595	adventurous	-0.1037405
-4.155971	advertisement	-0.09991188
-4.155971	advertising	-0.07243997
-4.446595	aerial	-0.1038348
-4.446595	aerobics	-0.06492829
-4.446595	aeroplane	-0.07288527
-4.446595	affection	-0.07288527
-4.446595	affectionate	-0.1039028
-4.446595	afghan	-0.103882
-4.155971	afloat	-0.3274426
-3.820228	afraid	-0.2886888
-4.155971	african	-0.1027586
-4.308788	africanamerican	-0.1029663
-4.446595	africanamericans	-0.1033392
-4.446595	africans	-0.1027839
-2.604475	after	-0.2244282
-4.446595	afterwards	-0.07288527
-4.155971	again	-0.05583607
-3.110297	against	-0.5067993
-4.446595	aged	-0.1031435
-4.446595	agency	-0.07288527
-4.308788	ages	-0.09216233
-4.446595	aggrivated	-0.07288527
-4.308788	agility	-0.1033139
-4.013329	ahead	-0.04658783
-4.446595	aimed	-0.1005082
-4.308788	aiming	-0.09928469
-3.252961	air	-0.07343277
-3.748541	airborne	-0.1345577
-4.446595	airconditioning	-0.07288527
-4.446595	aircraft	-0.07288527
-4.155971	airplane	-0.0885109
-4.155971	airport	-0.1586194
-4.446595	airpush	-0.07288527
-4.446595	airship	-0.07288527
-4.446595	aisan	-0.1032211
-4.446595	aisle	-0.09556013
-4.446595	alaska	-0.07288527
-4.446595	album	-0.09725168
-4.446595	alcatraz	-0.1038702
-4.446595	alcohol	-0.07288527
-4.446595	ale	-0.07288527
-4.308788	alert	-0.07185098
-4.013329	alien	-0.08906872
-3.373893	aliens	-0.5703397
-4.446595	aligators	-0.1005082
-4.446595	alike	-0.1018846
-4.308788	alive	-0.07284003
-2.958011	all	-0.1888855
-4.446595	alley	-0.07288527
-4.308788	alligator	-0.07172401
-4.446595	alligators	-0.07288527
-4.446595	allow	-0.07288527
-4.446595	allowed	-0.07288527
-4.446595	allows	-0.1031739
-4.013329	almost	-0.09194247
-3.373893	alone	-0.3125683
-2.968849	along	-0.5574073
-3.906133	alongside	-0.3106129
-4.446595	alphabets	-0.07288527
-4.308788	already	-0.07286859
-4.446595	alright	-0.09556013
-4.308788	also	-0.102517
-4.446595	alters	-0.1027839
-3.748541	although	-0.2311557
-4.446595	always	-0.07288527
-4.446595	am	-0.09926368
-4.446595	amazed	-0.06921521
-4.446595	amazement	-0.07249792
-4.446595	amazing	-0.1034691
-4.446595	ambling	-0.1023937
-4.446595	ambulance	-0.09960407
-4.446595	america	-0.07288527
-3.748541	american	-0.347683
-4.308788	amid	-0.1030845
-4.013329	amidst	-0.2321977
-4.446595	amish	-0.103292
-4.446595	amnesty	-0.1039086
-3.542081	among	-0.172817
-4.446595	amongst	-0.09866226
-4.446595	amuse	-0.09704637
-3.820228	amused	-0.06231449
-4.446595	amuseing	-0.1038938
-4.155971	amusement	-0.1890326
-4.446595	amuses	-0.103292
-4.446595	amusment	-0.1000921
-2.609243	an	-0.2537339
-4.446595	ancestors	-0.07288527
-4.155971	ancient	-0.09707338
-1.865039	and	-0.1860754
-4.446595	angel	-0.07288527
-4.013329	angels	-0.2477236
-4.308788	anger	-0.07286236
-4.446595	angle	-0.0982085
-4.446595	angles	-0.07288527
-3.748541	angry	-0.05702507
-3.50283	animal	-0.08199069
-3.50283	animals	-0.2382015
-4.446595	anime	-0.1039086
-4.308788	ankle	-0.1037721
-4.446595	ankles	-0.07288527
-4.446595	anniversary	-0.07288527
-4.446595	announcing	-0.09930625
-4.446595	annoy	-0.07288527
-4.308788	annoyed	-0.07286236
-4.446595	annoys	-0.1038584
-2.92703	another	-0.199892
-4.446595	ans	-0.1039028
-4.446595	answer	-0.09556013
-4.446595	answering	-0.07288527
-4.446595	ant	-0.1038873
-4.446595	antarctic	-0.07288527
-4.446595	antelope	-0.07288527
-4.446595	antenna	-0.1038466
-4.446595	anthem	-0.1038112
-4.446595	anther	-0.1038112
-4.446595	anticipates	-0.1039086
-4.446595	anticipation	-0.07288527
-4.446595	antitax	-0.1039086
-4.446595	antoher	-0.1032211
-3.820228	ants	-0.3513284
-4.446595	anxiety	-0.07288527
-4.155971	anxiously	-0.3274426
-4.308788	any	-0.1038547
-4.446595	anybody	-0.07288527
-4.155971	anyone	-0.07269344
-4.155971	anything	-0.06845369
-4.446595	anywhere	-0.1038584
-4.155971	apart	-0.06422383
-4.446595	apartments	-0.1039028
-4.446595	apex	-0.09556013
-4.446595	apparantly	-0.1036579
-4.446595	apparatus	-0.09652068
-4.013329	appear	-0.15782
-4.155971	appearing	-0.09687863
-4.446595	appears	-0.09556013
-4.446595	applause	-0.07288527
-4.308788	apple	-0.0967896
-4.155971	apples	-0.07280445
-4.446595	appointment	-0.07288527
-4.446595	appreciate	-0.09930625
-4.446595	approach	-0.07288527
-4.308788	approaches	-0.07173671
-4.155971	approaching	-0.1842228
-4.155971	apron	-0.08982544
-4.446595	aproned	-0.1037877
-4.446595	aquagames	-0.07288527
-4.446595	aquarium	-0.1005082
-4.308788	arcade	-0.07252569
-4.308788	arch	-0.09045081
-4.446595	archaic	-0.1039028
-4.446595	arched	-0.1038938
-4.446595	architectural	-0.1038112
-4.446595	archway	-0.09795754
-4.446595	archways	-0.1019083
-2.329267	are	-0.2361546
-3.125769	area	-0.2021916
-4.308788	arguing	-0.08973263
-4.446595	argument	-0.1037994
-4.446595	ariel	-0.07288527
-4.446595	arithmetic	-0.07288527
-3.542081	arm	-0.1297325
-4.446595	armadillo	-0.07288527
-4.446595	armbands	-0.09960407
-4.446595	armenian	-0.1039086
-4.308788	armpits	-0.2089625
-3.373893	arms	-0.1209534
-4.446595	armstrong	-0.09652068
-4.446595	armwrestling	-0.07288527
-4.013329	army	-0.06841125
-2.742946	around	-0.3401167
-4.446595	arrangement	-0.09417561
-4.308788	arriving	-0.1021383
-4.446595	arrogant	-0.1025829
-4.446595	arrow	-0.1035753
-3.906133	art	-0.09096015
-4.446595	artichoke	-0.103823
-4.446595	articles	-0.07288527
-4.308788	artificial	-0.1035568
-4.155971	artist	-0.07199201
-4.446595	artistic	-0.1038702
-4.446595	arts	-0.09112057
-4.446595	artwork	-0.1033392
-2.377106	as	-0.4350811
-4.446595	ascend	-0.09866226
-4.446595	ascending	-0.09866226
-4.446595	ashy	-0.1037405
-3.820228	asian	-0.2031781
-4.308788	asked	-0.0985122
-3.820228	asking	-0.1403394
-4.446595	asks	-0.1001277
-3.748541	asleep	-0.1888136
-4.308788	asphalt	-0.09631502
-4.308788	aspiring	-0.2362049
-4.446595	assailant	-0.102512
-4.446595	assemble	-0.09866226
-4.446595	assembling	-0.09930625
-4.446595	assignment	-0.07288527
-4.446595	assist	-0.0982085
-4.155971	assistance	-0.09460777
-4.446595	assisting	-0.1034101
-4.446595	asteroid	-0.07288527
-4.446595	astonishment	-0.09556013
-4.308788	astride	-0.2347395
-4.308788	astronauts	-0.2089625
-2.105983	at	-0.5540767
-3.633156	ate	-0.1243377
-4.446595	athlet	-0.09652068
-4.446595	athlete	-0.07288527
-4.308788	athletes	-0.09526468
-4.446595	athletic	-0.1035517
-4.446595	atlantic	-0.07288527
-4.446595	atlantis	-0.07288527
-4.308788	atm	-0.100834
-4.013329	atop	-0.4781584
-4.446595	atrium	-0.1038938
-3.748541	attached	-0.5139709
-4.446595	attaches	-0.1039028
-3.906133	attack	-0.2002477
-4.446595	attacked	-0.1020385
-4.155971	attacking	-0.3532196
-4.446595	attacks	-0.1034455
-3.542081	attempt	-0.4137286
-2.947437	attempting	-0.8869104
-3.542081	attempts	-0.4078588
-4.446595	attending	-0.09620188
-3.687028	attention	-0.2594514
-4.446595	attentively	-0.07288527
-4.446595	attire	-0.09725168
-4.446595	attitude	-0.1005082
-4.446595	attract	-0.09806908
-4.446595	attracted	-0.1020385
-4.446595	attracting	-0.09930625
-4.446595	attraction	-0.07288527
-4.446595	attractive	-0.1039086
-4.446595	attributes	-0.07288527
-4.308788	atv	-0.09258439
-4.013329	audience	-0.2383467
-4.446595	audition	-0.1001277
-4.446595	australian	-0.1038938
-4.446595	authorities	-0.07288527
-4.446595	autograph	-0.1039086
-4.446595	autographs	-0.07288527
-4.446595	automatic	-0.1039086
-4.155971	autumn	-0.1017881
-4.446595	avail	-0.07288527
-4.308788	avalanche	-0.1586827
-4.446595	avenge	-0.1033038
-4.013329	avoid	-0.1263073
-4.446595	avoiders	-0.07288527
-4.013329	avoiding	-0.09836718
-4.446595	avoids	-0.1036815
-4.308788	await	-0.09085198
-3.820228	awaiting	-0.0974599
-4.308788	awaits	-0.06880631
-4.155971	award	-0.06867114
-4.308788	awards	-0.2089625
-4.446595	aware	-0.1000921
-4.446595	awareness	-0.1035281
-3.053393	away	-0.3634932
-4.308788	awe	-0.06421091
-4.446595	awesome	-0.1035281
-4.446595	awhile	-0.07288527
-4.446595	awning	-0.09556013
-4.446595	babes	-0.07288527
-4.308788	babies	-0.1025289
-3.297379	baby	-0.1225529
-4.446595	babysitter	-0.07288527
-3.015129	back	-0.1827791
-4.446595	backbend	-0.09556013
-4.446595	backbones	-0.07288527
-4.308788	backdrop	-0.09626189
-3.633156	background	-0.05139279
-3.585236	backpack	-0.1263035
-4.446595	backpacker	-0.08890865
-3.906133	backpacks	-0.09328197
-4.155971	backs	-0.07382502
-4.446595	backside	-0.1000921
-4.446595	backstand	-0.09417561
-4.308788	backstroke	-0.09415973
-4.446595	backtoback	-0.09417561
-4.446595	backward	-0.101007
-3.906133	backwards	-0.1123452
-4.013329	backyard	-0.08619764
-4.155971	bacon	-0.3274426
-4.013329	bad	-0.1022293
-4.446595	badly	-0.07288527
-4.308788	badminton	-0.2302528
-3.232347	bag	-0.08313186
-4.446595	bagpipe	-0.101007
-4.446595	bagpipers	-0.1035281
-4.446595	bagpipes	-0.09652068
-3.50283	bags	-0.06026055
-4.446595	baked	-0.1039086
-4.446595	baking	-0.1038348
-3.820228	balance	-0.1620353
-4.308788	balanced	-0.09404811
-4.155971	balances	-0.1532961
-3.906133	balancing	-0.1979248
-4.308788	balcony	-0.08535976
-4.155971	bald	-0.1434249
-4.446595	balding	-0.1028431
-4.446595	bale	-0.07288527
-2.871001	ball	-0.2262133
-4.446595	ballerina	-0.07288527
-4.155971	ballerinas	-0.06016106
-4.308788	ballet	-0.07276946
-4.446595	ballon	-0.1031739
-3.687028	balloon	-0.0809437
-3.820228	balloons	-0.1358239
-3.585236	balls	-0.1141143
-4.446595	ballshaped	-0.103882
-4.308788	banana	-0.2089625
-3.906133	bananas	-0.3349599
-3.748541	band	-0.1010196
-4.446595	bandage	-0.09652068
-4.155971	bandanna	-0.09471618
-4.446595	bang	-0.102512
-4.446595	bangles	-0.07288527
-4.446595	bangs	-0.103882
-4.446595	banishment	-0.09417561
-4.446595	banjo	-0.1037994
-4.155971	bank	-0.08409746
-4.155971	banner	-0.06156721
-4.446595	banners	-0.09417561
-4.446595	banning	-0.1038938
-3.748541	bar	-0.0434681
-4.308788	barbed	-0.2399474
-4.446595	barbeque	-0.09417561
-4.446595	barber	-0.07288527
-4.308788	bare	-0.07286859
-4.446595	barechested	-0.1028431
-3.687028	barefoot	-0.1802643
-4.308788	barefooted	-0.09369817
-4.446595	barely	-0.1034573
-4.446595	bares	-0.1014934
-4.446595	baring	-0.1038112
-3.748541	barking	-0.2910906
-4.155971	barks	-0.09129496
-4.308788	barn	-0.05082086
-4.013329	barrel	-0.09200019
-4.446595	barricade	-0.07288527
-4.308788	barrier	-0.07394415
-4.308788	bars	-0.2365854
-4.446595	bart	-0.1039086
-3.820228	base	-0.08026695
-3.346863	baseball	-0.1186718
-3.748541	basket	-0.1367082
-3.402719	basketball	-0.1370588
-4.308788	basking	-0.2302528
-4.446595	bass	-0.09795754
-3.820228	bat	-0.1021669
-3.633156	bath	-0.2323741
-3.633156	bathing	-0.5293722
-4.308788	bathrobe	-0.1013681
-4.446595	bathroom	-0.07288527
-4.308788	bathtub	-0.1034241
-4.155971	batman	-0.07177298
-4.446595	baton	-0.1005082
-4.446595	batons	-0.09652068
-4.308788	bats	-0.0723965
-4.308788	batter	-0.1030895
-4.446595	batteries	-0.07288527
-4.446595	batting	-0.09866226
-4.013329	battle	-0.1224611
-4.446595	battling	-0.09556013
-4.446595	bay	-0.1039086
-4.446595	bcause	-0.1014934
-3.466834	be	-0.03818357
-3.466834	beach	-0.07684454
-4.155971	beads	-0.07172945
-4.446595	beagle	-0.1020131
-4.013329	beam	-0.05692605
-4.446595	beams	-0.1024528
-4.446595	bean	-0.07288527
-4.446595	beans	-0.1001277
-4.155971	bear	-0.2063948
-3.687028	beard	-0.1189248
-4.446595	bearded	-0.1028008
-4.446595	bearer	-0.1036697
-4.155971	bearing	-0.1860818
-3.906133	bears	-0.3436905
-4.308788	beast	-0.2089625
-4.446595	beat	-0.09794387
-4.155971	beating	-0.09985238
-3.748541	beautiful	-0.08388748
-3.820228	beauty	-0.2823057
-3.906133	became	-0.09817433
-4.446595	becaming	-0.1039086
-3.080914	because	-0.3829108
-4.446595	becaused	-0.1031385
-4.308788	become	-0.1164449
-4.446595	becomes	-0.1038466
-4.446595	becoming	-0.09930625
-4.446595	becuse	-0.09930625
-3.50283	bed	-0.05540686
-4.446595	bedbugs	-0.07288527
-4.446595	bedroom	-0.07288527
-4.446595	bedspread	-0.1019083
-4.155971	bee	-0.07238524
-4.308788	been	-0.1038547
-3.906133	beer	-0.0788084
-4.446595	beers	-0.1034219
-4.013329	bees	-0.2405725
-2.791195	before	-0.208047
-4.446595	befriending	-0.1038702
-4.446595	beg	-0.1001277
-4.308788	began	-0.2316373
-4.155971	begging	-0.09994758
-4.308788	begin	-0.07115221
-4.013329	beginning	-0.1557816
-4.155971	begins	-0.1497252
-4.446595	begs	-0.1001277
-2.783965	behind	-0.4550132
-4.446595	behinds	-0.09556013
-4.308788	beige	-0.1022259
-3.080914	being	-0.1728138
-4.446595	believe	-0.1036697
-4.308788	bellies	-0.07286236
-3.906133	belly	-0.1458339
-4.446595	belong	-0.09556013
-4.308788	belongings	-0.1027535
-3.687028	below	-0.1804539
-4.446595	belt	-0.07288527
-4.446595	belts	-0.1038702
-3.466834	bench	-0.1008715
-4.446595	benches	-0.09321503
-4.155971	bend	-0.1724326
-4.308788	bending	-0.1009172
-4.446595	bends	-0.1024528
-4.013329	beneath	-0.269632
-4.155971	bent	-0.1020842
-4.446595	bermuda	-0.1039086
-4.446595	bernard	-0.1025829
-3.080914	beside	-0.5380867
-4.446595	bespectacled	-0.09725168
-3.542081	best	-0.1637929
-4.308788	bet	-0.07155891
-4.446595	bets	-0.102299
-3.748541	better	-0.2804192
-4.308788	betting	-0.09592573
-4.446595	betty	-0.07288527
-3.321416	between	-0.1610122
-4.155971	bib	-0.08455387
-3.274602	bicycle	-0.04669526
-4.446595	bicyclecross	-0.103823
-4.446595	bicycler	-0.1028008
-3.687028	bicycles	-0.05345107
-4.446595	bicyclist	-0.09379321
-3.906133	bicyclists	-0.1734365
-4.446595	biek	-0.1023937
-3.402719	big	-0.08508873
-3.687028	bigfoot	-0.5494382
-4.155971	bigger	-0.07182376
-4.446595	biggest	-0.1037957
-3.158473	bike	-0.1279289
-3.542081	biker	-0.1115592
-4.013329	bikers	-0.09615214
-3.50283	bikes	-0.1256517
-3.748541	biking	-0.1798995
-3.820228	bikini	-0.1711099
-4.308788	bikinis	-0.0700555
-4.308788	bill	-0.05388796
-4.308788	billboard	-0.103188
-4.446595	billboards	-0.09417561
-4.308788	billowing	-0.09546911
-4.446595	bills	-0.07288527
-4.308788	bin	-0.07256129
-4.446595	bind	-0.1014934
-4.308788	binocular	-0.2089625
-4.308788	binoculars	-0.09294907
-4.446595	biohazard	-0.1038702
-3.297379	bird	-0.1825168
-3.466834	birds	-0.2640543
-4.446595	birdseed	-0.07288527
-4.446595	birth	-0.07288527
-4.308788	birthday	-0.09797973
-4.013329	bit	-0.06604718
-4.446595	bitch	-0.07288527
-4.155971	bite	-0.04546192
-4.308788	bites	-0.09441498
-3.542081	biting	-0.1543857
-4.446595	bits	-0.07288527
-4.446595	bitten	-0.07288527
-2.862327	black	-0.1840198
-4.446595	blackandwhite	-0.1025829
-4.446595	blackhaired	-0.1034691
-4.446595	blacking	-0.09930625
-4.446595	blackshirt	-0.09960407
-4.446595	blacktshirt	-0.09795754
-4.446595	blacky	-0.1025829
-4.446595	blackyellow	-0.1038584
-4.446595	blair	-0.1038348
-4.446595	blame	-0.07288527
-4.446595	bland	-0.1036107
-4.446595	blanker	-0.09652068
-3.820228	blanket	-0.09314363
-4.446595	blankets	-0.09417561
-4.446595	blast	-0.07288527
-4.446595	blasting	-0.1038348
-4.446595	blatantly	-0.1039086
-4.446595	bleach	-0.1005082
-4.446595	bleached	-0.103351
-4.308788	bleachers	-0.06674321
-4.446595	bleck	-0.103823
-4.446595	blender	-0.07288527
-4.446595	blending	-0.09556013
-4.446595	blimp	-0.1036461
-4.308788	blind	-0.1032706
-4.446595	blinded	-0.1020385
-4.446595	blinders	-0.07288527
-4.446595	blindfolds	-0.0982085
-4.308788	blinding	-0.1038607
-4.446595	blingfolded	-0.1020385
-4.446595	blisters	-0.07288527
-4.446595	blitz	-0.1035517
-4.155971	block	-0.08218379
-4.446595	blocking	-0.09930625
-4.155971	blocks	-0.06672628
-3.50283	blond	-0.2559174
-3.542081	blonde	-0.2974143
-4.446595	blondehaired	-0.1036461
-4.446595	blondhair	-0.1033746
-4.446595	blood	-0.1039086
-4.446595	blossoms	-0.09556013
-4.446595	blouse	-0.09417561
-4.446595	blouses	-0.07288527
-4.155971	blow	-0.1006989
-4.446595	blower	-0.09417561
-3.50283	blowing	-0.2190344
-4.013329	blows	-0.0880691
-4.446595	blowup	-0.103823
-3.04026	blue	-0.1127118
-4.446595	blueberry	-0.103882
-4.446595	blueheadscarf	-0.1035045
-4.446595	bluerobed	-0.09795754
-4.446595	blues	-0.1039028
-4.446595	bluff	-0.1037759
-4.446595	blurred	-0.1038938
-4.155971	blurry	-0.1029736
-4.446595	blushes	-0.07288527
-4.446595	bms	-0.103882
-4.446595	bmw	-0.1037759
-3.906133	bmx	-0.2585284
-4.446595	bo	-0.1039086
-4.446595	boa	-0.1034337
-3.373893	board	-0.1031573
-4.308788	boarder	-0.09801048
-4.013329	boarding	-0.06544536
-4.308788	boards	-0.09639388
-4.013329	boardwalk	-0.133811
-4.446595	boart	-0.1038938
-3.232347	boat	-0.1044704
-3.748541	boats	-0.1027296
-4.446595	bobbing	-0.1023108
-4.446595	bobbles	-0.1014934
-4.308788	bodies	-0.06389518
-3.633156	body	-0.1403984
-4.446595	bog	-0.102517
-4.446595	bohemians	-0.1039086
-4.446595	bombing	-0.07288527
-3.433594	bone	-0.3998928
-4.446595	bonefish	-0.07288527
-3.274602	bones	-0.4994028
-4.446595	bonnets	-0.1031739
-4.446595	boobs	-0.07288527
-4.446595	booger	-0.1039086
-4.446595	boogers	-0.07288527
-4.013329	boogie	-0.1353734
-4.446595	booing	-0.07288527
-3.820228	book	-0.08780954
-4.446595	booked	-0.09930625
-4.446595	booklets	-0.1039086
-4.308788	books	-0.1003588
-4.446595	bookstore	-0.1034809
-4.308788	boom	-0.06240576
-4.446595	boot	-0.1036579
-4.446595	booth	-0.07288527
-3.542081	boots	-0.1770935
-4.446595	booty	-0.1020977
-4.308788	border	-0.2399592
-3.687028	bored	-0.1464275
-4.446595	boredom	-0.07288527
-4.308788	boring	-0.07265866
-4.446595	boringly	-0.1005082
-4.446595	born	-0.103823
-4.155971	boss	-0.1546363
-4.446595	bossy	-0.1035517
-3.373893	both	-0.1464134
-4.308788	botteld	-0.09723002
-3.820228	bottle	-0.1445204
-4.446595	bottles	-0.1038702
-4.013329	bottom	-0.1959016
-4.308788	bottoms	-0.06389518
-4.446595	bought	-0.06921521
-4.446595	boulder	-0.1023869
-3.906133	bounce	-0.1450863
-4.446595	bounced	-0.1035045
-4.155971	bounces	-0.0864238
-4.013329	bouncing	-0.1304326
-4.308788	bouncy	-0.1031081
-4.308788	bound	-0.1024156
-4.446595	boundle	-0.07288527
-4.446595	bounds	-0.1020199
-4.446595	bouquet	-0.1000921
-4.308788	bow	-0.09789094
-4.155971	bowl	-0.06228711
-4.446595	bowler	-0.1037523
-4.155971	bowling	-0.07224031
-4.155971	bowls	-0.08675512
-4.446595	bows	-0.09652068
-3.748541	box	-0.1526968
-4.446595	boxer	-0.1034101
-4.446595	boxers	-0.1018846
-4.308788	boxes	-0.06876796
-4.155971	boxing	-0.09550747
-2.937113	boy	-0.1294387
-4.446595	boyfiend	-0.07288527
-4.308788	boyfriend	-0.1583279
-4.308788	boyfriends	-0.2089625
-3.232347	boys	-0.1761727
-4.446595	bracelet	-0.101007
-4.446595	braces	-0.1037641
-4.446595	brag	-0.1032802
-4.446595	braid	-0.1014934
-4.446595	braids	-0.09960407
-4.155971	brakes	-0.1021552
-4.155971	branch	-0.1786321
-4.308788	branches	-0.0695982
-4.446595	brandy	-0.07288527
-4.446595	bras	-0.07288527
-4.446595	brat	-0.07288527
-4.013329	bravely	-0.1010223
-4.446595	brazilian	-0.1039086
-3.748541	break	-0.09966975
-4.446595	breakdown	-0.07288527
-4.308788	breakfast	-0.2089625
-3.820228	breaking	-0.1307513
-4.155971	breaks	-0.09951899
-4.013329	breath	-0.1250641
-4.446595	breathe	-0.07288527
-4.308788	breathing	-0.1037957
-4.446595	breeds	-0.1019083
-4.308788	breeze	-0.06674321
-4.446595	breezeway	-0.1018846
-4.446595	breezy	-0.1036815
-4.446595	breweries	-0.07288527
-3.633156	brick	-0.150963
-3.906133	bride	-0.07479474
-4.446595	brides	-0.1027839
-4.446595	bridesmaids	-0.09417561
-3.50283	bridge	-0.1160149
-4.446595	briefcases	-0.07288527
-4.308788	briefly	-0.1004539
-4.446595	brigade	-0.07288527
-3.820228	bright	-0.1077054
-4.013329	brightly	-0.1659265
-4.446595	brighty	-0.1039086
-4.446595	brindle	-0.1031739
-4.308788	bring	-0.09010452
-4.155971	bringing	-0.09673099
-4.308788	brings	-0.09777136
-4.308788	british	-0.1037691
-4.446595	broccoli	-0.1029612
-4.308788	broke	-0.2089625
-3.748541	broken	-0.09279662
-4.446595	bromance	-0.07288527
-4.446595	bronze	-0.1036933
-4.446595	brook	-0.1039086
-4.446595	broom	-0.0982085
-4.446595	brooms	-0.1031739
-3.820228	brother	-0.141573
-4.308788	brothers	-0.0979418
-3.906133	brought	-0.0922477
-4.446595	brow	-0.09795754
-2.879851	brown	-0.2955355
-4.446595	brownandwhite	-0.1025829
-4.446595	browneyed	-0.1038112
-4.308788	brownish	-0.1034623
-4.446595	browny	-0.09725168
-4.446595	browses	-0.09417561
-4.308788	bruises	-0.2089625
-4.446595	brunch	-0.07288527
-4.155971	brunette	-0.1889381
-4.155971	brush	-0.09348313
-4.446595	brushed	-0.1038112
-4.446595	brushes	-0.07288527
-4.308788	brushland	-0.09520453
-3.906133	bubble	-0.1184152
-3.585236	bubbles	-0.1448676
-4.446595	bubbly	-0.1034573
-3.906133	bucket	-0.05469865
-4.155971	buckets	-0.09054635
-4.308788	buddy	-0.0657144
-4.446595	bug	-0.09652068
-4.308788	bugs	-0.2089625
-4.446595	build	-0.09494494
-3.080914	building	-0.2422951
-3.748541	buildings	-0.1289677
-4.446595	bulb	-0.07288527
-3.820228	bull	-0.09115681
-4.446595	bulldogs	-0.1026894
-4.446595	bullet	-0.07288527
-4.446595	bullfighting	-0.1039086
-4.446595	bullied	-0.103044
-4.446595	bullock	-0.1038938
-4.446595	bullrun	-0.07288527
-4.013329	bulls	-0.2483575
-4.446595	bum	-0.1034455
-4.446595	bumblebee	-0.1038702
-4.308788	bump	-0.1021738
-4.446595	bumped	-0.102512
-4.308788	bumps	-0.07027398
-4.446595	bumpy	-0.1038938
-4.446595	bun	-0.06389518
-4.446595	bunch	-0.1000921
-4.446595	bundle	-0.07288527
-4.446595	bundled	-0.1020977
-4.446595	bundles	-0.1000921
-3.906133	bungee	-0.1123765
-4.446595	bungie	-0.1032448
-4.446595	bunion	-0.09652068
-4.446595	bunnies	-0.07288527
-3.820228	bunny	-0.2347948
-4.446595	bunyan	-0.07288527
-4.446595	buoy	-0.09251352
-4.446595	buoys	-0.07288527
-4.446595	burger	-0.07288527
-4.155971	burgers	-0.1523034
-4.446595	burglarized	-0.07288527
-4.446595	burgundy	-0.1034977
-3.906133	buried	-0.1784023
-4.446595	burka	-0.09960407
-4.446595	burly	-0.1031739
-4.446595	burned	-0.102512
-4.013329	burning	-0.1033338
-4.308788	burns	-0.1022567
-4.446595	burp	-0.1039086
-4.308788	burping	-0.0728147
-4.446595	burps	-0.07288527
-4.446595	burrows	-0.07288527
-4.446595	bury	-0.09866226
-3.687028	bus	-0.1197571
-4.446595	buses	-0.101007
-4.308788	bush	-0.06492829
-4.446595	bushels	-0.1000921
-3.906133	bushes	-0.05357599
-4.446595	bushy	-0.1038348
-4.308788	business	-0.07286859
-4.446595	busquits	-0.1037994
-4.446595	bust	-0.102446
-4.446595	busted	-0.1023227
-4.013329	busy	-0.1616591
-3.015129	but	-0.2010347
-4.446595	butler	-0.07288527
-4.013329	butt	-0.1094618
-4.013329	butter	-0.3454165
-4.155971	butterflies	-0.3274426
-4.308788	butterfly	-0.06338324
-4.446595	butting	-0.09866226
-4.446595	buttinski	-0.07288527
-3.906133	button	-0.119051
-4.446595	butts	-0.1031267
-4.013329	buy	-0.08409628
-4.446595	buying	-0.1034101
-4.446595	buzzing	-0.07288527
-2.363281	by	-0.3071439
-4.446595	bycicle	-0.1038938
-4.446595	bycycle	-0.07288527
-4.446595	byte	-0.07288527
-3.687028	ca	-0.7843491
-4.155971	cable	-0.06167674
-4.446595	cacti	-0.1035635
-4.446595	cactus	-0.07288527
-4.446595	caerfully	-0.07288527
-4.308788	cafe	-0.08960903
-4.308788	cage	-0.07071969
-4.446595	caged	-0.1037877
-3.687028	cake	-0.202863
-4.446595	cakes	-0.07288527
-4.446595	calamity	-0.1039086
-4.446595	calculus	-0.07288527
-4.446595	calico	-0.1037877
-4.446595	california	-0.1034219
-4.013329	call	-0.06936602
-4.013329	called	-0.09800592
-3.542081	calling	-0.1234883
-4.308788	calm	-0.1033966
-4.308788	calmly	-0.07141915
-4.446595	calorie	-0.1039086
-4.446595	calories	-0.07288527
-4.446595	cam	-0.07288527
-4.446595	camcorder	-0.09556013
-4.155971	came	-0.1867115
-4.155971	camel	-0.05438852
-4.013329	camels	-0.07053014
-3.212667	camera	-0.1188822
-4.446595	cameraless	-0.07288527
-4.446595	cameraman	-0.07288527
-4.155971	cameras	-0.06552674
-3.906133	camouflage	-0.1053171
-4.155971	camp	-0.1305057
-4.446595	campaigning	-0.1001277
-4.446595	camper	-0.1038938
-4.446595	campfire	-0.09376676
-4.446595	campground	-0.1001277
-3.906133	camping	-0.07795805
-4.308788	campsite	-0.09808218
-4.308788	campus	-0.09688548
-3.125769	can	-0.1524034
-4.446595	canada	-0.1037994
-4.446595	canal	-0.1019083
-4.308788	candies	-0.2089625
-4.155971	candles	-0.06428103
-3.50283	candy	-0.4079359
-4.446595	cane	-0.07288527
-4.446595	canned	-0.1037523
-4.446595	cannon	-0.09417561
-4.446595	cannonball	-0.102512
-4.446595	cannonballs	-0.07288527
-4.013329	canoe	-0.1015128
-4.155971	canoes	-0.09470414
-4.308788	cans	-0.09999008
-4.446595	cant	-0.1038348
-4.446595	canvas	-0.103823
-4.446595	canvass	-0.103292
-4.308788	canyon	-0.09767567
-3.252961	cap	-0.1150891
-4.308788	cape	-0.1000377
-4.446595	capes	-0.09652068
-4.308788	caps	-0.08807263
-4.446595	capsizing	-0.07288527
-4.308788	captain	-0.07277671
-4.446595	captive	-0.07288527
-4.446595	capture	-0.09894177
-4.308788	captured	-0.1019607
-3.080914	car	-0.1038401
-4.446595	caramel	-0.1039086
-4.308788	card	-0.07286859
-4.013329	cardboard	-0.1219474
-4.446595	cardigan	-0.09960407
-4.308788	cards	-0.09981158
-3.748541	care	-0.1330736
-4.308788	careful	-0.1034764
-3.212667	carefully	-0.2061546
-4.013329	carnival	-0.1020915
-4.446595	carnivalyet	-0.1035399
-4.446595	carnivorous	-0.1039028
-4.446595	carols	-0.06975129
-4.446595	carousel	-0.07288527
-3.748541	carpet	-0.06560083
-4.446595	carpeted	-0.1038938
-4.308788	carriage	-0.09369817
-4.155971	carried	-0.09841496
-4.446595	carrier	-0.1036225
-3.542081	carries	-0.3502947
-4.446595	carring	-0.09866226
-4.446595	carrots	-0.07288527
-4.013329	carry	-0.1417325
-3.053393	carrying	-0.3728176
-3.50283	cars	-0.1445663
-4.446595	carsick	-0.07288527
-3.906133	cart	-0.1161147
-4.446595	carton	-0.09725168
-4.155971	carts	-0.1724326
-4.446595	cartwheels	-0.09725168
-4.308788	carves	-0.09863157
-4.446595	carving	-0.1000921
-4.446595	carying	-0.09866226
-4.155971	case	-0.08876216
-4.446595	cases	-0.1000921
-3.906133	cash	-0.1494658
-4.446595	casino	-0.1039086
-4.308788	cast	-0.09603895
-4.446595	castaway	-0.09417561
-4.013329	casting	-0.1598369
-3.906133	castle	-0.1949124
-4.446595	castles	-0.1020977
-4.446595	casual	-0.1036107
-3.748541	casually	-0.0948555
-3.50283	cat	-0.2472181
-4.446595	catapulted	-0.1031267
-3.542081	catch	-0.05395921
-4.446595	catched	-0.102299
-4.013329	catcher	-0.08037017
-3.50283	catches	-0.3865866
-3.252961	catching	-0.2628421
-4.446595	caterpillars	-0.07288527
-4.446595	cathedral	-0.1036461
-3.906133	cats	-0.1801791
-4.446595	cattails	-0.09417561
-4.308788	cattle	-0.1025674
-3.633156	caught	-0.1296423
-4.155971	cause	-0.06637605
-4.155971	causing	-0.1026049
-4.446595	cautionsly	-0.102512
-4.446595	cautiously	-0.1039028
-3.906133	cave	-0.1011919
-4.446595	caveman	-0.07288527
-4.446595	caves	-0.07288527
-4.446595	cbs	-0.1039086
-4.446595	ceiling	-0.06240576
-4.155971	celebrate	-0.07282276
-4.446595	celebrates	-0.1014934
-3.687028	celebrating	-0.06367961
-4.308788	celebration	-0.2089625
-4.446595	celebratory	-0.1039028
-4.446595	celebreties	-0.07288527
-4.308788	celebrity	-0.2089625
-4.308788	cell	-0.07284003
-3.906133	cellphone	-0.08025561
-4.446595	cellphones	-0.09725168
-3.906133	cement	-0.183697
-4.446595	cemetary	-0.09725168
-4.308788	center	-0.09165322
-4.446595	centipede	-0.1034337
-4.446595	central	-0.1036697
-4.446595	century	-0.07288527
-4.446595	ceo	-0.1000921
-4.446595	cereal	-0.07288527
-4.446595	ceremony	-0.09960407
-4.446595	certification	-0.07288527
-4.308788	chain	-0.09522096
-4.446595	chained	-0.1037287
-4.446595	chainsaw	-0.1039028
-3.402719	chair	-0.1042327
-3.748541	chairs	-0.1425392
-4.308788	chalk	-0.07284003
-4.446595	chalky	-0.07288527
-4.308788	challenge	-0.2089625
-4.446595	challenges	-0.103882
-4.446595	challenging	-0.09930625
-4.446595	champagne	-0.07288527
-3.820228	champion	-0.2033132
-4.308788	champions	-0.06876796
-4.446595	championship	-0.1034505
-4.308788	chance	-0.06389518
-4.155971	change	-0.09404638
-4.446595	changed	-0.1038466
-4.446595	changes	-0.1039086
-4.155971	changing	-0.09077211
-4.446595	chaperone	-0.1036343
-4.446595	chapped	-0.07288527
-4.446595	chapstick	-0.07288527
-4.446595	characters	-0.0982085
-4.446595	charmers	-0.07288527
-4.446595	charming	-0.07288527
-4.446595	charms	-0.07288527
-4.446595	charred	-0.1039086
-4.446595	chart	-0.0982085
-3.633156	chase	-0.2205234
-4.155971	chased	-0.1862601
-3.820228	chases	-0.1526229
-3.125769	chasing	-0.1947783
-4.308788	chat	-0.09915641
-4.446595	chats	-0.0982085
-4.446595	chatting	-0.09652068
-4.446595	cheap	-0.09556013
-4.013329	check	-0.06636564
-4.446595	checkered	-0.1039028
-3.906133	checking	-0.088603
-4.446595	checkng	-0.1039086
-4.446595	checkout	-0.1037641
-4.308788	checks	-0.07116493
-4.446595	checkstand	-0.1019083
-4.155971	cheek	-0.0686072
-4.308788	cheeks	-0.09793592
-4.155971	cheer	-0.09870828
-4.446595	cheered	-0.09652068
-3.748541	cheering	-0.0606135
-4.155971	cheerleader	-0.08595707
-3.906133	cheerleaders	-0.07039551
-4.155971	cheers	-0.05577021
-3.748541	cheese	-0.338802
-4.446595	cheeseburger	-0.1038938
-4.308788	cheetah	-0.1572491
-4.446595	chef	-0.07288527
-4.446595	chess	-0.1038112
-4.155971	chest	-0.06451902
-4.446595	chested	-0.1028431
-3.906133	chew	-0.1675533
-4.308788	chewed	-0.238388
-3.820228	chewing	-0.1500272
-4.308788	chews	-0.1535271
-4.446595	chick	-0.07288527
-3.633156	chicken	-0.4290963
-4.013329	chickens	-0.06071401
-4.446595	chid	-0.1039086
-3.193841	child	-0.1247953
-4.446595	childhood	-0.07288527
-4.446595	childlisly	-0.07288527
-2.968849	children	-0.2255652
-4.446595	childrens	-0.1036579
-4.446595	childs	-0.1038584
-4.446595	chilling	-0.07288527
-4.446595	chimes	-0.1036107
-4.155971	chin	-0.1252587
-4.308788	china	-0.1586574
-4.308788	chinese	-0.1037603
-4.308788	chips	-0.06975129
-4.446595	chirping	-0.1039086
-4.446595	chistmas	-0.1038466
-3.748541	chocolate	-0.07015806
-4.446595	choice	-0.09556013
-4.446595	choices	-0.07288527
-4.446595	chokes	-0.0982085
-4.446595	chompionship	-0.07288527
-4.446595	choose	-0.102299
-4.446595	chop	-0.09417561
-4.446595	chopsticks	-0.09554431
-4.446595	chores	-0.07288527
-4.446595	christ	-0.09930625
-3.906133	christmas	-0.2070067
-4.446595	chubby	-0.1039086
-4.446595	chunk	-0.1000921
-4.446595	church	-0.09538494
-4.446595	churro	-0.1037641
-4.308788	cigar	-0.2089625
-3.748541	cigarette	-0.111866
-4.155971	cigarettes	-0.1876367
-4.446595	cigars	-0.1038584
-4.308788	cinderella	-0.08879356
-4.155971	circle	-0.09634208
-4.446595	circles	-0.06674321
-4.308788	circuit	-0.07267535
-4.446595	circular	-0.10344
-4.446595	circulation	-0.07288527
-4.446595	circumvents	-0.09866226
-3.820228	circus	-0.2481543
-4.446595	citizen	-0.1038938
-3.373893	city	-0.1678497
-4.446595	civil	-0.1039028
-4.446595	claim	-0.1039086
-4.446595	clams	-0.07288527
-4.446595	clannish	-0.103823
-4.446595	clap	-0.1039086
-4.446595	clapped	-0.1014934
-4.155971	clapping	-0.09668989
-4.446595	claps	-0.1038938
-3.906133	class	-0.1305478
-4.446595	classes	-0.07288527
-4.446595	classic	-0.1035635
-4.446595	classmates	-0.1033983
-4.446595	classroom	-0.1034809
-4.446595	claus	-0.06812091
-4.446595	clause	-0.07214285
-4.446595	claustrophobia	-0.09960407
-3.687028	clean	-0.1494041
-4.446595	cleaned	-0.1038938
-4.013329	cleaning	-0.1020983
-3.906133	clear	-0.1794643
-4.308788	clearing	-0.09190785
-4.446595	clearly	-0.1038112
-4.446595	clears	-0.09930625
-4.446595	clemson	-0.1026894
-4.446595	clever	-0.1039086
-4.013329	cleverly	-0.1354591
-4.446595	click	-0.07288527
-3.687028	cliff	-0.1042533
-4.446595	cliffs	-0.1027093
-4.446595	cliffside	-0.09725168
-4.446595	climate	-0.07288527
-3.820228	climb	-0.08842583
-3.906133	climbed	-0.1447738
-3.906133	climber	-0.1580331
-3.820228	climbers	-0.06377755
-3.110297	climbing	-0.2018592
-3.252961	climbs	-0.3046675
-4.446595	clims	-0.09930625
-4.446595	clinging	-0.09556013
-4.446595	clings	-0.09556013
-4.446595	clinton	-0.1038938
-4.446595	clips	-0.1039086
-4.446595	clogs	-0.09930625
-4.446595	cloned	-0.103292
-3.633156	close	-0.2232262
-4.155971	closed	-0.1117128
-4.308788	closely	-0.09971634
-4.155971	closer	-0.1753067
-4.446595	closes	-0.1023227
-4.446595	closet	-0.07288527
-4.013329	closeup	-0.1273367
-3.748541	cloth	-0.1495325
-4.446595	clothed	-0.1038938
-3.141813	clothes	-0.1814237
-3.433594	clothing	-0.06563081
-4.446595	cloths	-0.09652068
-4.446595	clots	-0.1005082
-4.155971	cloud	-0.1507583
-3.906133	clouds	-0.111489
-4.308788	cloudy	-0.1034859
-4.308788	clover	-0.2089625
-3.542081	clown	-0.08325837
-4.446595	clownmakeup	-0.09417561
-3.820228	clowns	-0.2950884
-4.155971	club	-0.08517513
-4.446595	clubhouse	-0.07288527
-4.446595	clue	-0.1038584
-4.446595	clueless	-0.09556013
-4.446595	clumsily	-0.1024528
-4.308788	cluster	-0.1029072
-4.308788	clutches	-0.09398779
-4.446595	coach	-0.1028008
-4.446595	coaster	-0.09758338
-3.297379	coat	-0.05955245
-4.308788	coated	-0.1036158
-4.155971	coats	-0.1009087
-4.446595	cob	-0.09635788
-4.446595	cocaine	-0.07288527
-4.446595	cockroach	-0.07288527
-4.308788	cockroaches	-0.2089625
-4.308788	cocoa	-0.2089625
-4.446595	coconut	-0.07288527
-3.820228	coffee	-0.09334455
-4.308788	coin	-0.06876796
-4.446595	cola	-0.07288527
-3.585236	cold	-0.1418723
-4.446595	collapsable	-0.103882
-3.542081	collar	-0.1272387
-4.308788	collars	-0.1565242
-4.446595	collect	-0.1038775
-4.308788	collecting	-0.1038725
-4.308788	collection	-0.1000705
-4.446595	collects	-0.09652068
-3.906133	college	-0.1217351
-4.446595	collegiate	-0.1036107
-4.013329	collie	-0.1299191
-4.446595	collision	-0.07288527
-4.446595	coloful	-0.1038112
-3.820228	color	-0.1387522
-3.297379	colored	-0.1192019
-3.633156	colorful	-0.08944076
-4.308788	colorfully	-0.1014511
-4.308788	coloring	-0.1038429
-3.748541	colors	-0.0816674
-4.308788	colourful	-0.1033443
-4.446595	colourfully	-0.1034573
-4.446595	colours	-0.07288527
-4.446595	columns	-0.07288527
-4.446595	colur	-0.1037994
-4.308788	combat	-0.1035598
-4.446595	combing	-0.1014934
-3.748541	come	-0.0808992
-4.446595	comedian	-0.1029612
-4.446595	comedians	-0.07288527
-3.748541	comes	-0.1411752
-4.446595	comfort	-0.07288527
-4.446595	comfortable	-0.103823
-4.155971	comfortably	-0.05425261
-4.446595	comically	-0.1039086
-3.542081	coming	-0.1245878
-4.446595	command	-0.07288527
-4.446595	commander	-0.09725168
-4.446595	commercial	-0.1038466
-4.446595	communicate	-0.0982085
-4.308788	community	-0.07272603
-4.446595	commuting	-0.09556013
-4.446595	compact	-0.1035635
-4.446595	companions	-0.103823
-4.446595	company	-0.07288527
-4.446595	comparing	-0.1037523
-3.820228	compete	-0.2952139
-3.906133	competing	-0.2976707
-3.633156	competition	-0.1493055
-4.446595	competitions	-0.07288527
-4.446595	competitive	-0.1038702
-4.446595	competitively	-0.1038938
-4.446595	competitor	-0.09960407
-4.446595	complain	-0.1032802
-4.308788	complete	-0.09929056
-4.446595	completely	-0.1037523
-4.155971	completing	-0.09618607
-4.446595	complexion	-0.07288527
-4.446595	compliant	-0.07288527
-4.446595	composure	-0.09417561
-4.013329	computer	-0.09789854
-4.446595	computers	-0.07288527
-4.446595	concentrating	-0.09652068
-4.446595	concentration	-0.07288527
-4.446595	concerned	-0.1038702
-4.446595	concert	-0.1034101
-4.446595	concious	-0.1028431
-3.748541	concrete	-0.08845721
-4.446595	conditions	-0.1020385
-4.446595	condom	-0.07288527
-4.446595	condoms	-0.101007
-3.820228	cone	-0.05213416
-3.906133	cones	-0.06164333
-4.155971	confetti	-0.05505826
-3.687028	confidently	-0.1866839
-4.446595	confront	-0.1035635
-3.820228	confused	-0.09110937
-4.446595	confusion	-0.1000921
-4.446595	congratulatory	-0.1038584
-4.446595	congregate	-0.09417561
-4.446595	congregated	-0.09556013
-4.446595	congregation	-0.1000921
-4.446595	connect	-0.1033864
-4.308788	connected	-0.2316373
-4.446595	conquer	-0.09791617
-4.446595	conscious	-0.1032802
-4.446595	considering	-0.1035281
-4.446595	conspiracy	-0.0982085
-4.446595	constipated	-0.07288527
-4.308788	construction	-0.09528185
-4.446595	constructions	-0.103882
-4.446595	contact	-0.0982085
-4.446595	container	-0.09866737
-4.446595	containers	-0.103882
-4.446595	containing	-0.09866226
-4.013329	contemplates	-0.1594175
-4.013329	contemplating	-0.07265785
-4.446595	contenders	-0.07288527
-4.446595	content	-0.1033274
-4.308788	contently	-0.06492829
-4.013329	contest	-0.2477616
-4.446595	contestant	-0.07288527
-4.446595	continue	-0.09556013
-4.446595	continuously	-0.1036461
-4.446595	contrast	-0.07288527
-3.687028	control	-0.2578537
-4.446595	controled	-0.1035635
-4.446595	controls	-0.09725168
-4.446595	convenience	-0.1037641
-4.446595	convention	-0.1037641
-4.446595	conversation	-0.07288527
-4.155971	converse	-0.183386
-4.308788	conversing	-0.09340835
-4.446595	cook	-0.07276403
-4.446595	cookie	-0.0982085
-4.446595	cookies	-0.07288527
-4.155971	cooking	-0.06235941
-4.446595	cookout	-0.07288527
-3.50283	cool	-0.3931728
-4.446595	cooler	-0.07288527
-4.308788	cooling	-0.2392039
-4.446595	coopers	-0.07288527
-4.446595	coordinator	-0.1034691
-4.308788	cooties	-0.2089625
-4.446595	cop	-0.1033274
-4.446595	copying	-0.1039086
-4.155971	cord	-0.0680697
-4.446595	cords	-0.1007628
-4.446595	corgi	-0.09960407
-4.308788	corn	-0.2325979
-4.155971	corner	-0.08446813
-4.446595	cornstalks	-0.1035281
-4.308788	corporate	-0.1033443
-4.446595	corpses	-0.09652068
-4.308788	correct	-0.2398413
-4.446595	correctly	-0.07288527
-4.446595	cosplayers	-0.1033274
-4.446595	cost	-0.1000921
-4.446595	costs	-0.07288527
-3.274602	costume	-0.1466653
-4.155971	costumed	-0.1024629
-3.542081	costumes	-0.07043576
-4.308788	cotton	-0.2398649
-3.633156	couch	-0.07502608
-4.446595	cough	-0.07288527
-3.906133	could	-0.1652797
-4.446595	count	-0.07288527
-3.906133	counter	-0.08031109
-3.687028	counting	-0.06638156
-4.013329	country	-0.06041246
-4.308788	countryside	-0.09350497
-4.446595	counts	-0.07288527
-3.585236	couple	-0.07165185
-4.446595	couples	-0.1038348
-4.446595	courage	-0.1039086
-3.633156	course	-0.1548276
-3.748541	court	-0.04625682
-4.013329	courtyard	-0.1632133
-4.308788	cousin	-0.07130477
-4.013329	cover	-0.09521483
-3.252961	covered	-0.2598201
-4.013329	covering	-0.2758959
-4.446595	coverings	-0.1033392
-4.155971	covers	-0.08354174
-3.748541	cow	-0.08725475
-4.155971	cowboy	-0.1211481
-4.446595	cowboys	-0.09652068
-4.446595	cowgirls	-0.1037641
-4.308788	cows	-0.2089625
-4.446595	cpr	-0.07288527
-4.308788	crab	-0.07247257
-4.446595	crabby	-0.1020977
-4.013329	crabs	-0.2010933
-4.155971	crack	-0.0859202
-4.446595	cracken	-0.1039028
-4.446595	cracker	-0.09417561
-4.446595	craft	-0.0982085
-4.446595	crafts	-0.1038702
-4.446595	crampons	-0.09556013
-4.446595	crane	-0.09960407
-4.446595	crank	-0.09556013
-4.308788	crash	-0.1571983
-3.820228	crashes	-0.1754756
-4.308788	crashing	-0.2385892
-4.446595	crate	-0.09795754
-4.308788	crawling	-0.09252562
-4.308788	crawls	-0.08989619
-3.687028	crazy	-0.1012392
-4.308788	cream	-0.08573335
-4.446595	created	-0.1020385
-4.446595	creates	-0.09866226
-4.308788	creating	-0.09829725
-4.446595	creature	-0.1038938
-4.308788	creatures	-0.07185098
-4.446595	credits	-0.07288527
-4.308788	creek	-0.04941189
-4.446595	creeps	-0.07288527
-4.446595	creepy	-0.1028431
-4.446595	crest	-0.07288527
-3.820228	cricket	-0.07461741
-4.446595	crickets	-0.1005082
-4.308788	cries	-0.06240576
-4.446595	crime	-0.1036815
-4.446595	criminal	-0.1033392
-4.446595	criminals	-0.07288527
-4.446595	critic	-0.07288527
-4.446595	crocks	-0.1019083
-4.308788	crocodile	-0.07286236
-4.446595	croissants	-0.07288527
-4.308788	crops	-0.1033089
-4.308788	croquet	-0.1030727
-3.633156	cross	-0.06090058
-4.446595	crossbones	-0.1034337
-4.013329	crosscountry	-0.1035315
-4.308788	crossed	-0.100352
-4.013329	crosses	-0.1564581
-3.633156	crossing	-0.4320142
-4.446595	crosslegged	-0.1035635
-4.308788	crosswalk	-0.09425828
-4.446595	crouched	-0.1023108
-4.155971	crouches	-0.09562365
-4.155971	crouching	-0.1807939
-4.446595	croude	-0.07288527
-3.346863	crowd	-0.1388713
-4.155971	crowded	-0.09717086
-4.308788	crown	-0.06876796
-4.308788	crows	-0.07286859
-4.446595	cruising	-0.09930625
-4.446595	crumbling	-0.1039028
-4.446595	crush	-0.1014934
-4.446595	crushing	-0.1039028
-3.687028	crying	-0.210649
-4.446595	crystalclear	-0.1036579
-4.446595	crystals	-0.07288527
-4.446595	cucumbers	-0.07288527
-4.446595	cuddle	-0.07288527
-4.446595	cuddling	-0.09417561
-4.446595	cult	-0.1038702
-3.633156	cup	-0.09534042
-4.308788	cups	-0.1032616
-4.308788	curb	-0.08478628
-4.446595	cure	-0.1039028
-4.446595	curing	-0.1039028
-4.446595	curiously	-0.07288527
-4.446595	curl	-0.1000921
-4.446595	curled	-0.1023108
-4.308788	curly	-0.1888436
-4.446595	curlyhaired	-0.1036461
-4.446595	current	-0.07288527
-4.446595	currently	-0.1039086
-4.446595	curses	-0.103044
-4.446595	curtain	-0.1036225
-4.446595	curve	-0.1020977
-4.446595	curved	-0.1039086
-4.446595	curvy	-0.1036697
-4.155971	cushion	-0.1023091
-4.446595	customary	-0.09556013
-4.308788	customer	-0.1579221
-4.308788	customers	-0.2089625
-4.013329	cut	-0.07145787
-3.906133	cute	-0.06511801
-4.446595	cutely	-0.09417561
-4.446595	cuter	-0.09417561
-4.446595	cutie	-0.103882
-4.446595	cutout	-0.1005082
-4.446595	cutouts	-0.1000921
-4.013329	cutting	-0.1005591
-4.446595	cycle	-0.1038466
-4.155971	cycling	-0.07124665
-4.155971	cyclist	-0.1334021
-4.013329	cyclists	-0.1507666
-4.446595	d.c	-0.09725168
-4.446595	dachshund	-0.1033038
-4.446595	dachshunds	-0.1031503
-4.446595	dacoits	-0.07288527
-4.446595	dacshund	-0.07288527
-4.013329	dad	-0.2049967
-4.446595	daft	-0.1036933
-4.446595	daily	-0.1039028
-4.446595	daintily	-0.1034337
-4.446595	daisies	-0.09556013
-4.446595	dale	-0.1039086
-4.446595	dalmatians	-0.09652068
-4.308788	dalmation	-0.09890827
-3.373893	dance	-0.1222547
-3.906133	dancer	-0.3349599
-4.155971	dancers	-0.07232586
-3.542081	dances	-0.1579093
-3.125769	dancing	-0.1457088
-4.446595	dancingly	-0.07288527
-4.446595	dandelion	-0.09639388
-4.308788	dandelions	-0.06240576
-4.446595	dandylions	-0.1039086
-4.446595	danger	-0.07288527
-4.155971	dangerous	-0.1033611
-4.446595	dangerously	-0.09652068
-4.446595	dangles	-0.102299
-4.446595	dank	-0.1039086
-4.155971	dare	-0.06265032
-4.155971	daring	-0.09799302
-4.308788	daringly	-0.0941446
-3.466834	dark	-0.1228484
-4.446595	darkcolored	-0.1025829
-4.446595	darkened	-0.1037641
-4.446595	darkhaired	-0.09725168
-4.446595	darkskinned	-0.1028431
-4.446595	darling	-0.09556013
-4.446595	darn	-0.1038112
-4.446595	dart	-0.1037641
-4.446595	dashboard	-0.1000921
-3.906133	date	-0.3454227
-4.446595	dateing	-0.07288527
-4.308788	dates	-0.2089625
-3.748541	dating	-0.2485823
-3.04026	day	-0.3259003
-3.906133	daydreaming	-0.052396
-4.446595	daylight	-0.07288527
-4.155971	days	-0.2444121
-3.906133	dead	-0.1319976
-4.308788	deadly	-0.103026
-4.446595	deaf	-0.1038112
-4.308788	dealing	-0.2342857
-4.446595	deals	-0.07288527
-4.446595	dear	-0.1039086
-3.906133	death	-0.4166637
-4.446595	debate	-0.1034101
-4.446595	decapitated	-0.1038466
-4.446595	decide	-0.09652068
-4.308788	decided	-0.2316373
-4.013329	deck	-0.05015985
-4.446595	decked	-0.102512
-4.446595	declaring	-0.1014934
-4.446595	decorate	-0.09866226
-4.013329	decorated	-0.09536738
-4.308788	decoration	-0.06240576
-4.446595	decorative	-0.1035635
-4.446595	decoys	-0.07288527
-3.50283	deep	-0.1824546
-4.446595	deeply	-0.1032802
-4.308788	deer	-0.06562978
-4.446595	default	-0.0936861
-4.446595	defeat	-0.09930625
-4.446595	defeating	-0.09930625
-4.446595	defend	-0.1039028
-4.446595	defender	-0.09556013
-4.308788	defending	-0.09559447
-4.446595	defends	-0.1033392
-4.446595	defiantly	-0.1035399
-4.446595	deflated	-0.1031694
-4.308788	defying	-0.09925177
-4.446595	degree	-0.1027839
-4.446595	deliberately	-0.07288527
-4.446595	delicious	-0.1038584
-4.446595	deliciousness	-0.1000921
-4.446595	delivering	-0.1038112
-4.155971	demanding	-0.1025606
-4.446595	demeanor	-0.09725168
-4.446595	demonstrate	-0.1038702
-4.308788	demonstrates	-0.1036012
-4.308788	demonstrating	-0.1038547
-4.446595	demonstration	-0.102512
-4.446595	den	-0.07288527
-4.013329	denim	-0.1022127
-4.446595	dense	-0.103882
-4.446595	dentists	-0.07288527
-4.446595	deodorant	-0.07288527
-4.308788	department	-0.1035213
-4.446595	deposit	-0.1038702
-4.446595	depression	-0.07288527
-4.446595	depths	-0.1000921
-4.446595	derby	-0.1037169
-4.013329	descending	-0.09081378
-3.906133	desert	-0.03894927
-4.446595	design	-0.1005082
-4.446595	desire	-0.09556013
-4.013329	desk	-0.0681264
-4.446595	desperate	-0.09725168
-4.308788	desperately	-0.09265875
-4.446595	despite	-0.1035635
-4.446595	dessert	-0.07288527
-4.308788	destination	-0.2089625
-4.446595	destroy	-0.09930625
-4.308788	detective	-0.07280204
-4.308788	determine	-0.09025441
-4.013329	determined	-0.1577088
-4.446595	developing	-0.1026894
-3.906133	device	-0.1376594
-4.308788	devices	-0.06240576
-4.446595	devil	-0.1036933
-4.308788	diamond	-0.1036393
-4.446595	diamonds	-0.07288527
-4.155971	diaper	-0.09411358
-4.446595	diapers	-0.09795754
-4.446595	dice	-0.1039086
-4.308788	dictation	-0.2089625
-3.748541	did	-0.3275148
-4.446595	die	-0.07288527
-4.446595	differ	-0.09652068
-4.446595	difference	-0.07288527
-3.542081	different	-0.1028481
-4.308788	difficult	-0.09530076
-4.446595	difficulty	-0.1020977
-4.446595	dig	-0.09168961
-4.013329	digging	-0.08331747
-4.308788	digs	-0.09133082
-4.308788	dim	-0.1037219
-4.308788	dimension	-0.06492829
-4.446595	dimlight	-0.1037641
-4.446595	dimly	-0.103882
-4.308788	diner	-0.1034151
-4.446595	dining	-0.1037641
-3.585236	dinner	-0.3490297
-4.446595	dinnertime	-0.07288527
-4.308788	dinosaur	-0.1015392
-4.308788	dinosaurs	-0.2089625
-4.446595	diplomas	-0.0982085
-4.446595	diplomats	-0.07288527
-4.446595	dipped	-0.09417561
-4.155971	direction	-0.1550452
-4.446595	directions	-0.06240576
-4.446595	director	-0.07288527
-4.446595	directory	-0.07288527
-3.125769	dirt	-0.1517471
-3.466834	dirty	-0.08943851
-4.446595	disappear	-0.102512
-4.013329	disappeared	-0.4523814
-4.308788	disappearing	-0.09029267
-4.446595	disappears	-0.07288527
-4.308788	disc	-0.1250041
-4.446595	discarded	-0.1020385
-4.446595	discipline	-0.07288527
-4.446595	disco	-0.1035989
-4.446595	discomposure	-0.0982085
-4.446595	discover	-0.102512
-4.446595	discovered	-0.09930625
-4.446595	discovering	-0.1039028
-4.446595	discovers	-0.1038938
-4.446595	discretely	-0.07288527
-4.155971	discuss	-0.3572468
-4.155971	discussing	-0.06790015
-4.446595	disease	-0.07288527
-4.446595	diseased	-0.1039028
-4.308788	disguises	-0.1038931
-4.446595	disgusted	-0.1020385
-4.013329	dish	-0.04755746
-4.155971	dishes	-0.1555813
-4.155971	disk	-0.07264276
-4.446595	dislikes	-0.1039028
-4.446595	disliking	-0.09930625
-4.446595	disney	-0.1037641
-4.446595	disobeying	-0.09930625
-4.446595	disorganized	-0.07288527
-4.013329	display	-0.131913
-4.446595	displayed	-0.1001277
-4.308788	displaying	-0.09852413
-4.446595	disregards	-0.09930625
-4.446595	disrupted	-0.1020385
-3.820228	distance	-0.05318192
-4.013329	distant	-0.07243271
-4.446595	distorted	-0.1039028
-4.446595	distract	-0.1033864
-4.155971	distracted	-0.1877552
-4.446595	distressed	-0.1033746
-4.446595	disturbed	-0.1036225
-4.446595	disturbing	-0.1036579
-4.446595	ditch	-0.07254863
-4.308788	dive	-0.1004539
-4.155971	diver	-0.06560402
-4.013329	dives	-0.09259958
-4.446595	divine	-0.1038584
-3.633156	diving	-0.3002681
-4.446595	divorce	-0.06647338
-4.446595	divorcee	-0.1038938
-4.155971	dizzy	-0.1583152
-4.308788	dj	-0.1017119
-4.446595	dmv	-0.07288527
-3.297379	do	-0.1943897
-4.308788	doberman	-0.09404811
-4.446595	dobermans	-0.1031503
-3.820228	dock	-0.09295557
-4.446595	doctor	-0.07288527
-4.446595	doctors	-0.09795754
-4.446595	dodge	-0.09930625
-4.446595	dodges	-0.1038702
-4.308788	dodging	-0.09848832
-2.991373	does	-0.6160158
-4.446595	doesnt	-0.1038348
-2.510966	dog	-0.2366292
-4.446595	doggie	-0.1038938
-3.906133	doggy	-0.1030466
-4.446595	doggyking	-0.1039086
-2.762971	dogs	-0.288703
-4.446595	dogshirt	-0.1035399
-4.446595	dogwalk	-0.07288527
-2.937113	doing	-0.3773587
-4.308788	doll	-0.06492829
-3.906133	dollar	-0.1219477
-4.446595	dollars	-0.07288527
-4.446595	dolls	-0.07288527
-4.308788	dolphin	-0.06824346
-4.155971	dolphins	-0.1582899
-4.446595	domes	-0.09417561
-4.446595	domestic	-0.1037877
-4.446595	domination	-0.07288527
-4.308788	domino	-0.2392629
-4.308788	donald	-0.2399858
-4.446595	donations	-0.07288527
-4.308788	done	-0.06921521
-4.446595	donkeys	-0.07288527
-4.446595	dont	-0.1037759
-4.308788	donut	-0.0728147
-4.308788	donuts	-0.2089625
-4.446595	donw	-0.07288527
-4.446595	doo	-0.07288527
-3.820228	door	-0.1432213
-4.446595	doorag	-0.0982085
-4.446595	doors	-0.1000921
-4.155971	doorway	-0.1127498
-4.446595	doremi	-0.07288527
-4.446595	dot	-0.1035804
-4.446595	dots	-0.1028549
-4.308788	double	-0.1020821
-4.446595	doughnut	-0.09556013
-4.446595	dove	-0.09417561
-2.453726	down	-0.4613183
-4.013329	downhill	-0.05938159
-4.446595	download	-0.09556013
-4.446595	downpour	-0.1000921
-4.446595	downtown	-0.1037287
-4.308788	downward	-0.09521656
-4.308788	dracula	-0.07254863
-4.308788	drag	-0.09926368
-4.446595	dragging	-0.09866226
-4.308788	dragon	-0.07225702
-4.308788	dragonfly	-0.07286859
-4.446595	dragons	-0.1035517
-4.446595	dragster	-0.09960407
-4.013329	drain	-0.1106863
-4.446595	dramatic	-0.103823
-4.308788	dramatically	-0.09713706
-4.446595	draping	-0.09866226
-4.013329	drawing	-0.08673292
-4.446595	drawn	-0.09652068
-4.446595	dread	-0.1005082
-4.446595	dreadlocks	-0.1039086
-4.155971	dream	-0.067916
-3.687028	dreaming	-0.2573325
-4.013329	dreams	-0.2048451
-4.446595	drees	-0.07288527
-4.308788	drench	-0.08945234
-4.308788	drenched	-0.2089625
-3.252961	dress	-0.1632553
-4.446595	dressd	-0.09417561
-2.968849	dressed	-0.484758
-3.542081	dresses	-0.06637876
-4.446595	dresswear	-0.1036579
-4.013329	dribbles	-0.1931191
-4.446595	dried	-0.1039086
-4.446595	drift	-0.1008646
-4.446595	drifting	-0.1037405
-4.446595	drill	-0.06389518
-4.308788	drilling	-0.09864067
-3.402719	drink	-0.1208087
-3.252961	drinking	-0.08894154
-3.687028	drinks	-0.1309593
-4.446595	dripping	-0.0982085
-4.308788	drips	-0.1031435
-3.906133	drive	-0.05499601
-4.308788	driven	-0.1014985
-3.820228	driver	-0.06286141
-4.155971	drivers	-0.1034674
-4.013329	drives	-0.1450022
-4.446595	driveway	-0.07288527
-3.633156	driving	-0.08658431
-4.446595	drone	-0.07288527
-4.446595	drool	-0.1035635
-4.308788	drooling	-0.09903719
-4.308788	drooping	-0.102233
-4.446595	drop	-0.1024528
-4.446595	droplets	-0.1038702
-4.308788	dropped	-0.09684952
-4.013329	dropping	-0.144172
-4.446595	droppings	-0.07288527
-4.446595	drops	-0.103882
-4.446595	drown	-0.07288527
-4.013329	drowning	-0.06695966
-4.446595	drugs	-0.07288527
-4.308788	drum	-0.07136831
-4.446595	drummer	-0.1034219
-4.155971	drums	-0.05577021
-3.50283	drunk	-0.09094347
-4.446595	drunken	-0.1028431
-3.542081	dry	-0.187301
-4.446595	drying	-0.1023227
-4.446595	drys	-0.1014934
-3.687028	duck	-0.1393366
-3.748541	ducks	-0.05615164
-4.446595	ducky	-0.07288527
-4.155971	due	-0.3501175
-4.446595	duet	-0.09417561
-4.446595	dui	-0.07288527
-4.013329	dumb	-0.1367227
-4.446595	dumbbell	-0.09417561
-4.446595	dumbfounded	-0.07288527
-4.446595	dumblooking	-0.1033274
-4.308788	dumbly	-0.09412048
-4.446595	dummy	-0.1008646
-4.308788	dump	-0.07230775
-4.308788	dumps	-0.09750818
-4.446595	dune	-0.0773795
-4.446595	dunes	-0.1034219
-4.446595	dunking	-0.09398779
-3.066935	during	-0.4343024
-4.446595	dusk	-0.06549913
-4.013329	dust	-0.05758997
-4.308788	dusty	-0.1035804
-4.446595	duty	-0.07288527
-4.446595	dwarf	-0.07288527
-4.308788	dwarfs	-0.2089625
-4.446595	dye	-0.09795754
-4.446595	dying	-0.1038702
-4.308788	e.t	-0.07254863
-2.821381	each	-0.7436369
-4.155971	eachother	-0.05919495
-4.308788	eager	-0.2316373
-3.687028	eagerly	-0.5405694
-4.013329	eagle	-0.247749
-4.446595	eagles	-0.07288527
-3.906133	ear	-0.1489849
-4.446595	eared	-0.1025829
-4.446595	earlier	-0.09417561
-4.308788	early	-0.1036865
-4.446595	earmuffs	-0.1036815
-4.446595	earn	-0.09729101
-4.446595	earpiece	-0.09960407
-4.446595	earrings	-0.1036225
-3.820228	ears	-0.09238169
-4.308788	earth	-0.1586447
-4.446595	earthquake	-0.07288527
-4.308788	easier	-0.1001121
-3.906133	easily	-0.06035476
-3.906133	easter	-0.1444144
-4.446595	eastern	-0.1032211
-3.748541	eat	-0.06522521
-4.446595	eaten	-0.07288527
-3.212667	eating	-0.08241286
-3.633156	eats	-0.0870168
-4.446595	ecigarettes	-0.07288527
-4.308788	ecstatic	-0.0657144
-4.446595	eden	-0.07288527
-3.748541	edge	-0.05354984
-4.446595	edgein	-0.09930625
-4.446595	edges	-0.102512
-4.446595	edible	-0.1038466
-4.446595	education	-0.07288527
-4.308788	egg	-0.06876796
-3.748541	eggs	-0.2471768
-4.446595	egret	-0.1037169
-4.446595	eguptian	-0.1039086
-4.446595	egyptian	-0.07288527
-4.308788	eight	-0.102735
-4.446595	either	-0.09417561
-4.446595	ejected	-0.1020385
-4.446595	elaborate	-0.1033274
-4.013329	elderly	-0.1776104
-4.446595	electric	-0.1037994
-4.446595	electrical	-0.1039086
-4.155971	electricity	-0.07285191
-4.446595	electrified	-0.1037994
-4.308788	electronic	-0.1038489
-4.308788	electronics	-0.08973263
-4.446595	elegant	-0.1035635
-4.013329	elephant	-0.1274028
-4.013329	elephants	-0.1185008
-4.446595	elevated	-0.103882
-4.446595	elevator	-0.09796266
-4.446595	elf	-0.1037994
-3.820228	else	-0.06640539
-4.446595	elusive	-0.1038938
-4.013329	elves	-0.4523814
-4.308788	elvis	-0.1038873
-4.155971	embarrassed	-0.1875774
-4.446595	embedded	-0.103882
-3.906133	embrace	-0.06526721
-4.308788	embraces	-0.09019532
-4.308788	embracing	-0.08807263
-4.446595	emerge	-0.102299
-4.446595	emergency	-0.1038466
-4.308788	emerges	-0.2383762
-4.446595	emerging	-0.102299
-4.446595	emits	-0.09866226
-4.446595	emitting	-0.1038348
-4.446595	emotionally	-0.1039086
-4.446595	employees	-0.1038348
-4.013329	empty	-0.102074
-4.155971	enclosed	-0.1018998
-4.308788	enclosure	-0.06389518
-4.446595	encouragement	-0.102299
-4.446595	encourages	-0.09930625
-4.446595	encripted	-0.1038466
-4.446595	encroaching	-0.1038466
-3.820228	end	-0.08800966
-4.446595	endorsement	-0.07288527
-4.446595	endorsementcovered	-0.1037405
-4.446595	ends	-0.1000921
-4.155971	enemies	-0.1523034
-4.155971	enemy	-0.1586986
-4.308788	energetic	-0.07252327
-4.446595	energizer	-0.1038584
-4.308788	energy	-0.07270069
-3.906133	engage	-0.5705817
-4.155971	engaged	-0.348733
-4.446595	engagement	-0.1038584
-4.446595	engine	-0.09556013
-4.446595	english	-0.1039028
-4.446595	engulf	-0.09866226
-3.748541	enjoy	-0.2212089
-4.308788	enjoyed	-0.2353835
-2.979965	enjoying	-0.4100162
-4.308788	enjoyment	-0.2089625
-3.585236	enjoys	-0.1997161
-4.155971	enough	-0.06387815
-4.446595	ensues	-0.07288527
-4.308788	enters	-0.2353835
-4.446595	entertain	-0.09912065
-4.155971	entertaining	-0.1033169
-4.446595	enthusiastic	-0.07288527
-4.446595	enthusiasts	-0.1038584
-4.446595	entitled	-0.1035399
-4.446595	entrance	-0.09556013
-4.446595	equally	-0.1037051
-4.446595	equestrian	-0.09795754
-3.633156	equipment	-0.05968877
-4.446595	eros	-0.07288527
-4.446595	escalotor	-0.07288527
-4.308788	escape	-0.06347124
-4.446595	escaped	-0.102299
-4.308788	escapes	-0.09929056
-3.50283	escaping	-0.06324883
-4.446595	escorted	-0.1035163
-4.446595	escorts	-0.09866226
-4.446595	esp	-0.07288527
-4.446595	establishment	-0.1039086
-4.155971	et	-0.1152413
-4.308788	ets	-0.2089625
-4.308788	european	-0.1893867
-4.446595	evaporating	-0.1027839
-4.446595	evel	-0.1039086
-4.308788	even	-0.1037809
-4.155971	evening	-0.07242729
-3.585236	event	-0.1303166
-3.906133	ever	-0.07234639
-4.308788	everest	-0.2089625
-4.446595	every	-0.1035281
-4.446595	everybody	-0.09960407
-3.687028	everyone	-0.1327467
-4.308788	everything	-0.06792332
-4.308788	everywhere	-0.2089625
-4.446595	eviction	-0.07288527
-4.155971	evil	-0.06509002
-4.446595	exaggerated	-0.1034337
-4.446595	examine	-0.09930625
-4.446595	examing	-0.1024528
-4.446595	examples	-0.1001277
-4.446595	except	-0.1031385
-4.446595	excess	-0.1027839
-4.308788	exchange	-0.09993568
-4.446595	exchanges	-0.1039028
-4.308788	exchanging	-0.1026235
-3.820228	excited	-0.1574602
-3.748541	excitedly	-0.2370574
-4.155971	excitement	-0.154598
-4.446595	exclaim	-0.1039086
-4.446595	executes	-0.09866226
-4.013329	exercise	-0.1250641
-4.308788	exercising	-0.06389518
-4.308788	exhausted	-0.2383762
-4.446595	exhibition	-0.07288527
-4.446595	exhusband	-0.07288527
-4.446595	expanse	-0.1000921
-4.446595	expectantly	-0.1001277
-4.308788	experience	-0.09746031
-4.446595	experiencing	-0.1039086
-4.155971	expert	-0.07218334
-4.446595	explanation	-0.1032802
-4.446595	explode	-0.09417561
-4.446595	explore	-0.09930625
-4.308788	explores	-0.09620188
-4.155971	exploring	-0.1836492
-4.446595	explosions	-0.09725168
-4.446595	expo	-0.07288527
-4.446595	express	-0.1026894
-4.308788	expressions	-0.06674321
-4.446595	extended	-0.09725168
-4.446595	extension	-0.1038938
-4.155971	extra	-0.1037654
-4.446595	extras	-0.102299
-4.446595	extravagant	-0.1038112
-4.446595	extremely	-0.1037877
-4.446595	exwife	-0.09960407
-3.748541	eye	-0.08124148
-4.446595	eyeglasses	-0.09795754
-3.50283	eyes	-0.1268135
-4.446595	f	-0.103882
-4.013329	fabric	-0.06376094
-2.979965	face	-0.2023752
-4.308788	facebook	-0.07278937
-4.446595	faced	-0.1034219
-4.446595	facedown	-0.1036579
-4.446595	facefirst	-0.1036225
-4.446595	faceplant	-0.1033274
-3.748541	faces	-0.07638265
-4.446595	facial	-0.1036107
-3.906133	facing	-0.1518593
-4.446595	fact	-0.102512
-4.446595	faded	-0.102512
-4.446595	fading	-0.07288527
-4.446595	fadora	-0.1035517
-4.155971	fail	-0.1586986
-4.308788	failed	-0.06240576
-4.446595	failing	-0.1038584
-4.446595	faint	-0.1035281
-3.906133	fair	-0.0575962
-4.446595	fairies	-0.09417561
-3.906133	fairy	-0.2758644
-4.446595	fairyland	-0.07288527
-4.013329	fake	-0.07026325
-4.446595	fakes	-0.1014934
-3.402719	fall	-0.2388326
-3.585236	fallen	-0.08157292
-3.175797	falling	-0.3480702
-3.466834	falls	-0.1355257
-4.308788	fame	-0.2340347
-4.446595	families	-0.07288527
-3.466834	family	-0.08163602
-4.155971	famous	-0.1299448
-4.013329	fan	-0.08169082
-4.446595	fanatic	-0.07288527
-4.013329	fancy	-0.1030805
-4.446595	fangs	-0.07288527
-4.155971	fans	-0.1002212
-3.820228	far	-0.1256684
-4.446595	farewell	-0.1039028
-4.155971	farm	-0.07269344
-4.446595	farmer	-0.07288527
-3.748541	fart	-0.1736743
-4.308788	farted	-0.2089625
-3.748541	farting	-0.1779375
-3.542081	farts	-0.1867166
-4.013329	fashion	-0.1030792
-4.446595	fashioned	-0.1032498
-4.446595	fashionista	-0.07288527
-4.446595	fashions	-0.07288527
-4.446595	fasionable	-0.07288527
-3.274602	fast	-0.283038
-4.446595	fastens	-0.1036461
-3.906133	faster	-0.3453689
-3.906133	fat	-0.1428598
-4.446595	fate	-0.1000921
-4.013329	father	-0.2000418
-4.446595	fathers	-0.1038938
-4.446595	fatigues	-0.09725168
-4.446595	fatty	-0.1039028
-4.446595	faucet	-0.1038702
-4.446595	favorite	-0.1036933
-3.748541	fear	-0.3045617
-4.446595	fearful	-0.1000921
-4.446595	fearing	-0.1038348
-4.446595	fearlessness	-0.07288527
-4.446595	feast	-0.07288527
-4.446595	feasting	-0.103882
-4.446595	feather	-0.09556013
-4.308788	feathers	-0.0657144
-4.308788	featuring	-0.1038399
-4.446595	fecthing	-0.09930625
-4.446595	feed	-0.09930625
-3.748541	feeding	-0.1891553
-3.542081	feel	-0.4715414
-3.110297	feeling	-0.1357305
-4.308788	feelings	-0.06876796
-3.906133	feels	-0.2350017
-3.50283	feet	-0.1686977
-3.542081	fell	-0.1320123
-4.308788	fellow	-0.1038547
-3.748541	female	-0.09120958
-4.446595	females	-0.1036461
-4.446595	feminine	-0.1039086
-4.446595	feminists	-0.07288527
-3.346863	fence	-0.1357818
-4.308788	fenced	-0.1564098
-4.446595	fencedin	-0.1037641
-4.308788	fencers	-0.1025407
-4.446595	fences	-0.09417561
-4.446595	fending	-0.1031267
-4.446595	ferris	-0.1038348
-3.906133	festival	-0.06505354
-4.446595	festive	-0.1038466
-3.820228	fetch	-0.1041196
-4.446595	fetched	-0.102299
-4.013329	fetches	-0.2343744
-3.820228	fetching	-0.2058777
-4.308788	fever	-0.2089625
-4.155971	few	-0.1016566
-4.446595	fibbing	-0.07288527
-4.446595	fiber	-0.09795754
-4.446595	fiddle	-0.09795754
-3.066935	field	-0.2132393
-4.308788	fields	-0.07211749
-4.446595	fierce	-0.1036107
-4.446595	fiercely	-0.07288527
-4.446595	fiery	-0.1028431
-4.446595	fifteenth	-0.1039086
-3.321416	fight	-0.2120201
-4.308788	fighter	-0.07252327
-4.446595	fighters	-0.1039086
-3.053393	fighting	-0.5866569
-4.155971	fights	-0.1812991
-4.155971	figure	-0.09770472
-4.446595	figures	-0.07288527
-4.446595	figurines	-0.09417561
-4.446595	file	-0.1037641
-4.446595	filed	-0.0982085
-4.446595	fill	-0.1023227
-3.346863	filled	-0.6840372
-4.155971	film	-0.1586986
-4.446595	filthy	-0.1037759
-4.446595	final	-0.1039086
-4.446595	finally	-0.1037994
-3.748541	find	-0.06494778
-3.748541	finding	-0.0964068
-4.155971	finds	-0.1833382
-4.446595	fine	-0.07288527
-4.446595	finery	-0.07288527
-4.308788	finger	-0.09943561
-4.013329	fingers	-0.05963723
-4.308788	finish	-0.1352593
-4.446595	finished	-0.1033274
-4.446595	finishes	-0.1038702
-4.155971	finishing	-0.1036652
-3.402719	fire	-0.1022158
-4.446595	fired	-0.1039086
-4.308788	firefly	-0.2089625
-4.308788	fireman	-0.09953772
-4.446595	firemen	-0.1033392
-4.446595	fireplace	-0.09795754
-4.446595	fires	-0.07288527
-4.308788	firetruck	-0.09513234
-4.446595	fireworks	-0.07288527
-4.446595	firl	-0.09795754
-4.013329	firmly	-0.08760591
-3.402719	first	-0.2578347
-3.053393	fish	-0.316595
-4.446595	fishemen	-0.1038466
-4.308788	fisherman	-0.2392511
-3.748541	fishes	-0.288728
-4.446595	fishiness	-0.07288527
-3.542081	fishing	-0.08051411
-4.446595	fishy	-0.102512
-4.308788	fist	-0.2302528
-4.308788	fit	-0.1025289
-4.446595	fitness	-0.103882
-3.906133	five	-0.1288086
-4.155971	fixing	-0.09682784
-4.446595	fixtures	-0.09417561
-3.542081	flag	-0.09823126
-4.446595	flagpoles	-0.07288527
-3.687028	flags	-0.05706115
-4.446595	flailing	-0.1031385
-4.446595	flamboyantly	-0.1034573
-4.446595	flames	-0.1005082
-4.308788	flaming	-0.1035804
-4.446595	flamingo	-0.07288527
-4.446595	flamingos	-0.07288527
-4.446595	flannel	-0.09960407
-4.446595	flapping	-0.1014934
-4.155971	flashing	-0.09852924
-4.446595	flashlight	-0.102299
-4.013329	flat	-0.09635922
-4.446595	flavor	-0.07288527
-4.446595	flavored	-0.1036461
-4.308788	flea	-0.1035382
-4.446595	fleas	-0.07288527
-4.446595	flee	-0.09930625
-4.446595	fleece	-0.1036461
-4.308788	fleeing	-0.09261552
-4.446595	flees	-0.07288527
-4.013329	flew	-0.09216059
-4.446595	flex	-0.07116493
-4.446595	flexibility	-0.1039028
-4.446595	flexible	-0.1036933
-4.446595	flexing	-0.1026894
-3.346863	flies	-0.2054422
-3.633156	flight	-0.2245222
-4.446595	flimsy	-0.1038584
-4.446595	flinging	-0.1023227
-4.446595	flings	-0.1036933
-3.820228	flip	-0.1009337
-4.446595	flipflop	-0.1025593
-4.446595	flipped	-0.1037287
-4.446595	flipper	-0.07288527
-4.446595	flippers	-0.1036579
-3.906133	flipping	-0.0905689
-4.013329	flips	-0.0644231
-4.446595	flirting	-0.0982085
-3.748541	float	-0.1457702
-4.446595	floaties	-0.07071969
-3.820228	floating	-0.05667817
-4.446595	floatlys	-0.1036579
-4.155971	floats	-0.08641152
-4.155971	flock	-0.3546494
-4.308788	flood	-0.06389518
-4.446595	floods	-0.102512
-3.50283	floor	-0.07623179
-4.446595	floors	-0.1035281
-4.446595	flop	-0.1021738
-4.308788	floppy	-0.1038429
-4.446595	flops	-0.07244722
-4.308788	floral	-0.1038873
-4.446595	florescent	-0.1035045
-4.446595	florida	-0.1037523
-4.446595	flossing	-0.1038112
-4.446595	flotation	-0.1037641
-4.446595	flowed	-0.1034337
-3.748541	flower	-0.06864525
-4.308788	flowered	-0.1034741
-3.274602	flowers	-0.1076191
-4.446595	flowery	-0.1035517
-3.748541	fluffy	-0.1243119
-4.308788	flute	-0.1022449
-3.50283	fly	-0.1757843
-4.446595	flyfishing	-0.09417561
-3.141813	flying	-0.1536695
-4.308788	flys	-0.1011427
-4.013329	foam	-0.1023666
-4.446595	foamy	-0.1037759
-4.308788	fog	-0.05734815
-4.308788	foggy	-0.1029292
-4.308788	fold	-0.0911678
-4.446595	folded	-0.07231317
-4.446595	folding	-0.1037523
-4.446595	foliage	-0.06492829
-4.446595	folk	-0.09795754
-4.446595	folks	-0.1018846
-3.820228	follow	-0.09375504
-4.446595	followed	-0.1020385
-4.013329	following	-0.09474772
-3.906133	follows	-0.1124304
-4.446595	fondly	-0.1023227
-3.095357	food	-0.2622052
-4.446595	fool	-0.102512
-4.446595	foolish	-0.07288527
-4.446595	fools	-0.07288527
-3.748541	foot	-0.1153468
-4.446595	footage	-0.1039086
-3.175797	football	-0.2276978
-4.446595	footballer	-0.09960407
-4.308788	footballers	-0.1001379
-4.446595	foothills	-0.1038348
-2.060312	for	-0.2822102
-4.446595	foraging	-0.09417561
-4.155971	force	-0.2453955
-4.446595	forearms	-0.09556013
-4.446595	foreign	-0.1037131
-4.446595	foreround	-0.0982085
-3.633156	forest	-0.08605107
-4.446595	forests	-0.09795754
-4.155971	forever	-0.158632
-3.906133	forget	-0.1273674
-4.155971	forgets	-0.09499308
-3.906133	forgetting	-0.0969488
-3.633156	forgot	-0.3462579
-4.446595	forks	-0.07288527
-3.906133	form	-0.1093805
-4.013329	formal	-0.1028862
-4.308788	formally	-0.09965681
-4.308788	formation	-0.07771779
-4.446595	formations	-0.09406018
-4.446595	formed	-0.09866226
-4.446595	forming	-0.1037405
-4.308788	formula	-0.1032734
-4.155971	fortune	-0.15867
-3.820228	forward	-0.07548809
-4.446595	foul	-0.1034691
-3.687028	found	-0.1416725
-3.433594	fountain	-0.1418649
-4.446595	fountains	-0.1025948
-3.585236	four	-0.1488566
-4.446595	fours	-0.1036225
-4.308788	fourwheeler	-0.1031199
-4.446595	fowl	-0.1033392
-4.446595	fox	-0.07288527
-4.446595	foxes	-0.07288527
-4.446595	foyer	-0.1039086
-4.013329	frame	-0.06561936
-4.446595	framed	-0.103823
-4.446595	frames	-0.09556013
-4.446595	frankfurter	-0.09652068
-4.308788	frantically	-0.1034269
-4.446595	frappe	-0.07288527
-4.446595	freak	-0.103823
-4.446595	freaked	-0.102512
-3.585236	free	-0.1165133
-4.155971	freedom	-0.154598
-4.155971	freely	-0.1482357
-4.308788	freestyle	-0.1036778
-4.308788	freezes	-0.2302528
-4.155971	freezing	-0.07143729
-4.155971	french	-0.1038717
-4.446595	fresbee	-0.1001277
-4.308788	fresh	-0.189496
-4.446595	friday	-0.07288527
-3.542081	friend	-0.2181891
-4.446595	friendly	-0.103351
-3.50283	friends	-0.3911973
-4.446595	friendship	-0.07288527
-4.446595	fries	-0.07288527
-4.446595	frightened	-0.1020385
-4.446595	frint	-0.1000921
-3.274602	frisbee	-0.12946
-4.446595	frizz	-0.103882
-4.446595	fro	-0.07288527
-3.906133	frog	-0.1206014
-4.155971	frogs	-0.05839695
-4.446595	frolic	-0.09417561
-4.446595	frolicking	-0.1031385
-2.427707	from	-0.3514866
-4.013329	front	-0.1214884
-4.308788	frosty	-0.06792332
-4.446595	frowning	-0.07288527
-4.446595	frowns	-0.1037051
-3.633156	frozen	-0.1176874
-4.013329	fruit	-0.1309028
-4.446595	fruits	-0.09795754
-4.446595	frustration	-0.1005082
-4.308788	fry	-0.07247257
-4.308788	frying	-0.239971
-3.158473	full	-0.5705663
-4.446595	fully	-0.07288527
-3.50283	fun	-0.191786
-4.308788	function	-0.2089625
-4.013329	funky	-0.07206491
-3.542081	funny	-0.1208411
-3.906133	fur	-0.06854141
-4.446595	furious	-0.07288527
-4.308788	furniture	-0.1020673
-4.446595	furred	-0.1025829
-3.748541	furry	-0.2096224
-4.446595	fussing	-0.1024528
-4.446595	fustrated	-0.1000921
-3.687028	future	-0.1340939
-4.446595	gaggle	-0.1000921
-4.446595	gain	-0.1014473
-4.446595	gained	-0.1039086
-4.155971	gallery	-0.07259206
-4.308788	galloping	-0.06492829
-3.141813	game	-0.2499145
-4.013329	games	-0.1213763
-4.446595	gandhi	-0.1019083
-4.446595	gang	-0.1038938
-4.446595	gangplank	-0.1039086
-4.446595	gaping	-0.1037287
-4.446595	garage	-0.09652068
-4.446595	garb	-0.1036343
-4.155971	garbage	-0.07251302
-3.906133	garden	-0.07219949
-4.446595	garlic	-0.103882
-4.446595	garter	-0.1001277
-3.906133	gas	-0.1202808
-4.446595	gases	-0.07288527
-3.906133	gate	-0.2221987
-4.446595	gateway	-0.1039028
-3.820228	gather	-0.1552715
-3.906133	gathered	-0.134324
-4.308788	gathering	-0.07166052
-4.446595	gathers	-0.1029612
-4.446595	gatorade	-0.07288527
-4.446595	gators	-0.1038348
-4.446595	gauze	-0.103882
-4.446595	gave	-0.1033864
-4.155971	gay	-0.1586827
-4.446595	gazebo	-0.09417561
-4.013329	gazes	-0.05922668
-3.402719	gear	-0.13524
-4.446595	geeks	-0.07288527
-4.013329	geese	-0.1250511
-4.446595	geisha	-0.07288527
-4.446595	gel	-0.07288527
-4.446595	generate	-0.103882
-4.446595	genie	-0.07288527
-4.446595	genies	-0.07288527
-4.446595	genocide	-0.09428929
-3.820228	gentleman	-0.123859
-4.308788	gentlemen	-0.07233311
-4.446595	gently	-0.1039086
-4.446595	geological	-0.1039028
-4.446595	germaid	-0.07288527
-3.748541	german	-0.3975601
-4.308788	gesture	-0.09742441
-4.308788	gestures	-0.09808218
-3.212667	get	-0.09465809
-3.212667	gets	-0.1437094
-2.958011	getting	-0.2564309
-4.446595	gettnig	-0.1038938
-4.446595	geyser	-0.09417561
-4.308788	ghost	-0.1352752
-4.446595	ghostbusters	-0.1031739
-4.013329	ghosts	-0.2465038
-3.906133	giant	-0.0705042
-4.446595	giants	-0.1039086
-4.308788	giddy	-0.07213017
-4.013329	gift	-0.1053558
-4.155971	gifts	-0.3274426
-4.446595	giggles	-0.07288527
-3.687028	giggling	-0.4018895
-4.308788	gigolo	-0.1035244
-4.446595	giligan	-0.07288527
-4.446595	ginger	-0.1039086
-4.446595	giraffe	-0.07288527
-4.308788	giraffes	-0.2089625
-4.446595	girder	-0.0982085
-2.898113	girl	-0.1579993
-4.013329	girlfriend	-0.2308469
-4.446595	girlfriends	-0.07288527
-2.979965	girls	-0.1847497
-3.906133	give	-0.08232208
-4.308788	given	-0.101472
-3.50283	gives	-0.1677153
-3.542081	giving	-0.1416066
-4.446595	glacier	-0.0982085
-4.308788	glad	-0.09325645
-4.446595	gladiators	-0.09417561
-4.446595	glare	-0.07288527
-3.748541	glass	-0.07928008
-3.402719	glasses	-0.2518058
-4.446595	glee	-0.09795754
-4.446595	gleefully	-0.102299
-4.446595	glider	-0.1038584
-4.308788	gliding	-0.09340835
-4.155971	glory	-0.1314657
-4.446595	glove	-0.09652068
-4.446595	gloved	-0.1028431
-4.155971	gloves	-0.09041952
-4.446595	glow	-0.09402399
-4.446595	glucose	-0.07288527
-4.155971	glued	-0.1813743
-4.446595	gnome	-0.102512
-4.446595	gnomes	-0.07288527
-3.193841	go	-0.07623849
-3.633156	goal	-0.1964044
-4.308788	goalie	-0.1342129
-4.446595	goalkeeper	-0.1027839
-4.446595	goals	-0.07288527
-4.013329	goat	-0.05810129
-4.446595	goats	-0.06647338
-4.446595	gocart	-0.09725168
-3.820228	god	-0.2859471
-4.446595	goddess	-0.1000921
-4.446595	gods	-0.07288527
-4.446595	goers	-0.1034337
-3.402719	goes	-0.2110022
-3.820228	goggles	-0.0730214
-3.04026	going	-0.2647987
-3.373893	gold	-0.1625956
-3.633156	golden	-0.2662719
-4.446595	goled	-0.1038584
-4.308788	golf	-0.102995
-4.446595	gon	-0.1039086
-4.446595	gondola	-0.1038938
-4.308788	gone	-0.07286859
-3.820228	good	-0.06548684
-4.446595	goody	-0.1027248
-4.155971	goofy	-0.1640682
-4.446595	google	-0.07288527
-4.446595	googles	-0.09960407
-4.446595	goonies	-0.07288527
-4.155971	goose	-0.07216097
-4.446595	gopher	-0.1036107
-4.446595	gorge	-0.101007
-4.446595	gorilla	-0.07288527
-4.446595	gossip	-0.07288527
-4.446595	gossiping	-0.09652068
-3.50283	got	-0.0678332
-4.446595	gothic	-0.1036107
-4.446595	gothically	-0.1034573
-4.446595	gotten	-0.09866226
-4.446595	goucho	-0.1039028
-4.446595	government	-0.1035635
-4.446595	governors	-0.1039086
-4.308788	grab	-0.09306824
-4.446595	grabbed	-0.07288527
-4.013329	grabbing	-0.0941308
-4.155971	grabs	-0.0904925
-4.446595	grace	-0.07288527
-4.446595	gracefully	-0.07288527
-4.446595	gradual	-0.1037641
-4.446595	graduating	-0.07288527
-4.446595	graduation	-0.1036815
-3.542081	graffiti	-0.04479482
-4.446595	graffitied	-0.1036225
-4.446595	graffitiheavy	-0.1035989
-4.446595	grand	-0.1039086
-4.446595	grandma	-0.103823
-4.308788	grandmother	-0.0720754
-4.446595	grapes	-0.07288527
-4.446595	grasp	-0.09866226
-4.308788	grasping	-0.09861963
-4.308788	grasps	-0.09900141
-3.053393	grass	-0.1795093
-4.013329	grasses	-0.2483829
-4.446595	grasshoppers	-0.07288527
-4.446595	grasshopppers	-0.07288527
-3.433594	grassy	-0.2152617
-4.446595	gratitude	-0.07288527
-3.906133	gravel	-0.1509801
-4.013329	gravity	-0.09016635
-4.446595	gravy	-0.07288527
-3.906133	gray	-0.1005304
-4.308788	grayhaired	-0.1025525
-4.155971	great	-0.0700237
-4.446595	greatly	-0.1039086
-4.446595	greatness	-0.1000921
-3.015129	green	-0.08867049
-4.446595	greenbay	-0.1036343
-4.446595	greengrass	-0.09556013
-4.446595	greenhouse	-0.0982085
-4.446595	greenpeace	-0.1036815
-4.308788	greet	-0.1031199
-4.446595	greets	-0.1034573
-4.446595	gremlins	-0.07288527
-4.155971	grew	-0.1009641
-3.50283	grey	-0.1299693
-3.633156	greyhound	-0.2184113
-3.687028	greyhounds	-0.1485217
-4.446595	greyish	-0.1025829
-4.446595	greysuited	-0.1028431
-4.308788	grilling	-0.1038873
-4.446595	grimacing	-0.07288527
-4.013329	grin	-0.05951411
-4.155971	grinding	-0.2018279
-4.308788	grinds	-0.1018541
-4.308788	grinning	-0.09216233
-4.013329	grins	-0.1556123
-4.446595	grip	-0.1033392
-4.446595	grips	-0.09930625
-4.013329	grocery	-0.1527961
-4.446595	groin	-0.1039028
-4.308788	groom	-0.1021129
-4.446595	groomsmen	-0.1031503
-4.446595	gross	-0.0982085
-4.308788	groucho	-0.1038873
-4.446595	grouchy	-0.1034691
-3.433594	ground	-0.0850772
-4.446595	grounds	-0.07288527
-3.402719	group	-0.3605959
-4.446595	grove	-0.1000921
-4.155971	grow	-0.18116
-4.013329	growling	-0.4800043
-4.308788	grown	-0.1019726
-4.308788	grows	-0.07286859
-4.308788	growth	-0.06492829
-4.446595	grumpy	-0.1035871
-4.446595	gu	-0.07288527
-3.906133	guard	-0.09807364
-4.446595	guarded	-0.1020385
-4.155971	guarding	-0.1015866
-4.446595	guards	-0.07288527
-4.446595	guide	-0.09866226
-4.308788	guiding	-0.102233
-4.446595	guilty	-0.07288527
-3.542081	guitar	-0.09279076
-4.446595	guitarist	-0.1032093
-4.446595	guitarists	-0.1034573
-4.308788	guitars	-0.1034174
-4.446595	gulls	-0.1037641
-4.446595	gulp	-0.07288527
-4.308788	gum	-0.2089625
-4.446595	gump	-0.07288527
-4.308788	gums	-0.2089625
-3.906133	gun	-0.1168223
-4.308788	guns	-0.09068184
-3.585236	guy	-0.1128874
-3.748541	guys	-0.1383089
-3.820228	gym	-0.1425178
-4.308788	gymnasium	-0.09696936
-4.155971	gymnast	-0.0992807
-4.446595	gymnastics	-0.1036815
-4.446595	gymnist	-0.07288527
-3.748541	had	-0.1150277
-4.446595	haiku	-0.07288527
-4.446595	hail	-0.1038938
-4.446595	hailstorm	-0.1001277
-3.141813	hair	-0.1350761
-4.446595	hairbows	-0.07288527
-4.446595	haircut	-0.07288527
-4.308788	hairdo	-0.06824346
-3.820228	haired	-0.1610781
-4.308788	hairs	-0.2089625
-4.446595	hairstyle	-0.07288527
-4.308788	hairy	-0.1037839
-4.446595	haki	-0.1039086
-4.155971	half	-0.1033966
-4.446595	halfpipe	-0.1036815
-4.446595	halftime	-0.07288527
-4.155971	halfway	-0.07105592
-4.155971	hall	-0.09511343
-3.906133	halloween	-0.06187225
-4.446595	hallucination	-0.07288527
-4.155971	hallway	-0.09486067
-4.446595	halter	-0.1037994
-4.446595	ham	-0.1039086
-4.155971	hamburger	-0.1274838
-4.308788	hamburgers	-0.2089625
-4.446595	hammer	-0.09556013
-4.446595	hamster	-0.07288527
-3.321416	hand	-0.1186315
-4.155971	handbag	-0.09274863
-4.446595	handbags	-0.07288527
-4.446595	handball	-0.1036107
-4.446595	handed	-0.09866226
-4.446595	handicapped	-0.09795754
-4.446595	handing	-0.09866226
-4.446595	handinhand	-0.1037287
-4.308788	handlebars	-0.09714904
-4.308788	handles	-0.0581874
-4.446595	handling	-0.09866226
-3.906133	handrail	-0.05706512
-3.373893	hands	-0.1118883
-3.906133	handsome	-0.06652845
-4.446595	handstand	-0.08971348
-4.446595	handwritten	-0.1038938
-3.906133	hang	-0.1331821
-4.446595	hanged	-0.09652068
-4.446595	hangglider	-0.103823
-3.232347	hanging	-0.3119437
-4.446595	hangover	-0.07288527
-3.820228	hangs	-0.3044118
-4.446595	happen	-0.1035871
-4.446595	happens	-0.1034219
-3.04026	happily	-0.3420234
-4.308788	happiness	-0.2089625
-3.232347	happy	-0.2732256
-4.446595	harassment	-0.07288527
-4.446595	harbor	-0.1005082
-3.585236	hard	-0.1366654
-4.308788	hardhat	-0.09877477
-4.446595	hardscape	-0.09725168
-4.308788	hardwood	-0.1896021
-4.308788	harmful	-0.1038665
-4.446595	harmonize	-0.07288527
-4.446595	harmony	-0.07288527
-3.906133	harness	-0.07805935
-4.308788	harnessed	-0.09419283
-4.308788	harnesses	-0.1005133
-4.446595	harvested	-0.1020977
-2.845483	has	-0.2952021
-4.446595	hashtag	-0.1039086
-3.066935	hat	-0.1831997
-4.308788	hate	-0.1032853
-4.308788	hates	-0.1035686
-3.402719	hats	-0.136853
-3.141813	have	-0.1657269
-3.466834	having	-0.2982076
-4.155971	hawk	-0.3274426
-3.542081	hay	-0.1216201
-2.742946	he	-0.3235164
-3.193841	head	-0.09260936
-4.446595	headache	-0.07288527
-3.748541	headband	-0.04475794
-4.446595	headdress	-0.1037994
-4.446595	headdresses	-0.1018846
-4.013329	headed	-0.09829552
-4.446595	headfirst	-0.1023937
-4.446595	headgear	-0.1038938
-3.820228	heading	-0.3046426
-4.308788	headless	-0.1028836
-4.308788	headlights	-0.2089625
-3.687028	headphones	-0.07323967
-4.446595	headresses	-0.1039086
-3.820228	heads	-0.08338945
-4.308788	headscarf	-0.09678274
-4.446595	headscarfs	-0.1034691
-4.446595	headset	-0.09950198
-4.308788	health	-0.23998
-4.446595	healthy	-0.1039028
-4.013329	hear	-0.0935598
-4.013329	heard	-0.09583993
-4.308788	hearing	-0.1023071
-4.446595	heart	-0.07288527
-4.446595	heartworm	-0.1039086
-4.013329	heat	-0.4523814
-4.446595	heaven	-0.07288527
-4.308788	heavily	-0.06647338
-3.748541	heavy	-0.09486312
-4.446595	heck	-0.07288527
-4.155971	heels	-0.1211276
-4.013329	height	-0.1299672
-4.446595	heir	-0.1031739
-3.748541	held	-0.2353751
-4.155971	helicopter	-0.06235529
-3.402719	helmet	-0.1915271
-4.446595	helmeted	-0.1036579
-3.687028	helmets	-0.1144598
-4.155971	help	-0.1370064
-4.155971	helped	-0.09585881
-4.308788	helping	-0.1422409
-3.820228	helps	-0.1622773
-4.446595	hem	-0.1034691
-4.446595	hemen	-0.07288527
-4.446595	henna	-0.09725168
-4.446595	hens	-0.09725168
-2.434067	her	-0.1555926
-4.446595	hercules	-0.07288527
-4.446595	herd	-0.07288527
-4.308788	here	-0.2089625
-4.446595	herman	-0.09960407
-4.446595	hermit	-0.1034101
-4.446595	hernia	-0.07288527
-4.308788	hero	-0.128399
-4.446595	heroically	-0.1032211
-4.446595	heron	-0.09725168
-4.446595	heros	-0.07288527
-4.308788	hers	-0.2089625
-3.687028	herself	-0.122157
-4.446595	hesitantly	-0.1038584
-4.308788	hey	-0.102446
-4.446595	hi	-0.09725168
-4.308788	hid	-0.102162
-4.013329	hidden	-0.06100045
-4.155971	hide	-0.08063618
-4.308788	hideout	-0.06240576
-4.446595	hides	-0.1034573
-3.433594	hiding	-0.09663211
-4.446595	hieroglyphic	-0.1039086
-2.979965	high	-0.2188254
-4.308788	higher	-0.2089625
-4.446595	highfive	-0.0728527
-4.446595	highfiving	-0.09866226
-4.446595	highland	-0.1039028
-4.446595	highlighted	-0.07288527
-4.446595	highrise	-0.1035635
-3.906133	highway	-0.07154036
-4.155971	hike	-0.0907287
-4.013329	hiker	-0.08976352
-3.748541	hikers	-0.1382438
-4.446595	hikes	-0.1033864
-3.820228	hiking	-0.1171244
-4.446595	hilariously	-0.1035635
-3.175797	hill	-0.2120645
-4.446595	hillbilly	-0.1037641
-4.013329	hills	-0.08513555
-4.155971	hillside	-0.132382
-4.308788	hilly	-0.1035331
-2.693661	him	-0.2391482
-3.433594	himself	-0.3742804
-4.013329	hind	-0.4832602
-4.155971	hip	-0.09689061
-4.446595	hips	-0.1008646
-2.253273	his	-0.2288027
-4.446595	historical	-0.1038938
-4.446595	history	-0.07288527
-3.466834	hit	-0.1997267
-4.446595	hitman	-0.09725168
-3.542081	hits	-0.4453715
-4.013329	hitting	-0.1535878
-4.446595	hiviz	-0.09960407
-4.446595	hobbit	-0.1038112
-3.50283	hockey	-0.1966142
-4.308788	hog	-0.2089625
-4.446595	hokie	-0.1039086
-3.297379	hold	-0.2809229
-2.687876	holding	-0.3360392
-4.446595	holdings	-0.09866226
-3.053393	holds	-0.4485988
-3.585236	hole	-0.3626544
-4.155971	holes	-0.154598
-4.308788	holiday	-0.1276419
-4.308788	holidays	-0.2089625
-4.446595	holing	-0.09866226
-3.141813	home	-0.4587456
-4.155971	homeless	-0.2385824
-4.446595	homemade	-0.1037101
-4.446595	homerun	-0.07288527
-4.155971	homes	-0.06165819
-4.155971	homework	-0.1586986
-4.308788	honey	-0.2089625
-4.446595	honor	-0.09556013
-4.446595	honors	-0.07288527
-4.446595	honoured	-0.1033274
-4.308788	hood	-0.06876796
-3.906133	hooded	-0.1523678
-3.906133	hoodie	-0.1019789
-4.446595	hoof	-0.1000921
-4.446595	hook	-0.09556013
-4.446595	hooked	-0.09556013
-3.748541	hoop	-0.04835411
-4.446595	hooping	-0.1001277
-4.308788	hoops	-0.05425261
-4.446595	hooray	-0.07288527
-4.308788	hoot	-0.1038607
-4.446595	hooves	-0.07288527
-4.308788	hop	-0.09833308
-3.820228	hope	-0.09141228
-4.155971	hopefully	-0.09849647
-4.446595	hopeless	-0.1039028
-3.906133	hopes	-0.08200492
-2.991373	hoping	-0.4125513
-4.446595	hopper	-0.09556013
-4.013329	hopping	-0.05419216
-4.446595	hoppingly	-0.07288527
-4.446595	hops	-0.1024528
-4.308788	hopscotch	-0.06837691
-4.308788	horizon	-0.07284003
-4.308788	horn	-0.0657144
-4.308788	horns	-0.07205404
-4.446595	horrible	-0.1037877
-4.446595	horrific	-0.1038466
-4.446595	horror	-0.1038702
-3.274602	horse	-0.106637
-4.308788	horseback	-0.09636988
-4.446595	horserace	-0.07288527
-3.402719	horses	-0.1187653
-4.446595	horseshoe	-0.09417561
-4.446595	horseshoes	-0.1028431
-4.013329	hose	-0.1023291
-4.446595	hospital	-0.1037877
-3.297379	hot	-0.1348639
-4.308788	hotdog	-0.0728527
-4.308788	hotdogs	-0.2089625
-4.155971	hotel	-0.07258262
-4.308788	hound	-0.09824946
-4.446595	hours	-0.07288527
-3.232347	house	-0.2696221
-4.308788	housekeeping	-0.2089625
-4.446595	houses	-0.09556013
-4.446595	hover	-0.1037405
-4.446595	hovercrafts	-0.07288527
-4.446595	hovered	-0.1024528
-4.155971	hovering	-0.1785008
-4.446595	hovers	-0.1036225
-3.158473	how	-0.3101892
-4.446595	howling	-0.1032802
-4.446595	hree	-0.103823
-4.446595	hubby	-0.09556013
-3.906133	huddle	-0.130159
-4.446595	huddled	-0.1032802
-3.820228	hug	-0.09336616
-4.155971	huge	-0.09492141
-3.748541	hugging	-0.1779741
-4.446595	hugs	-0.1035399
-3.820228	hula	-0.1950966
-4.446595	hulahoop	-0.1038348
-4.446595	hulahoops	-0.09725168
-3.906133	human	-0.2862704
-4.308788	humans	-0.0657144
-4.446595	humid	-0.1027839
-4.446595	hummer	-0.1038702
-4.446595	hummingbirds	-0.07288527
-4.446595	humorous	-0.1036815
-4.446595	humorously	-0.1035635
-4.446595	hump	-0.1000921
-4.446595	hunching	-0.1024528
-4.446595	hundred	-0.1037994
-4.155971	hundreds	-0.1856654
-4.446595	hungary	-0.07288527
-4.308788	hunger	-0.07284003
-4.308788	hungrily	-0.2089625
-3.633156	hungry	-0.1412823
-4.446595	hunt	-0.1039086
-4.446595	hunter	-0.1038466
-4.446595	hunters	-0.1039086
-4.308788	hunting	-0.07284003
-3.748541	hurdle	-0.1324596
-3.906133	hurdles	-0.1992427
-4.446595	hurricane	-0.1038938
-4.446595	hurry	-0.06389518
-4.446595	hurrying	-0.1037287
-4.446595	hurt	-0.07288527
-4.446595	hurtful	-0.1039086
-4.446595	hurting	-0.1037641
-4.446595	hurts	-0.07288527
-4.308788	husband	-0.2089625
-4.446595	huskies	-0.09556013
-4.308788	husky	-0.1018304
-4.308788	hustling	-0.1034859
-4.155971	hut	-0.08562514
-4.446595	hydrant	-0.07286859
-4.446595	hygiene	-0.1038938
-4.446595	hyperventilating	-0.07288527
-4.446595	hypnotize	-0.1023227
-3.50283	i	-0.2033641
-3.193841	ice	-0.1867467
-4.308788	icecream	-0.2089625
-4.308788	iced	-0.1023869
-4.446595	icicle	-0.1035281
-4.155971	icy	-0.09615345
-4.446595	id	-0.07288527
-4.308788	idea	-0.1035804
-4.308788	ideas	-0.154598
-4.155971	identical	-0.1030631
-4.446595	identified	-0.1037641
-4.446595	identifier	-0.103823
-4.446595	identities	-0.07288527
-4.308788	idiot	-0.07286236
-4.446595	idiots	-0.06492829
-4.446595	iditarod	-0.1039086
-4.446595	idly	-0.1020385
-4.446595	idol	-0.07288527
-4.446595	ids	-0.07288527
-3.433594	if	-0.263522
-4.446595	igloo	-0.07288527
-4.446595	ignoble	-0.1039086
-4.446595	ignore	-0.09930625
-4.446595	ignored	-0.1020385
-4.155971	ignoring	-0.09833135
-4.446595	iguana	-0.09960407
-4.446595	iguanas	-0.07288527
-4.446595	illuminated	-0.0982085
-4.446595	illustrated	-0.07288527
-4.308788	image	-0.2361693
-3.820228	imaginary	-0.1444736
-4.308788	imagine	-0.07256129
-4.446595	imaging	-0.09866226
-4.446595	imagining	-0.102512
-4.446595	imitate	-0.09866226
-4.308788	imitating	-0.09556529
-4.446595	impassioned	-0.1025829
-4.446595	impatient	-0.07288527
-4.446595	impeach	-0.09556013
-4.446595	impersonator	-0.1008646
-4.446595	importance	-0.1000921
-4.446595	importantly	-0.09725168
-4.446595	impress	-0.05305038
-4.308788	impressed	-0.1038253
-4.155971	impressing	-0.09921829
-4.446595	impression	-0.1000921
-4.446595	impressively	-0.09417561
-4.446595	improve	-0.1038348
-4.446595	improving	-0.1039086
-1.653711	in	-0.4919612
-4.446595	inadequate	-0.1037405
-4.446595	incline	-0.09725168
-4.308788	including	-0.09398779
-4.446595	incoming	-0.1036933
-4.446595	inconsiderate	-0.1039086
-4.446595	incontinant	-0.1028431
-4.446595	incredible	-0.1035281
-4.308788	independence	-0.2396053
-4.446595	india	-0.08875693
-4.308788	indian	-0.1036747
-4.308788	indians	-0.06240576
-4.446595	indicates	-0.09930625
-4.308788	indigestion	-0.2089625
-4.446595	individual	-0.1039086
-4.446595	individuals	-0.1018846
-4.155971	indoor	-0.1435432
-3.687028	indoors	-0.1136977
-4.446595	industrial	-0.103823
-4.446595	infant	-0.1024528
-4.446595	infected	-0.1038466
-4.446595	infested	-0.0982085
-3.687028	inflatable	-0.1223076
-4.446595	inflatbale	-0.1036697
-4.308788	inflated	-0.1034151
-4.446595	informal	-0.1037405
-4.446595	information	-0.1037405
-4.446595	infused	-0.102512
-4.308788	injured	-0.1027654
-4.446595	injuries	-0.09652068
-4.446595	ink	-0.07288527
-4.155971	inline	-0.1896581
-4.308788	inner	-0.1038045
-4.155971	innertube	-0.09134121
-4.308788	innovative	-0.07254863
-4.446595	insane	-0.1038584
-4.446595	insect	-0.07288527
-3.158473	inside	-0.4703087
-4.155971	inspecting	-0.09921829
-4.446595	inspiring	-0.1028431
-4.013329	instead	-0.1314273
-4.446595	instean	-0.07288527
-4.446595	instructor	-0.0982085
-4.446595	instrument	-0.1020385
-3.906133	instruments	-0.1126408
-4.446595	insulted	-0.1014934
-4.308788	insurance	-0.07069422
-4.308788	int	-0.2392157
-4.446595	intends	-0.09556013
-4.446595	intense	-0.1039028
-4.446595	intent	-0.09652068
-4.308788	intently	-0.1020763
-4.446595	interact	-0.09417561
-4.446595	interacting	-0.09417561
-4.446595	interchangeable	-0.07288527
-4.446595	interested	-0.103292
-4.013329	interesting	-0.07142276
-4.446595	intergalactic	-0.1039086
-4.446595	international	-0.1038112
-4.446595	internet	-0.07288527
-4.446595	interrupts	-0.07288527
-4.308788	intersection	-0.07185964
-4.308788	interview	-0.2089625
-4.446595	intimate	-0.1038702
-2.488608	into	-0.6217179
-4.446595	invading	-0.1038938
-4.446595	invention	-0.1037523
-4.446595	inverted	-0.1036697
-4.446595	invested	-0.1020385
-4.446595	invincible	-0.07288527
-3.633156	invisible	-0.08929498
-4.446595	involved	-0.09417561
-4.446595	involving	-0.103882
-4.446595	ion	-0.1038702
-4.308788	iphone	-0.07286859
-4.308788	ipods	-0.07243454
-4.446595	irish	-0.1039086
-4.446595	iron	-0.1039028
-4.446595	irritating	-0.1014934
-2.004454	is	-0.2977417
-4.446595	isis	-0.07288527
-3.820228	island	-0.1662689
-4.446595	isnt	-0.1039086
-4.446595	issued	-0.1039028
-2.470817	it	-0.316622
-4.446595	italian	-0.07288527
-4.446595	itching	-0.1014934
-4.155971	itchy	-0.07185641
-3.906133	item	-0.1204279
-4.308788	items	-0.0657144
-4.446595	ithat	-0.1034691
-2.845483	its	-0.2022921
-4.013329	itself	-0.1682576
-4.446595	ivy	-0.07288527
-4.013329	jack	-0.1448881
-4.446595	jackalopes	-0.07288527
-4.446595	jackelopes	-0.07288527
-3.193841	jacket	-0.1935145
-3.748541	jackets	-0.09280016
-4.446595	jackolantern	-0.09417561
-4.446595	jackrabbits	-0.07288527
-4.308788	jackson	-0.1355763
-4.446595	jaguarr	-0.07288527
-4.446595	jaket	-0.103882
-4.308788	jam	-0.0728527
-4.446595	jams	-0.09652068
-4.446595	jane	-0.07288527
-4.446595	january	-0.07288527
-4.155971	japanese	-0.1022499
-4.308788	jar	-0.0657144
-4.446595	jaws	-0.07288527
-4.446595	jealous	-0.07288527
-3.906133	jean	-0.1439095
-3.748541	jeans	-0.114163
-3.906133	jeep	-0.1175427
-4.446595	jeeps	-0.1038938
-4.446595	jellyfish	-0.07288527
-4.446595	jerry	-0.1039086
-3.585236	jersey	-0.1374575
-4.308788	jerseys	-0.0976996
-4.446595	jesus	-0.07288527
-4.155971	jet	-0.103671
-3.906133	jewelry	-0.0942445
-4.308788	jig	-0.2089625
-4.446595	jmping	-0.09866226
-4.308788	job	-0.06492829
-4.446595	jobs	-0.07288527
-4.308788	jockey	-0.07166052
-4.013329	jockeys	-0.0931166
-4.446595	joe	-0.1031857
-4.446595	jogger	-0.0934929
-4.446595	joggers	-0.103882
-3.748541	jogging	-0.1143523
-4.308788	jogs	-0.2384709
-4.308788	john	-0.09554431
-4.446595	join	-0.08885284
-4.308788	joined	-0.09985919
-4.013329	joke	-0.1292866
-4.446595	joker	-0.07288527
-4.308788	jokes	-0.2089625
-4.308788	joking	-0.2089625
-4.308788	jolly	-0.2396289
-4.446595	jordan	-0.07288527
-3.687028	joy	-0.4545572
-4.446595	joyful	-0.1037994
-3.820228	joyfully	-0.2847631
-4.446595	joyous	-0.1025829
-4.446595	joyously	-0.07288527
-4.446595	jr.	-0.1039028
-4.446595	jubilantly	-0.1037759
-4.446595	judge	-0.1039086
-4.308788	judges	-0.2089625
-4.446595	judging	-0.09866226
-4.308788	jug	-0.07278937
-4.446595	juggle	-0.07233311
-4.446595	juggles	-0.1039086
-4.155971	juggling	-0.09861585
-4.155971	juice	-0.06569745
-4.446595	juices	-0.07288527
-4.308788	juicy	-0.1035331
-4.446595	jukebox	-0.1038938
-4.446595	july	-0.1038348
-3.04026	jump	-0.2628489
-3.633156	jumped	-0.06363642
-4.155971	jumper	-0.0984576
-2.749519	jumping	-0.3827
-4.446595	jumpropes	-0.1025593
-2.806026	jumps	-0.3605113
-4.308788	jumpsuit	-0.0979268
-3.906133	jungle	-0.1879794
-4.446595	junglegym	-0.1000921
-4.446595	junior	-0.1039086
-4.308788	jupiter	-0.2089625
-2.937113	just	-0.1712185
-4.446595	kali	-0.09417561
-4.155971	kangaroo	-0.1401556
-4.013329	karate	-0.1035563
-4.446595	kardashians	-0.1037051
-4.446595	karen	-0.1035871
-4.446595	kart	-0.1038702
-3.820228	kayak	-0.163673
-4.155971	kayaker	-0.1379496
-4.446595	kayakers	-0.1038466
-4.308788	kayaking	-0.09260342
-4.446595	kayaks	-0.1039086
-4.013329	keep	-0.1179316
-4.446595	keeper	-0.103823
-4.308788	keeping	-0.09929056
-4.155971	keeps	-0.09535401
-4.446595	keg	-0.07288527
-4.446595	ketchup	-0.1020977
-4.013329	key	-0.1981706
-4.308788	keyboard	-0.07187637
-4.446595	keys	-0.07288527
-4.308788	khaki	-0.1032026
-4.446595	khakicolored	-0.1038466
-4.446595	kibble	-0.07288527
-4.446595	kibbles	-0.09795754
-3.748541	kick	-0.03864988
-4.308788	kicked	-0.07136831
-3.585236	kicking	-0.3127466
-3.633156	kicks	-0.1674184
-3.633156	kid	-0.09083601
-4.308788	kiddie	-0.2397351
-4.308788	kiddy	-0.1034033
-4.446595	kidnapper	-0.1023937
-3.373893	kids	-0.1296216
-4.446595	kildare	-0.1035399
-4.446595	kill	-0.09930625
-4.446595	killed	-0.1034337
-4.446595	killer	-0.07288527
-4.308788	killing	-0.1023159
-4.446595	kilt	-0.09960407
-4.446595	kindergarten	-0.07288527
-4.446595	kinds	-0.103882
-4.155971	king	-0.10861
-4.446595	kingfisher	-0.07288527
-4.446595	kiosk	-0.09556013
-3.820228	kiss	-0.1051225
-3.820228	kisses	-0.1264215
-3.687028	kissing	-0.08896563
-4.446595	kit	-0.09417561
-3.748541	kitchen	-0.08563561
-4.155971	kite	-0.07841522
-4.155971	kites	-0.1069762
-4.308788	kitten	-0.1038429
-4.446595	klingons	-0.07288527
-4.308788	knee	-0.09554431
-3.820228	kneeling	-0.3155839
-4.308788	kneels	-0.2325979
-4.155971	knees	-0.1482357
-4.446595	knievel	-0.07288527
-4.446595	knife	-0.09652068
-4.446595	knit	-0.1036815
-4.308788	knitted	-0.1023159
-4.446595	knives	-0.09417561
-4.308788	knock	-0.1017949
-4.446595	knocked	-0.102512
-4.446595	knocking	-0.1024528
-4.446595	knocks	-0.1023937
-4.446595	knots	-0.07288527
-3.906133	know	-0.05866058
-4.308788	knowing	-0.1014901
-4.308788	knowingly	-0.06921521
-4.446595	knowledge	-0.07288527
-4.155971	knows	-0.1022364
-4.446595	knuckle	-0.1038702
-4.308788	kong	-0.0723965
-4.446595	konnevel	-0.07288527
-4.446595	koolaid	-0.07288527
-4.446595	korea	-0.09417561
-4.446595	kraken	-0.07288527
-4.446595	kryptonite	-0.1036933
-4.013329	lab	-0.1268271
-4.446595	labradoodle	-0.1039028
-4.155971	labrador	-0.09141578
-4.308788	labs	-0.1029663
-4.446595	lacrosse	-0.1037759
-4.155971	ladder	-0.06410754
-3.748541	ladies	-0.1078932
-4.446595	ladles	-0.09795754
-3.373893	lady	-0.1470681
-4.308788	ladybird	-0.2089625
-4.446595	ladybugs	-0.07288527
-4.446595	lagoon	-0.1029849
-3.346863	lake	-0.09747692
-4.446595	lakeside	-0.1034809
-4.308788	lamb	-0.09710113
-4.308788	lambs	-0.07069422
-4.446595	lame	-0.1036933
-4.446595	lamenting	-0.1014934
-3.433594	land	-0.211412
-4.155971	landed	-0.1724326
-3.542081	landing	-0.221826
-3.820228	lands	-0.1438002
-3.820228	landscape	-0.09027982
-4.446595	landslide	-0.07288527
-4.446595	lane	-0.1033628
-4.155971	language	-0.3274426
-4.155971	lap	-0.08537734
-4.446595	lapped	-0.1014934
-4.308788	laptop	-0.1038873
-3.080914	large	-0.1011572
-4.155971	larger	-0.1809726
-4.308788	largest	-0.1038451
-4.446595	largley	-0.09725168
-4.446595	lassos	-0.1008646
-3.820228	last	-0.0698707
-3.820228	late	-0.3903105
-4.446595	lately	-0.07288527
-4.446595	later	-0.07288527
-4.446595	latest	-0.1037994
-4.446595	latte	-0.1039086
-4.446595	latter	-0.1020977
-4.446595	laucher	-0.09795754
-3.820228	laugh	-0.0896467
-3.212667	laughing	-0.1612276
-4.013329	laughs	-0.143886
-4.446595	laughter	-0.1035871
-4.446595	launch	-0.1028549
-4.446595	launched	-0.102512
-4.446595	launches	-0.1014934
-4.446595	laundry	-0.1039028
-4.308788	lava	-0.2089625
-4.446595	lavender	-0.1038938
-4.446595	lavish	-0.1037994
-3.402719	lawn	-0.1449171
-4.446595	laws	-0.1000921
-4.446595	lawyers	-0.07288527
-4.155971	lay	-0.177653
-3.542081	laying	-0.3984798
-3.820228	lays	-0.3077526
-4.446595	layup	-0.09417561
-4.308788	lazy	-0.09474542
-4.446595	lead	-0.1028431
-4.308788	leader	-0.06876796
-4.013329	leading	-0.1906653
-3.585236	leads	-0.1489673
-4.155971	leaf	-0.1037588
-4.446595	leafy	-0.1035399
-4.446595	leaguer	-0.1037287
-3.906133	lean	-0.09260169
-3.50283	leaning	-0.3743239
-3.906133	leans	-0.139267
-3.748541	leap	-0.1701714
-4.446595	leaped	-0.1035753
-4.446595	leapfrog	-0.1035635
-3.50283	leaping	-0.1512795
-3.50283	leaps	-0.133001
-4.446595	learn	-0.09459015
-4.308788	learned	-0.09552922
-3.633156	learning	-0.1222179
-4.155971	learns	-0.1738415
-3.820228	leash	-0.08181803
-4.308788	leashed	-0.1024934
-4.446595	leashes	-0.09709941
-3.748541	leather	-0.1582912
-4.155971	leave	-0.1826795
-3.297379	leaves	-0.1578166
-3.906133	leaving	-0.1295463
-4.446595	lecture	-0.09556013
-4.446595	led	-0.1006202
-3.906133	ledge	-0.06043574
-4.308788	leechinfested	-0.102397
-3.542081	left	-0.06846932
-4.446595	leftover	-0.1039086
-3.687028	leg	-0.09910583
-4.308788	legged	-0.07130294
-4.446595	leggings	-0.09795754
-4.446595	legos	-0.09556013
-3.433594	legs	-0.1164765
-4.446595	leisurely	-0.1037641
-4.446595	lemon	-0.1038938
-4.446595	lemonade	-0.07288527
-4.446595	lemons	-0.09417561
-4.446595	length	-0.1039028
-4.308788	leopard	-0.07286236
-4.446595	leopards	-0.07288527
-4.446595	leoperd	-0.09725168
-4.446595	leotards	-0.1018846
-4.155971	leprechaun	-0.158518
-4.446595	leprechauns	-0.07288527
-4.446595	lepruchaun	-0.1035989
-4.308788	lessons	-0.2089625
-4.155971	let	-0.09535229
-4.446595	lets	-0.102512
-4.446595	letter	-0.1035186
-4.446595	letters	-0.07288527
-4.446595	level	-0.07288527
-4.446595	levitate	-0.1024528
-4.446595	levitating	-0.09417561
-4.446595	lewis	-0.07288527
-4.446595	liberty	-0.1037523
-4.446595	library	-0.07288527
-4.446595	lices	-0.07288527
-4.308788	lick	-0.09925404
-4.446595	licked	-0.1020385
-4.013329	licking	-0.129329
-4.155971	licks	-0.1595253
-4.308788	licorice	-0.0728147
-4.446595	lids	-0.09960407
-4.446595	lie	-0.103882
-4.013329	lies	-0.1721976
-3.297379	life	-0.3274882
-4.446595	lifeguard	-0.07288527
-4.446595	lifejacket	-0.09795754
-4.446595	lifevest	-0.09960407
-4.446595	lifevests	-0.1018846
-4.308788	lift	-0.06510147
-4.308788	lifting	-0.1034977
-4.446595	lifts	-0.09866226
-3.466834	light	-0.1145108
-4.446595	lightcolored	-0.1025829
-4.308788	lighthouse	-0.07275137
-3.820228	lighting	-0.06740286
-4.446595	lightning	-0.07288527
-4.013329	lights	-0.05748501
-4.446595	lightsaber	-0.1032448
-2.153656	like	-0.4135715
-4.446595	likely	-0.1037523
-4.013329	likes	-0.1563857
-4.446595	lillypad	-0.1039086
-4.308788	limbs	-0.09412047
-4.446595	limo	-0.1008646
-4.308788	limousine	-0.1035922
-3.433594	line	-0.04906733
-3.633156	lined	-0.3213735
-4.308788	lines	-0.100739
-4.446595	lineup	-0.07288527
-4.446595	lining	-0.1023108
-4.446595	link	-0.1037287
-4.446595	linked	-0.1037877
-4.446595	lint	-0.07288527
-4.013329	lion	-0.2057344
-4.155971	lions	-0.158632
-3.906133	lips	-0.1041665
-4.308788	lipstick	-0.0728147
-4.446595	liquid	-0.09417561
-4.446595	listen	-0.09930625
-3.633156	listening	-0.5290856
-4.013329	listens	-0.4750562
-4.013329	lit	-0.09366021
-4.446595	litter	-0.1000921
-3.066935	little	-0.317531
-4.155971	live	-0.0937085
-4.446595	lively	-0.1036933
-4.308788	lives	-0.2089625
-4.013329	living	-0.2793869
-4.446595	livings	-0.07288527
-3.906133	lizard	-0.2969705
-4.155971	lizards	-0.3274426
-4.446595	llama	-0.1034809
-4.446595	load	-0.07288527
-4.446595	loaded	-0.0982085
-4.446595	loaders	-0.07288527
-4.446595	loading	-0.1038584
-4.446595	loaves	-0.1025593
-4.446595	lobsters	-0.07288527
-4.013329	local	-0.1036489
-4.446595	located	-0.07288527
-4.308788	location	-0.06723103
-4.446595	loch	-0.1039086
-4.446595	lochness	-0.103823
-4.446595	lock	-0.1039028
-4.446595	locked	-0.102512
-4.446595	locker	-0.1037641
-4.446595	lockers	-0.1037051
-4.446595	locks	-0.1014934
-4.446595	locomotives	-0.09725168
-4.013329	log	-0.08548515
-4.308788	logo	-0.09412047
-4.446595	logos	-0.07288527
-4.446595	loitering	-0.1039086
-4.155971	lollipop	-0.1250641
-4.308788	lollipops	-0.2089625
-4.446595	lolly	-0.1039028
-4.446595	lollygagging	-0.1029612
-4.155971	lone	-0.1713066
-4.155971	lonely	-0.1586194
-3.346863	long	-0.1246736
-4.446595	longest	-0.07288527
-4.446595	longhandled	-0.1038584
-4.446595	longnecked	-0.1037051
-2.979965	look	-0.3506694
-4.446595	looke	-0.1008646
-4.446595	looker	-0.1037877
-4.446595	lookin	-0.1001277
-2.334329	looking	-0.5905665
-4.446595	lookout	-0.1001277
-2.723803	looks	-0.3571326
-4.013329	loose	-0.07239468
-4.446595	loosing	-0.1013799
-4.446595	lose	-0.1009765
-4.308788	loses	-0.1035922
-3.633156	losing	-0.1184854
-3.402719	lost	-0.173957
-4.308788	lot	-0.05765741
-4.155971	lots	-0.3546494
-4.446595	lottery	-0.103882
-4.308788	loud	-0.2089625
-4.155971	loudly	-0.1555813
-4.446595	louis	-0.1039086
-4.446595	loungbar	-0.07288527
-4.155971	lounge	-0.09037087
-4.446595	lounges	-0.09417561
-3.542081	love	-0.1616499
-4.446595	loved	-0.09930625
-4.155971	lovely	-0.102466
-3.687028	lover	-0.2907687
-4.308788	lovers	-0.0657144
-4.308788	loves	-0.09513234
-4.446595	loving	-0.1014934
-3.820228	low	-0.1002853
-4.446595	lower	-0.1038938
-4.446595	lowered	-0.1001277
-4.446595	luck	-0.07288527
-4.155971	lucky	-0.1024808
-4.308788	luggage	-0.06674321
-4.446595	lullabies	-0.07288527
