
\data\
ngram 1=3337
ngram 2=16293
ngram 3=6161

\1-grams:
-4.104095	1	-0.1052873
-4.104095	1the	-0.1208531
-3.328313	2	-0.1597434
-4.104095	2is	-0.1199457
-3.274961	3	-0.2049311
-4.104095	4	-0.1203196
-4.104095	555	-0.1154612
-4.104095	6	-0.1208896
-4.104095	6th	-0.1208781
-1.249324	</s>
-99	<s>	-1.122645
-1.721129	a	-0.2794909
-2.941311	abandoned	-0.3381966
-4.104095	aboard	-0.1154612
-2.876534	about	-0.2868282
-2.965245	above	-0.3622532
-3.274961	abused	-0.6268313
-4.104095	abusive	-0.1201861
-4.104095	accented	-0.118018
-4.104095	accepting	-0.1205864
-4.104095	accessible	-0.1204797
-4.104095	accidentally	-0.1208896
-4.104095	accommodate	-0.1187419
-4.104095	accompanied	-0.118018
-4.104095	aching	-0.1199457
-3.04615	across	-0.4391249
-3.977935	acting	-0.2454243
-4.104095	actually	-0.1196785
-4.104095	addition	-0.1154882
-4.104095	adds	-0.1207731
-4.104095	adjacent	-0.1154882
-4.104095	admire	-0.1149751
-4.104095	admit	-0.1206398
-4.104095	adorned	-0.1133235
-4.104095	adorns	-0.1149751
-4.104095	adrenaline	-0.1208531
-3.788678	adult	-0.1644221
-4.104095	advertisement	-0.1208896
-4.104095	advertising	-0.1203196
-4.104095	affect	-0.1208896
-4.104095	affecting	-0.1149751
-4.104095	afford	-0.1205331
-3.977935	afraid	-0.2386465
-4.104095	african	-0.1208531
-3.145658	after	-0.2665624
-4.104095	afternoon	-0.09574772
-3.788678	again	-0.09506075
-2.918628	against	-0.4830112
-4.104095	age	-0.1208896
-3.544504	aggressive	-0.1857254
-3.389149	ahead	-0.1584484
-4.104095	aided	-0.118018
-3.389149	air	-0.1024583
-3.227453	airplane	-0.09139577
-3.788678	airplanes	-0.1031983
-3.788678	airport	-0.1261944
-4.104095	airstrip	-0.1084955
-4.104095	albino	-0.1203196
-4.104095	alcholic	-0.1208896
-3.977935	alcoholic	-0.1207807
-4.104095	alcove	-0.1205598
-4.104095	alive	-0.1205064
-2.918628	all	-0.1773992
-4.104095	alley	-0.09574772
-4.104095	allow	-0.1149751
-3.788678	allowed	-0.1886968
-3.788678	almost	-0.1196153
-3.076853	alone	-0.2408641
-2.786296	along	-0.6121527
-3.544504	alongside	-0.2142134
-3.788678	alot	-0.1921587
-4.104095	alpine	-0.1200526
-3.544504	also	-0.07369468
-4.104095	although	-0.1208265
-3.977935	always	-0.1125439
-4.104095	am	-0.1195083
-4.104095	amazed	-0.1174541
-4.104095	amazing	-0.09574772
-4.104095	ambiance	-0.09574772
-4.104095	america	-0.09574772
-4.104095	americas	-0.1208896
-3.977935	amid	-0.2399997
-3.977935	among	-0.1205157
-3.649652	amongst	-0.1716966
-3.649652	amount	-0.4310129
-4.104095	amtrak	-0.1200526
-4.104095	amused	-0.09574772
-2.300042	an	-0.4108727
-3.977935	anchored	-0.1170603
-4.104095	ancient	-0.1207198
-1.692632	and	-0.1949782
-4.104095	angle	-0.1136218
-4.104095	angrily	-0.1206398
-3.227453	angry	-0.3266226
-3.184632	animal	-0.1453235
-3.145658	animals	-0.161824
-3.389149	annoying	-0.3159085
-3.04615	another	-0.1061359
-4.104095	anticipating	-0.1125905
-4.104095	antique	-0.1203196
-3.389149	any	-0.1123042
-4.104095	anyone	-0.1154882
-3.788678	anything	-0.1152371
-4.104095	anywhere	-0.1084955
-4.104095	apart	-0.1202128
-4.104095	apartment	-0.1133235
-4.104095	apparatus	-0.1084955
-4.104095	apparently	-0.1196785
-4.104095	appearance	-0.1136218
-3.459916	appears	-0.3423662
-4.104095	appetizing	-0.1174541
-3.788678	apple	-0.1071369
-3.649652	apples	-0.2003851
-3.389149	appliances	-0.06166138
-4.104095	appreciate	-0.1149751
-4.104095	approach	-0.1149751
-4.104095	approaches	-0.1125905
-3.977935	approaching	-0.2376152
-4.104095	arched	-0.1208781
-4.104095	arches	-0.1154612
-4.104095	archway	-0.09574772
-4.104095	archways	-0.1136218
-2.294756	are	-0.2066825
-2.698112	area	-0.4007423
-4.104095	areas	-0.09574772
-3.788678	arm	-0.08630816
-3.977935	arms	-0.0946645
-4.104095	aroad	-0.09574772
-2.68501	around	-0.4424436
-3.788678	arranged	-0.3021804
-3.977935	arrangement	-0.1096556
-4.104095	arriving	-0.1084955
-3.788678	art	-0.09321794
-4.104095	arts	-0.1120195
-2.482428	as	-0.4277237
-3.977935	asian	-0.120409
-4.104095	asphalt	-0.1207731
-4.104095	assembled	-0.09574772
-4.104095	asshole	-0.1154882
-3.788678	assorted	-0.1206283
-3.788678	assortment	-0.3060742
-2.099227	at	-0.6874248
-4.104095	ate	-0.1207198
-3.977935	athlete	-0.09697045
-3.977935	atop	-0.2376152
-3.788678	attached	-0.1346542
-4.104095	attaching	-0.1208265
-4.104095	attack	-0.1149751
-3.977935	attempt	-0.1045193
-3.389149	attempting	-0.205442
-3.788678	attempts	-0.1862817
-4.104095	attendants	-0.1187151
-4.104095	attended	-0.1207465
-4.104095	attends	-0.1125905
-3.788678	attention	-0.09250708
-4.104095	attests	-0.1154882
-4.104095	attract	-0.1207465
-4.104095	attracts	-0.1208781
-4.104095	audience	-0.1154612
-3.977935	avenue	-0.104565
-3.977935	avoid	-0.111893
-4.104095	await	-0.1149751
-4.104095	awaiting	-0.1207731
-4.104095	awaits	-0.1186615
-4.104095	awake	-0.1084955
-4.104095	awakens	-0.1193041
-4.104095	aware	-0.1136218
-3.227453	away	-0.2935451
-3.788678	awful	-0.2565581
-4.104095	awkward	-0.1196705
-3.977935	awkwardly	-0.1194472
-3.227453	baby	-0.1182173
-3.389149	back	-0.1558033
-4.104095	backdrop	-0.1113211
-3.788678	background	-0.146757
-4.104095	backpack	-0.0838746
-4.104095	backpacks	-0.1198923
-4.104095	backside	-0.1136218
-4.104095	bacon	-0.1208781
-2.543145	bad	-0.3648042
-3.977935	badly	-0.1207732
-3.977935	bag	-0.07283059
-4.104095	baggage	-0.1195181
-3.977935	bags	-0.09502257
-3.977935	bakery	-0.09567283
-4.104095	balcony	-0.0951739
-4.104095	bald	-0.1191797
-3.389149	ball	-0.1012318
-3.649652	balls	-0.1360981
-4.104095	bamboo	-0.1205598
-3.788678	banana	-0.1001248
-3.459916	bananas	-0.09116046
-4.104095	band	-0.1133235
-4.104095	bandaged	-0.1120195
-3.977935	bank	-0.08800603
-4.104095	banner	-0.1097281
-4.104095	banquet	-0.1208896
-4.104095	bar	-0.09574772
-4.104095	barbed	-0.1208781
-3.788678	barely	-0.1202146
-3.788678	barn	-0.1669224
-4.104095	bars	-0.1149751
-3.977935	base	-0.1204357
-3.184632	baseball	-0.1348171
-3.977935	based	-0.1092724
-4.104095	basic	-0.1206131
-4.104095	basket	-0.1136218
-4.104095	basketball	-0.1208265
-3.649652	bat	-0.1035519
-3.977935	bath	-0.0726539
-4.104095	bathed	-0.1084955
-3.017474	bathroom	-0.2444426
-4.104095	bathrooms	-0.1203997
-3.544504	bathtub	-0.1587175
-3.977935	bats	-0.1180734
-4.104095	batter	-0.1154612
-3.977935	battered	-0.1181866
-4.104095	batters	-0.1206931
-4.104095	bay	-0.1136218
-3.04615	be	-0.1312372
-3.274961	beach	-0.1282608
-4.104095	beak	-0.1084228
-4.104095	beanies	-0.09340685
-3.184632	bear	-0.1684481
-4.104095	beard	-0.09574772
-3.274961	bears	-0.1381076
-3.977935	beat	-0.2444625
-3.977935	beating	-0.1193228
-3.649652	beautiful	-0.1184391
-4.104095	beautifully	-0.1206931
-3.977935	beauty	-0.08800603
-3.649652	became	-0.2353909
-3.04615	because	-0.2650787
-4.104095	beckoning	-0.1208896
-3.788678	become	-0.1911258
-3.04615	bed	-0.2352195
-3.649652	bedroom	-0.1457959
-3.544504	beds	-0.1851667
-4.104095	bedspread	-0.1120195
-3.649652	been	-0.1150942
-3.544504	beer	-0.150969
-3.977935	beers	-0.08256632
-3.389149	before	-0.169781
-4.104095	began	-0.1205864
-4.104095	begin	-0.1133235
-4.104095	begins	-0.1198389
-2.918628	behind	-0.410818
-3.977935	beige	-0.09537184
-2.965245	being	-0.1636674
-4.104095	belied	-0.1149751
-4.104095	belies	-0.1125905
-4.104095	believe	-0.1203463
-4.104095	belonging	-0.1154882
-4.104095	belongs	-0.1203997
-3.459916	below	-0.16424
-4.104095	belt	-0.09574772
-4.104095	ben	-0.1203997
-3.017474	bench	-0.133622
-3.977935	benches	-0.109765
-3.977935	bend	-0.2386465
-3.459916	beneath	-0.2906199
-4.104095	beseegrd	-0.118018
-2.820176	beside	-0.5047951
-3.649652	better	-0.1193857
-3.389149	between	-0.1494144
-4.104095	beverage	-0.1097281
-3.977935	beverages	-0.245451
-3.649652	bicycle	-0.1298752
-4.104095	bicyclers	-0.1206398
-3.649652	bicycles	-0.09177651
-4.104095	bides	-0.1198389
-4.104095	bidet	-0.09574772
-3.274961	big	-0.08702959
-4.104095	bigger	-0.1208781
-3.076853	bike	-0.2027802
-3.977935	bikers	-0.1185097
-3.544504	bikes	-0.1561578
-4.104095	binoculars	-0.1154882
-3.274961	bird	-0.1917034
-3.109894	birds	-0.2036759
-4.104095	birthday	-0.1203289
-4.104095	biscuits	-0.09574772
-4.104095	bit	-0.1136218
-3.649652	bite	-0.1027357
-3.977935	biting	-0.1111575
-2.856924	black	-0.168133
-3.544504	blanket	-0.1588083
-4.104095	blankets	-0.1174541
-4.104095	blast	-0.1208781
-4.104095	blind	-0.1208896
-3.977935	blindfolds	-0.08630621
-3.977935	block	-0.2207724
-3.977935	blocked	-0.112029
-4.104095	blocking	-0.1208781
-4.104095	blocks	-0.1149751
-3.977935	blonde	-0.2457445
-4.104095	bloody	-0.1207731
-3.977935	blowing	-0.1066359
-4.104095	blown	-0.1206665
-4.104095	blows	-0.09574772
-2.965245	blue	-0.1549458
-3.649652	blurry	-0.1530469
-3.227453	board	-0.1604369
-4.104095	boarded	-0.1084955
-3.977935	boarder	-0.1010829
-4.104095	boarders	-0.1183224
-3.977935	boarding	-0.08815983
-3.788678	boards	-0.1636263
-4.104095	boardwalk	-0.1196518
-3.017474	boat	-0.1491986
-3.977935	boating	-0.1096812
-3.04615	boats	-0.1488086
-4.104095	bodies	-0.1136218
-3.649652	body	-0.1467105
-4.104095	bologna	-0.09574772
-4.104095	bones	-0.1203997
-3.977935	book	-0.1125055
-3.977935	books	-0.1074616
-4.104095	bookshelf	-0.09574772
-4.104095	bookshelves	-0.1105847
-4.104095	boots	-0.1202929
-4.104095	bored	-0.118018
-3.977935	boring	-0.1201954
-4.104095	boringlooking	-0.1208265
-4.104095	both	-0.1125905
-4.104095	bother	-0.1149751
-4.104095	bothering	-0.1149751
-3.788678	bottle	-0.1349403
-3.544504	bottles	-0.06353219
-4.104095	bottom	-0.1135753
-4.104095	boulder	-0.09574772
-4.104095	bouqet	-0.1136218
-3.977935	bouquet	-0.1928081
-3.977935	bow	-0.2457978
-3.227453	bowl	-0.356973
-3.649652	bowls	-0.1236892
-3.274961	box	-0.1272156
-3.788678	boxes	-0.1321973
-3.145658	boy	-0.06547026
-4.104095	boyfriend	-0.1205598
-3.977935	boys	-0.2370442
-3.649652	branch	-0.1177806
-4.104095	branches	-0.09574772
-3.788678	bread	-0.07651761
-4.104095	break	-0.1193844
-3.977935	breakfast	-0.108066
-4.104095	breast	-0.1154612
-3.389149	brick	-0.1016193
-4.104095	bride	-0.1064706
-3.649652	bridge	-0.1266516
-4.104095	brief	-0.1205064
-3.459916	bright	-0.1405673
-3.977935	brightly	-0.1205958
-4.104095	bring	-0.1206665
-3.544504	broccoli	-0.1092971
-4.104095	broke	-0.1190633
-4.104095	brokem	-0.1207198
-2.897071	broken	-0.3056586
-4.104095	brother	-0.1203463
-3.227453	brown	-0.1824175
-4.104095	browns	-0.1208896
-4.104095	bruised	-0.1120195
-4.104095	bruises	-0.120373
-3.977935	brush	-0.1190994
-4.104095	brushes	-0.1193844
-3.459916	brushing	-0.3026606
-4.104095	brushy	-0.1204797
-4.104095	bu	-0.1084955
-4.104095	bubbles	-0.1207465
-4.104095	buddy	-0.1208265
-4.104095	buffalo	-0.1205064
-3.977935	buffet	-0.1135753
-4.104095	buidling	-0.1193844
-2.990575	building	-0.1838546
-3.389149	buildings	-0.1984268
-4.104095	built	-0.1133235
-3.788678	bull	-0.1691413
-4.104095	bulls	-0.1205064
-3.977935	bullshit	-0.09571148
-4.104095	bum	-0.1186883
-4.104095	bump	-0.1195181
-3.977935	bumper	-0.1029011
-4.104095	bumpy	-0.1207198
-3.977935	bunch	-0.1131974
-4.104095	bunched	-0.1194379
-4.104095	bunches	-0.1136218
-4.104095	bundled	-0.1194379
-3.977935	bunk	-0.09561633
-4.104095	burger	-0.1199457
-4.104095	buried	-0.1084955
-4.104095	burrito	-0.1182058
-2.990575	bus	-0.1910112
-3.227453	buses	-0.1227781
-4.104095	bushes	-0.1120195
-3.977935	business	-0.08585559
-4.104095	bust	-0.1208265
-4.104095	busted	-0.1194379
-3.788678	busy	-0.1311918
-3.017474	but	-0.1469594
-3.977935	butt	-0.2207724
-3.649652	butterfly	-0.2456036
-4.104095	button	-0.1136218
-4.104095	buying	-0.1208781
-2.17597	by	-0.4363076
-4.104095	cabin	-0.1128716
-3.544504	cabinets	-0.147263
-4.104095	cabnets	-0.09574772
-4.104095	cafe	-0.1133235
-3.977935	cafeteria	-0.1130888
-4.104095	cage	-0.09574772
-3.274961	cake	-0.2374344
-3.977935	cakes	-0.1006726
-4.104095	calico	-0.1200259
-3.649652	call	-0.09396593
-3.977935	called	-0.1143625
-4.104095	calls	-0.1196785
-3.649652	camera	-0.07902426
-3.977935	cameras	-0.08630621
-4.104095	camper	-0.1154612
-4.104095	campers	-0.1204264
-4.104095	campfire	-0.09574772
-4.104095	campus	-0.09574772
-2.990575	can	-0.4023608
-4.104095	canal	-0.09574772
-3.977935	candle	-0.1631074
-4.104095	candles	-0.1097281
-4.104095	candy	-0.1115213
-4.104095	canine	-0.1208781
-3.977935	cant	-0.1663918
-4.104095	capes	-0.1120195
-4.104095	captivity	-0.09574772
-4.104095	captor	-0.09574772
-4.104095	captures	-0.1139835
-4.104095	capturing	-0.1206398
-2.990575	car	-0.2189596
-4.104095	caramel	-0.1208896
-4.104095	card	-0.09574772
-4.104095	cardinal	-0.1206931
-3.977935	care	-0.08800603
-3.649652	careful	-0.06937318
-4.104095	carelessness	-0.118018
-4.104095	caretakers	-0.1208531
-4.104095	cargo	-0.1208265
-4.104095	carousel	-0.09574772
-4.104095	carpet	-0.09574772
-3.788678	carriage	-0.09693433
-4.104095	carriages	-0.1207198
-4.104095	carried	-0.118018
-3.977935	carries	-0.1184297
-4.104095	carrot	-0.09574772
-4.104095	carrots	-0.1120195
-3.389149	carrying	-0.3628263
-3.04615	cars	-0.152667
-3.649652	cart	-0.117524
-3.977935	carton	-0.07839283
-4.104095	carts	-0.09574772
-4.104095	carve	-0.1125905
-4.104095	carved	-0.1204797
-4.104095	carving	-0.1191971
-3.649652	case	-0.124248
-4.104095	cases	-0.1186883
-4.104095	casting	-0.1125905
-4.104095	castle	-0.1207465
-4.104095	casts	-0.1125905
-4.104095	casual	-0.1205598
-2.68501	cat	-0.255869
-3.977935	catch	-0.08047507
-4.104095	catchers	-0.1208896
-4.104095	catches	-0.1193844
-3.788678	catching	-0.1900631
-4.104095	caterer	-0.1207731
-3.649652	cats	-0.1137857
-3.788678	cattle	-0.09335816
-3.544504	caught	-0.08469054
-3.649652	cause	-0.1065276
-3.977935	caused	-0.1065257
-3.977935	causing	-0.1125439
-4.104095	cavernous	-0.1208896
-4.104095	cavorting	-0.1084955
-4.104095	ceilings	-0.1120195
-3.459916	cell	-0.3048462
-4.104095	cellphone	-0.08149787
-3.977935	cement	-0.1200886
-4.104095	cemetary	-0.09574772
-3.977935	cemetery	-0.2207724
-3.649652	center	-0.1833774
-4.104095	centerpiece	-0.1084955
-4.104095	ceramic	-0.1206665
-4.104095	certain	-0.1208896
-3.977935	chained	-0.1097472
-3.145658	chair	-0.1886494
-3.076853	chairs	-0.1941308
-4.104095	change	-0.1208781
-4.104095	changed	-0.09574772
-4.104095	chaps	-0.1187151
-4.104095	charlton	-0.1208896
-3.977935	chases	-0.112301
-3.544504	chasing	-0.2354224
-4.104095	cheap	-0.1202929
-4.104095	checkered	-0.1207731
-4.104095	cheers	-0.1194914
-3.977935	chef	-0.1191628
-4.104095	chemicals	-0.09574772
-4.104095	chestnut	-0.1202662
-4.104095	chewing	-0.1097281
-4.104095	chews	-0.1097281
-3.977935	chicken	-0.1733298
-3.109894	child	-0.09834511
-3.328313	children	-0.0988861
-3.649652	childs	-0.1200632
-3.977935	chili	-0.1198313
-4.104095	chilling	-0.1149751
-4.104095	chin	-0.1097281
-4.104095	chip	-0.1208265
-4.104095	chips	-0.1120195
-4.104095	chocolate	-0.1208896
-4.104095	chops	-0.1194379
-3.788678	christian	-0.3131455
-3.544504	christmas	-0.1658766
-4.104095	chugs	-0.1202128
-3.977935	church	-0.2207724
-4.104095	chute	-0.1186615
-4.104095	circle	-0.09574772
-4.104095	circus	-0.09574772
-3.076853	city	-0.2131999
-4.104095	citym	-0.09574772
-4.104095	claim	-0.1154882
-4.104095	clashed	-0.1133235
-4.104095	class	-0.1205331
-4.104095	classic	-0.1208531
-4.104095	clawlike	-0.1194379
-4.104095	clay	-0.1207465
-3.788678	clean	-0.06840257
-4.104095	cleaned	-0.118018
-4.104095	cleanliness	-0.118018
-4.104095	cleans	-0.1125905
-3.649652	clear	-0.1169284
-3.788678	clearly	-0.1096343
-3.977935	clever	-0.2457445
-4.104095	climb	-0.1194379
-4.104095	clings	-0.1154882
-4.104095	clinic	-0.1154612
-4.104095	clips	-0.1133235
-2.918628	clock	-0.2145971
-3.788678	clocks	-0.08373958
-3.328313	close	-0.4823167
-4.104095	closecropped	-0.1206398
-4.104095	closed	-0.1197489
-4.104095	closedminded	-0.1199725
-4.104095	closeup	-0.1022338
-3.544504	clothes	-0.1888384
-3.977935	clothing	-0.09553155
-3.977935	cloud	-0.1459979
-4.104095	cloudless	-0.120453
-3.544504	clouds	-0.2656634
-3.788678	cloudy	-0.1200445
-4.104095	clutching	-0.1125905
-4.104095	clutter	-0.1194379
-3.459916	cluttered	-0.07994072
-3.977935	coach	-0.1194455
-4.104095	coast	-0.09574772
-4.104095	coat	-0.1120195
-4.104095	cobble	-0.1208531
-4.104095	cobbler	-0.08630621
-4.104095	cobblestone	-0.1200793
-3.544504	coffee	-0.0864732
-2.533934	cold	-0.4077974
-4.104095	collage	-0.1136218
-3.788678	collection	-0.07458387
-3.977935	college	-0.1202053
-4.104095	colonial	-0.1208896
-3.459916	color	-0.14834
-3.274961	colored	-0.1995764
-3.977935	colorful	-0.1188329
-3.788678	colors	-0.07416847
-3.977935	colt	-0.08995692
-4.104095	column	-0.09574772
-4.104095	combo	-0.1205064
-3.649652	come	-0.09201499
-3.649652	comes	-0.1094558
-3.977935	comfort	-0.1189387
-4.104095	comfortable	-0.120373
-4.104095	comforter	-0.09574772
-3.109894	comfy	-0.4926608
-3.544504	coming	-0.1622761
-4.104095	comment	-0.1182058
-3.649652	commercial	-0.1778863
-4.104095	commode	-0.09574772
-4.104095	common	-0.1084955
-4.104095	community	-0.1208896
-3.977935	commuter	-0.1992511
-3.977935	companion	-0.1749056
-4.104095	comparatively	-0.1205864
-4.104095	compete	-0.1208896
-4.104095	competing	-0.1197587
-4.104095	competition	-0.0796272
-4.104095	competitor	-0.1203997
-4.104095	competitors	-0.1204989
-4.104095	complement	-0.1149751
-3.977935	completely	-0.1208439
-4.104095	compromising	-0.1208896
-3.274961	computer	-0.1609607
-3.544504	computers	-0.1616739
-3.977935	conceals	-0.1065257
-4.104095	concentrating	-0.1097281
-4.104095	concerned	-0.1194379
-4.104095	concert	-0.09574772
-3.788678	concrete	-0.1200539
-4.104095	condition	-0.09574772
-4.104095	conditions	-0.1186615
-4.104095	conducts	-0.1149751
-3.977935	cone	-0.07591638
-4.104095	conference	-0.1202128
-4.104095	confines	-0.1136218
-4.104095	confuse	-0.1208781
-3.649652	confused	-0.2484317
-3.977935	congregate	-0.09369074
-3.977935	connected	-0.2405129
-3.977935	considered	-0.1152276
-4.104095	considers	-0.1149751
-4.104095	consist	-0.1136218
-3.977935	consisting	-0.2386465
-4.104095	construction	-0.1084955
-4.104095	consumption	-0.09574772
-4.104095	contain	-0.1125905
-3.977935	container	-0.0838746
-3.788678	containers	-0.1000955
-3.389149	containing	-0.13288
-3.459916	contains	-0.2444296
-4.104095	contaminated	-0.1208896
-4.104095	contemplating	-0.1125905
-4.104095	contest	-0.09574772
-4.104095	contestant	-0.1208531
-4.104095	contestants	-0.09574772
-4.104095	continue	-0.09574772
-4.104095	continues	-0.1195181
-4.104095	contrast	-0.09574772
-3.788678	control	-0.08238281
-3.977935	controller	-0.1414198
-3.977935	controllers	-0.165539
-4.104095	controlling	-0.1208781
-4.104095	conversation	-0.1204264
-4.104095	converted	-0.1154882
-4.104095	conveyor	-0.1084955
-4.104095	convoy	-0.1084955
-4.104095	cooked	-0.118018
-3.649652	cookies	-0.147738
-3.649652	cooking	-0.09933139
-4.104095	cooks	-0.1187151
-4.104095	cool	-0.1207198
-4.104095	cools	-0.1202128
-4.104095	cops	-0.1202395
-4.104095	corked	-0.1207998
-4.104095	corner	-0.08800603
-4.104095	corners	-0.1136218
-4.104095	corporations	-0.1208896
-4.104095	corral	-0.1196785
-4.104095	costume	-0.1208265
-3.145658	couch	-0.2149765
-3.649652	couches	-0.1671191
-3.109894	could	-0.2314317
-4.104095	countenance	-0.1136218
-3.389149	counter	-0.1944587
-3.977935	counters	-0.08630621
-3.544504	country	-0.1569404
-3.788678	countryside	-0.2882001
-4.104095	county	-0.1120195
-4.104095	coupe	-0.1136218
-3.649652	couple	-0.1691492
-3.977935	course	-0.08768962
-4.104095	courses	-0.1154612
-3.389149	court	-0.3548134
-4.104095	courthouse	-0.1203997
-4.104095	courts	-0.1208896
-4.104095	cover	-0.1207198
-2.990575	covered	-0.3041905
-4.104095	covering	-0.1193844
-4.104095	covers	-0.1149751
-3.145658	cow	-0.1150602
-3.977935	cowboy	-0.1115213
-4.104095	cowboys	-0.1097281
-3.145658	cows	-0.203979
-4.104095	cozy	-0.1206131
-4.104095	craft	-0.1208896
-4.104095	crafts	-0.1133235
-3.649652	cramped	-0.08191651
-3.227453	crappy	-0.4090665
-4.104095	crash	-0.09574772
-4.104095	crashed	-0.09574772
-4.104095	crate	-0.09574772
-4.104095	crates	-0.09574772
-4.104095	cray	-0.1206665
-2.990575	crazy	-0.4017722
-4.104095	cream	-0.08027163
-4.104095	creamer	-0.1120195
-4.104095	create	-0.1125905
-3.977935	created	-0.1124913
-4.104095	creativity	-0.1205064
-4.104095	creepy	-0.1196518
-4.104095	crepes	-0.1207198
-4.104095	crest	-0.1136218
-4.104095	crisp	-0.1207198
-3.274961	cross	-0.2882275
-3.977935	crosses	-0.1122738
-3.544504	crossing	-0.2938599
-4.104095	crosswalk	-0.1154612
-4.104095	crouched	-0.1097281
-4.104095	crouches	-0.1182326
-3.544504	crowd	-0.1396676
-3.977935	crowded	-0.1071686
-4.104095	crowds	-0.1206398
-4.104095	crowed	-0.1133235
-4.104095	cruel	-0.1208531
-4.104095	crumbs	-0.09574772
-3.109894	crying	-0.5138857
-3.977935	cuddling	-0.08256632
-3.649652	cup	-0.2186274
-4.104095	cupboard	-0.1136218
-4.104095	cupboards	-0.09574772
-3.788678	cupcakes	-0.1747926
-4.104095	cups	-0.09574772
-4.104095	curb	-0.1067461
-4.104095	curiously	-0.1191168
-4.104095	currently	-0.1084955
-3.977935	curtain	-0.1730654
-3.649652	curtains	-0.1316215
-4.104095	curved	-0.1200793
-4.104095	curving	-0.1200793
-3.977935	customers	-0.1198215
-3.544504	cut	-0.107363
-4.104095	cutlet	-0.1207731
-3.977935	cuts	-0.1180273
-3.788678	cutting	-0.1144802
-4.104095	daikon	-0.09574772
-4.104095	daisies	-0.1182326
-4.104095	dalmation	-0.09574772
-4.104095	damage	-0.09574772
-3.184632	damaged	-0.2671369
-4.104095	damaging	-0.1149751
-4.104095	damned	-0.09574772
-4.104095	danger	-0.1136218
-3.328313	dangerous	-0.2937605
-4.104095	dangling	-0.1193041
-3.328313	dark	-0.09767909
-4.104095	darkest	-0.1208896
-4.104095	date	-0.09574772
-4.104095	dated	-0.1204797
-4.104095	david	-0.1097281
-4.104095	davidson	-0.1208781
-2.838161	day	-0.22148
-3.788678	days	-0.08976651
-2.572012	dead	-0.3645257
-3.788678	deadly	-0.199535
-4.104095	dealing	-0.1133235
-3.649652	death	-0.1675684
-4.104095	debris	-0.1201861
-4.104095	deceased	-0.09574772
-4.104095	decisions	-0.1208896
-3.649652	deck	-0.1245524
-4.104095	decker	-0.1198843
-3.977935	decor	-0.09499428
-3.389149	decorated	-0.1055832
-3.649652	decorations	-0.143883
-4.104095	decorative	-0.1207998
-3.977935	deep	-0.1208189
-4.104095	defeated	-0.120373
-4.104095	defiently	-0.1125905
-4.104095	deli	-0.09574772
-3.977935	delicious	-0.1197489
-4.104095	deliciouslooking	-0.1204797
-4.104095	delivered	-0.09574772
-4.104095	delivering	-0.1154882
-4.104095	delivery	-0.1201861
-4.104095	depicted	-0.1084955
-4.104095	deplete	-0.1149751
-3.788678	depot	-0.1522683
-4.104095	depressed	-0.1206131
-4.104095	deranged	-0.1201861
-4.104095	derives	-0.1208781
-4.104095	descends	-0.1149751
-4.104095	desert	-0.1097281
-3.977935	deserted	-0.1198215
-4.104095	design	-0.1207541
-3.227453	desk	-0.2200931
-4.104095	desktop	-0.1206931
-4.104095	desolate	-0.1205064
-4.104095	desperately	-0.1154882
-3.788678	despite	-0.1857585
-3.788678	dessert	-0.08408929
-3.977935	desserts	-0.1069389
-3.977935	dessicated	-0.1202755
-4.104095	destination	-0.1206931
-4.104095	destroyed	-0.118018
-4.104095	detour	-0.09574772
-4.104095	detracted	-0.1193041
-4.104095	devices	-0.1084955
-4.104095	dialing	-0.1207731
-4.104095	diapers	-0.1208896
-3.459916	did	-0.4236799
-3.649652	didnt	-0.1657332
-3.977935	die	-0.08108026
-4.104095	died	-0.09574772
-4.104095	dies	-0.09574772
-3.649652	different	-0.120554
-4.104095	differently	-0.09574772
-3.977935	difficult	-0.115129
-4.104095	difficulty	-0.1208265
-4.104095	dig	-0.1084955
-4.104095	dilapidated	-0.1199457
-4.104095	dim	-0.1208781
-4.104095	diner	-0.09574772
-4.104095	diners	-0.1136218
-3.788678	dining	-0.2156815
-4.104095	dinky	-0.1205064
-3.788678	dinner	-0.173264
-3.977935	dinning	-0.2452375
-4.104095	directing	-0.1103662
-4.104095	direction	-0.08256632
-3.788678	directly	-0.1065078
-3.389149	dirt	-0.163775
-2.507418	dirty	-0.4310663
-4.104095	disabled	-0.1208896
-4.104095	disappointed	-0.1174541
-4.104095	disapproval	-0.1194914
-4.104095	disc	-0.1097281
-4.104095	discuss	-0.1149751
-2.876534	disgusting	-0.6881782
-4.104095	disgustingfood	-0.1097281
-3.788678	dish	-0.1423484
-3.788678	dishes	-0.0825164
-4.104095	dishwasher	-0.09574772
-4.104095	disk	-0.1205864
-4.104095	dispenser	-0.1120195
-4.104095	dispensers	-0.1061674
-3.459916	display	-0.1148995
-3.274961	displayed	-0.3084574
-3.788678	displaying	-0.1917767
-3.788678	displays	-0.1205216
-4.104095	disposable	-0.1208265
-4.104095	distance	-0.091997
-4.104095	distinctly	-0.1196785
-3.788678	distracted	-0.1160465
-4.104095	disturbing	-0.1205064
-4.104095	divided	-0.1208531
-3.977935	diving	-0.1147683
-3.649652	do	-0.1300002
-3.977935	dock	-0.1729235
-3.788678	docked	-0.1200593
-4.104095	docks	-0.09574772
-3.017474	does	-0.5166937
-3.227453	doesnt	-0.1185891
-2.613753	dog	-0.2165557
-3.274961	dogs	-0.114491
-3.145658	doing	-0.3242943
-4.104095	doll	-0.1205331
-4.104095	domed	-0.1208265
-3.977935	done	-0.1074066
-4.104095	dons	-0.1125905
-3.788678	dont	-0.1200272
-3.544504	donuts	-0.1874153
-3.227453	door	-0.2479551
-3.977935	doorway	-0.07834432
-4.104095	dorm	-0.1202128
-3.389149	double	-0.3860036
-4.104095	doughnuts	-0.1097281
-2.369077	down	-0.5438235
-4.104095	downhill	-0.1205331
-4.104095	dozens	-0.1136218
-4.104095	dragging	-0.1193844
-4.104095	drank	-0.1174541
-4.104095	drape	-0.1206131
-3.977935	draped	-0.1118113
-4.104095	draperies	-0.1120195
-3.977935	drawn	-0.1175996
-4.104095	dreads	-0.1149751
-4.104095	dreary	-0.1195274
-3.328313	dress	-0.08242495
-3.544504	dressed	-0.1775901
-4.104095	dresser	-0.1206398
-3.977935	dried	-0.1185905
-3.649652	drink	-0.1362945
-3.788678	drinking	-0.09388894
-3.649652	drinks	-0.1353031
-3.544504	drive	-0.06805198
-3.649652	driver	-0.1079659
-3.977935	drivers	-0.09567283
-3.459916	drives	-0.1419907
-4.104095	driveway	-0.09574772
-3.274961	driving	-0.3090962
-3.459916	drunk	-0.2683548
-3.788678	dry	-0.1194931
-4.104095	dryer	-0.1203556
-3.977935	duck	-0.1206758
-3.977935	ducks	-0.09561633
-3.649652	due	-0.4328793
-3.274961	dumb	-0.3515109
-2.897071	during	-0.6996182
-4.104095	dyed	-0.1204797
-3.109894	dying	-0.242763
-3.076853	each	-0.3661367
-4.104095	eagerly	-0.1208896
-4.104095	eagle	-0.1207198
-4.104095	ear	-0.09574772
-4.104095	earlier	-0.1182058
-3.649652	early	-0.1381233
-4.104095	ears	-0.1097281
-4.104095	easily	-0.1208896
-4.104095	easy	-0.1208896
-3.649652	eat	-0.06337322
-3.788678	eaten	-0.0951537
-2.990575	eating	-0.2813017
-3.109894	eats	-0.1467936
-4.104095	eclipsed	-0.118018
-3.977935	edge	-0.1814665
-4.104095	effectively	-0.1203997
-4.104095	efforts	-0.1097281
-3.977935	egg	-0.09567283
-3.977935	eggs	-0.08630621
-4.104095	egyptian	-0.1208781
-4.104095	elderly	-0.1202929
-4.104095	electrical	-0.1207465
-4.104095	electricity	-0.1204797
-4.104095	electronic	-0.1208531
-4.104095	electronics	-0.1113211
-4.104095	elegance	-0.1136218
-4.104095	elementary	-0.1133235
-3.109894	elephant	-0.148948
-3.145658	elephants	-0.1248614
-4.104095	elevated	-0.1207731
-3.788678	else	-0.08982378
-4.104095	elves	-0.09574772
-4.104095	embarking	-0.1097281
-4.104095	embarrassment	-0.1154882
-4.104095	embedded	-0.1174541
-3.977935	embraces	-0.2449704
-4.104095	emphasizes	-0.1149751
-4.104095	emptiness	-0.1207465
-3.328313	empty	-0.09619173
-4.104095	encircle	-0.1125905
-3.328313	enclosure	-0.2332097
-4.104095	encounters	-0.1125905
-3.544504	end	-0.132152
-3.977935	ended	-0.2444625
-4.104095	engaged	-0.1084955
-4.104095	engine	-0.1208896
-4.104095	england	-0.1097281
-3.977935	enjoy	-0.1186977
-4.104095	enjoyed	-0.1149751
-3.649652	enjoying	-0.2495984
-3.649652	enough	-0.1660752
-4.104095	enraged	-0.1208896
-3.977935	enter	-0.1065257
-4.104095	entering	-0.1195181
-4.104095	entertaining	-0.1197854
-4.104095	entertainment	-0.1207807
-4.104095	enthused	-0.1203463
-4.104095	entirely	-0.1202395
-3.977935	entrance	-0.08998555
-4.104095	entryway	-0.09574772
-4.104095	enveloped	-0.1084955
-3.977935	equally	-0.1186709
-3.649652	equipment	-0.4131388
-4.104095	erased	-0.1203997
-4.104095	escape	-0.1059467
-4.104095	escapes	-0.1125905
-4.104095	escaping	-0.1097281
-4.104095	european	-0.1208781
-3.328313	even	-0.1310651
-4.104095	evening	-0.09574772
-3.977935	event	-0.09571148
-4.104095	ever	-0.1207198
-4.104095	evergreen	-0.1204797
-3.977935	every	-0.1208439
-3.788678	everyone	-0.1151831
-3.977935	everything	-0.08256632
-3.328313	evil	-0.2685539
-3.977935	exactly	-0.09513573
-4.104095	examines	-0.1187419
-3.788678	example	-0.3060742
-4.104095	excited	-0.1194379
-4.104095	excuse	-0.1186615
-4.104095	exhusband	-0.1208531
-4.104095	expensive	-0.1208531
-4.104095	experience	-0.09574772
-4.104095	experiencing	-0.1125905
-4.104095	explaining	-0.1208531
-3.977935	exposed	-0.1206491
-4.104095	extended	-0.09574772
-4.104095	exterior	-0.09574772
-4.104095	extremely	-0.1207198
-3.274961	eye	-0.1442425
-3.459916	eyes	-0.2220713
-3.977935	facade	-0.1135753
-2.820176	face	-0.2115453
-4.104095	faced	-0.1174541
-4.104095	faces	-0.09574772
-4.104095	facing	-0.1194379
-4.104095	fail	-0.1154882
-3.649652	failing	-0.2483213
-3.977935	fails	-0.1207123
-4.104095	fake	-0.1206398
-4.104095	falcon	-0.1190825
-3.977935	fall	-0.09425798
-3.649652	falling	-0.1049735
-3.649652	falls	-0.1023645
-3.389149	family	-0.065671
-4.104095	familys	-0.1204264
-4.104095	fan	-0.1205864
-2.856924	fancy	-0.4347129
-4.104095	fanned	-0.118018
-4.104095	far	-0.1207998
-4.104095	farm	-0.09369074
-4.104095	farmers	-0.1207998
-4.104095	farting	-0.09574772
-4.104095	fashioned	-0.1189668
-3.977935	fast	-0.08119711
-3.649652	fat	-0.1431889
-4.104095	faulty	-0.1206398
-4.104095	favorite	-0.1206931
-4.104095	fear	-0.1198389
-4.104095	feathers	-0.1097281
-3.544504	features	-0.3378333
-4.104095	featuring	-0.1125905
-4.104095	fed	-0.09574772
-3.788678	fedex	-0.1995617
-4.104095	fedora	-0.1206398
-3.977935	feeder	-0.2207724
-3.977935	feeding	-0.109693
-3.977935	feeds	-0.1096282
-3.788678	feel	-0.1141825
-3.977935	feels	-0.1144437
-3.977935	feet	-0.09569928
-3.977935	fell	-0.1084485
-4.104095	fellow	-0.1208781
-4.104095	felt	-0.09574772
-3.788678	female	-0.120586
-3.274961	fence	-0.09974576
-3.977935	fenced	-0.1199284
-3.788678	ferry	-0.199705
-4.104095	festival	-0.09574772
-4.104095	few	-0.1158187
-4.104095	fiary	-0.1207198
-4.104095	fie	-0.1208265
-2.990575	field	-0.2870735
-4.104095	fight	-0.1171678
-3.788678	fighter	-0.1997218
-4.104095	fights	-0.1154882
-3.977935	file	-0.118866
-2.990575	filled	-0.8766304
-4.104095	fills	-0.1125905
-4.104095	film	-0.1136218
-3.459916	filthy	-0.3193417
-4.104095	fin	-0.1207731
-4.104095	financial	-0.1208531
-3.544504	find	-0.1826826
-4.104095	finding	-0.1191168
-4.104095	fingers	-0.1195181
-4.104095	finish	-0.1202128
-3.145658	fire	-0.3528957
-3.977935	fireplace	-0.2207724
-4.104095	first	-0.1207465
-3.389149	fish	-0.1575174
-4.104095	fisherman	-0.1187151
-3.977935	fishing	-0.1198215
-4.104095	fitted	-0.1133235
-3.788678	five	-0.1189936
-3.977935	fix	-0.1132245
-4.104095	fixed	-0.1194379
-3.977935	fixing	-0.2376152
-4.104095	fixtures	-0.09574772
-4.104095	flag	-0.1097281
-4.104095	flagpole	-0.09574772
-4.104095	flanking	-0.1125905
-4.104095	flat	-0.1208896
-4.104095	flea	-0.1207998
-4.104095	flee	-0.1149751
-4.104095	fleeing	-0.1208781
-4.104095	flew	-0.1205331
-3.977935	flickr	-0.2207724
-3.328313	flies	-0.2446447
-4.104095	flips	-0.1194379
-3.459916	floating	-0.174738
-3.649652	floats	-0.1029483
-4.104095	flock	-0.1136218
-4.104095	flood	-0.1208531
-4.104095	flooded	-0.1206665
-4.104095	floodwater	-0.1202662
-3.459916	floor	-0.1328907
-4.104095	flooring	-0.1208265
-3.977935	floors	-0.08630621
-4.104095	floral	-0.1207998
-4.104095	florida	-0.1202128
-3.389149	flower	-0.1803452
-4.104095	flowered	-0.1207198
-4.104095	flowering	-0.1204797
-3.227453	flowers	-0.1827158
-4.104095	flown	-0.1084955
-3.977935	fluffy	-0.1208554
-4.104095	flushes	-0.1149751
-4.104095	flushing	-0.1125905
-3.389149	fly	-0.1616912
-2.941311	flying	-0.2740129
-4.104095	flys	-0.1194379
-3.977935	foal	-0.08256632
-4.104095	focuses	-0.1207998
-4.104095	focusing	-0.1097281
-3.649652	fog	-0.1004669
-4.104095	foggy	-0.1205598
-4.104095	folded	-0.1120195
-4.104095	foliage	-0.1120195
-3.788678	following	-0.3050429
-2.990575	food	-0.1429775
-4.104095	foods	-0.1187151
-4.104095	fools	-0.1149751
-4.104095	foot	-0.09574772
-4.104095	football	-0.1205864
-4.104095	footbridge	-0.1182058
-2.284372	for	-0.3943762
-4.104095	forboding	-0.1196518
-3.544504	forced	-0.2897923
-4.104095	forces	-0.1125905
-4.104095	foreground	-0.09553155
-4.104095	forehead	-0.1154612
-4.104095	foreign	-0.1208781
-3.977935	forest	-0.0785706
-3.977935	forget	-0.1122194
-4.104095	fork	-0.1120195
-4.104095	forks	-0.1202662
-4.104095	forlornly	-0.1084955
-4.104095	formal	-0.1208781
-4.104095	formally	-0.1120195
-3.977935	formation	-0.08800603
-4.104095	formerly	-0.1205864
-3.977935	forms	-0.1121106
-3.459916	found	-0.1334014
-4.104095	fountains	-0.09574772
-3.459916	four	-0.1779037
-4.104095	fours	-0.1203463
-4.104095	foxs	-0.1208896
-3.788678	fragile	-0.1784721
-4.104095	frame	-0.1208781
-4.104095	framed	-0.1208781
-3.788678	framing	-0.09474944
-4.104095	frayed	-0.1208781
-4.104095	freedom	-0.09574772
-3.977935	freezer	-0.1174097
-3.977935	freezing	-0.2446765
-4.104095	french	-0.1208781
-3.788678	fresh	-0.1117392
-3.649652	fridge	-0.1329994
-3.977935	friend	-0.09567283
-3.459916	friends	-0.07396017
-3.977935	fries	-0.08630621
-3.544504	frightened	-0.205305
-3.109894	frisbee	-0.1894294
-3.977935	frisbees	-0.2207724
-3.977935	frog	-0.109245
-4.104095	frolic	-0.1202128
-2.429167	from	-0.4430598
-3.459916	front	-0.08028928
-3.328313	fruit	-0.2193966
-3.649652	fruits	-0.1677587
-3.017474	full	-0.5198034
-3.649652	fun	-0.1092094
-4.104095	funny	-0.09574772
-4.104095	furnished	-0.1202128
-4.104095	furnishings	-0.1203997
-3.459916	furniture	-0.3297006
-4.104095	furry	-0.1206665
-4.104095	future	-0.1196518
-4.104095	futuristic	-0.1084955
-4.104095	gallavant	-0.1195716
-4.104095	gallops	-0.1208896
-4.104095	gam	-0.09574772
-3.109894	game	-0.2111106
-3.788678	games	-0.08367615
-4.104095	gaming	-0.1208265
-3.977935	garage	-0.2207724
-4.104095	garbage	-0.1120195
-3.977935	garden	-0.1131974
-4.104095	garland	-0.1120195
-4.104095	garment	-0.09574772
-3.977935	gas	-0.1207007
-4.104095	gate	-0.1189829
-3.788678	gather	-0.1620218
-3.649652	gathered	-0.2032342
-3.977935	gathers	-0.1144261
-4.104095	gave	-0.1207731
-3.977935	gay	-0.1119846
-4.104095	gaze	-0.1194379
-4.104095	gazes	-0.1191168
-4.104095	gazing	-0.09574772
-3.544504	gear	-0.124381
-4.104095	geese	-0.09574772
-4.104095	gentleman	-0.1084955
-4.104095	gesturing	-0.1206398
-3.459916	get	-0.08076695
-3.459916	gets	-0.1448724
-3.109894	getting	-0.3296507
-4.104095	ghost	-0.1207998
-4.104095	ghosts	-0.1207731
-4.104095	giant	-0.1208896
-4.104095	ginger	-0.1208896
-2.941311	giraffe	-0.2260353
-4.104095	giraffee	-0.1208781
-3.076853	giraffes	-0.1669269
-3.274961	girl	-0.1818855
-3.328313	girls	-0.0890341
-4.104095	give	-0.1205064
-3.977935	gives	-0.1065257
-3.459916	giving	-0.1043348
-4.104095	glaring	-0.1084955
-3.328313	glass	-0.1130811
-3.227453	glasses	-0.1605902
-4.104095	glazed	-0.1207998
-4.104095	gliding	-0.1194379
-4.104095	glimpse	-0.1195181
-3.389149	gloomy	-0.3933052
-3.977935	glove	-0.09835824
-4.104095	gloves	-0.1207998
-4.104095	glow	-0.1204797
-3.788678	go	-0.1035591
-4.104095	goal	-0.1084955
-3.459916	goats	-0.1429123
-4.104095	goers	-0.1194914
-3.788678	goes	-0.198118
-3.109894	going	-0.3399801
-4.104095	gold	-0.1208781
-4.104095	golf	-0.1084955
-4.104095	gone	-0.1193041
-3.389149	good	-0.1292991
-4.104095	gossips	-0.1187419
-3.328313	got	-0.1000988
-4.104095	government	-0.1208896
-4.104095	grabbing	-0.1125905
-4.104095	grabs	-0.1207198
-4.104095	graduated	-0.1193041
-4.104095	graduation	-0.09574772
-3.977935	graffiti	-0.1194743
-3.977935	grandfather	-0.2454243
-2.918628	grass	-0.147791
-3.977935	grassy	-0.1459342
-3.788678	grave	-0.1206399
-3.977935	gravel	-0.09564458
-4.104095	graveyard	-0.1174541
-4.104095	gravitational	-0.1208781
-4.104095	gravy	-0.1199457
-3.544504	gray	-0.1357204
-3.977935	graze	-0.1077364
-3.977935	grazes	-0.2335202
-3.017474	grazing	-0.2734642
-3.977935	great	-0.1199911
-2.990575	green	-0.08841971
-4.104095	greeneyed	-0.1200259
-3.977935	greens	-0.2207724
-3.977935	grids	-0.1196175
-3.977935	grieving	-0.1999451
-4.104095	grilling	-0.1202128
-4.104095	grimlooking	-0.1205331
-4.104095	grimy	-0.1120195
-4.104095	grinds	-0.1202128
-4.104095	gripping	-0.1125905
-4.104095	grocery	-0.1207998
-3.977935	groom	-0.109765
-4.104095	gross	-0.1207389
-3.649652	ground	-0.1520525
-4.104095	grounded	-0.1199457
-3.274961	group	-0.3725007
-4.104095	grouped	-0.1205064
-4.104095	grow	-0.1084955
-4.104095	growing	-0.1097281
-4.104095	growling	-0.1174541
-4.104095	growth	-0.1133235
-4.104095	guardrail	-0.1133235
-4.104095	guiding	-0.1193844
-3.788678	guitar	-0.1762032
-4.104095	gun	-0.1174541
-2.990575	guy	-0.1702027
-3.544504	guys	-0.09150135
-4.104095	habitat	-0.09574772
-2.918628	had	-0.2195752
-3.328313	hair	-0.1243652
-4.104095	haircut	-0.09574772
-3.544504	half	-0.1319079
-4.104095	halfeaten	-0.1203463
-4.104095	hall	-0.09574772
-3.649652	hallway	-0.2286727
-3.649652	hand	-0.1029771
-4.104095	handful	-0.1136218
-4.104095	handheld	-0.1208896
-4.104095	handicapped	-0.1208896
-4.104095	handing	-0.1097281
-4.104095	handle	-0.1125905
-3.977935	hands	-0.07112101
-4.104095	hangars	-0.1097281
-4.104095	hangers	-0.1097281
-3.145658	hanging	-0.1747701
-3.788678	hangs	-0.1186097
-4.104095	happening	-0.08614307
-4.104095	happens	-0.1154882
-4.104095	happily	-0.1084955
-3.788678	happy	-0.1180734
-4.104095	harassing	-0.1196785
-3.788678	harbor	-0.1484287
-3.076853	hard	-0.2391325
-4.104095	harden	-0.1208781
-3.977935	hardly	-0.1204722
-4.104095	harriet	-0.1208896
-4.104095	harry	-0.1208896
-3.649652	harsh	-0.2301499
-2.458798	has	-0.3605763
-4.104095	hash	-0.1208896
-3.184632	hat	-0.1677136
-3.544504	hats	-0.07841339
-2.941311	have	-0.3199638
-3.274961	having	-0.2443675
-3.977935	havoc	-0.2347527
-3.977935	hay	-0.08630621
-2.711621	he	-0.2159487
-3.017474	head	-0.1360934
-3.649652	heading	-0.1589345
-3.788678	heads	-0.1197698
-4.104095	healthy	-0.1174541
-4.104095	heater	-0.1120195
-4.104095	heavily	-0.1208896
-4.104095	heavy	-0.1208896
-4.104095	heights	-0.09574772
-3.977935	held	-0.1082033
-4.104095	heliport	-0.1200526
-3.977935	helmet	-0.1225694
-3.977935	helmets	-0.1207541
-3.788678	help	-0.1745382
-4.104095	helping	-0.1125905
-2.543145	her	-0.1088916
-3.649652	herd	-0.1712356
-4.104095	herding	-0.1206131
-3.544504	here	-0.1037454
-3.544504	herself	-0.1858103
-3.977935	hid	-0.113333
-3.649652	hidden	-0.1738866
-4.104095	hide	-0.1121474
-4.104095	hides	-0.1193844
-3.649652	hiding	-0.08119711
-3.389149	high	-0.1333833
-4.104095	highlighting	-0.1125905
-4.104095	highway	-0.1133235
-3.227453	hill	-0.2744114
-4.104095	hills	-0.09574772
-3.977935	hillside	-0.2207724
-4.104095	hilly	-0.1200526
-4.104095	hilton	-0.1084955
-3.076853	him	-0.2528256
-3.649652	himself	-0.158195
-4.104095	hind	-0.1208531
-2.451198	his	-0.1890859
-4.104095	history	-0.1136218
-3.788678	hit	-0.09813356
-4.104095	hite	-0.1198656
-4.104095	hits	-0.1125905
-3.328313	hitting	-0.315258
-4.104095	hockey	-0.1208531
-3.788678	hold	-0.1205784
-2.659936	holding	-0.4436158
-2.965245	holds	-0.5047836
-4.104095	hole	-0.1187151
-4.104095	holes	-0.09574772
-4.104095	holiday	-0.1208896
-3.544504	home	-0.09141877
-4.104095	homeless	-0.1206398
-4.104095	homework	-0.09574772
-4.104095	hood	-0.1136218
-3.788678	hooked	-0.3079405
-3.977935	hope	-0.1174822
-4.104095	hopefully	-0.1208781
-4.104095	horns	-0.1195181
-3.274961	horrible	-0.1587111
-4.104095	horrific	-0.1204797
-4.104095	horror	-0.1134415
-3.04615	horse	-0.1272381
-4.104095	horseback	-0.1084955
-3.145658	horses	-0.1130021
-4.104095	horsing	-0.1200259
-4.104095	hose	-0.1084955
-3.459916	hospital	-0.1971371
-3.649652	hot	-0.1441737
-4.104095	hotdog	-0.118018
-3.649652	hotel	-0.15258
-3.977935	hour	-0.08630621
-4.104095	hours	-0.09574772
-3.04615	house	-0.2265642
-4.104095	hovers	-0.1194379
-3.788678	how	-0.1088711
-4.104095	huddle	-0.1205064
-3.649652	huge	-0.117574
-4.104095	hugs	-0.1187419
-4.104095	human	-0.09574772
-4.104095	hunched	-0.1190633
-4.104095	hundred	-0.1208896
-4.104095	hundreds	-0.1136218
-3.649652	hungry	-0.2234233
-4.104095	hunk	-0.1136218
-4.104095	hunter	-0.1207998
-4.104095	hunting	-0.1186615
-4.104095	hurdle	-0.1097281
-4.104095	hurricane	-0.1207998
-4.104095	hurry	-0.1186615
-3.788678	hurt	-0.1074712
-4.104095	husband	-0.09574772
-4.104095	huts	-0.1097281
-4.104095	hydran	-0.1191168
-3.649652	hydrant	-0.0532838
-4.104095	hygiene	-0.1084955
-2.876534	i	-0.2340131
-4.104095	iam	-0.1204797
-3.544504	ice	-0.2614895
-4.104095	icing	-0.09574772
-3.788678	idiot	-0.1202031
-3.977935	idle	-0.1022338
-3.977935	idly	-0.1207291
-3.017474	if	-0.2371292
-3.977935	ignore	-0.1065257
-3.977935	ignored	-0.1176515
-3.977935	ignores	-0.1113211
-4.104095	ignoring	-0.1149751
-3.544504	ill	-0.3638568
-4.104095	illegal	-0.1207998
-4.104095	illuminate	-0.1125905
-3.977935	illuminates	-0.1062322
-3.184632	image	-0.7009047
-3.788678	images	-0.1672388
-4.104095	imagine	-0.1205864
-4.104095	imagining	-0.1191971
-4.104095	immigrants	-0.1203463
-4.104095	impatient	-0.1208265
-4.104095	impatiently	-0.1205864
-4.104095	importance	-0.1136218
-4.104095	important	-0.1203997
-4.104095	impoverished	-0.1206665
-1.549573	in	-0.678325
-4.104095	inanimate	-0.1199457
-4.104095	incase	-0.1136218
-3.977935	includes	-0.1917767
-3.977935	including	-0.1117392
-4.104095	incompetent	-0.1201861
-4.104095	indistinct	-0.1208531
-4.104095	individual	-0.1097281
-4.104095	indoor	-0.1202395
-4.104095	indoors	-0.09574772
-4.104095	industrial	-0.1204797
-4.104095	infected	-0.1203997
-4.104095	ingests	-0.1207465
-4.104095	injuries	-0.1174541
-4.104095	injury	-0.09574772
-3.649652	insane	-0.3533899
-2.941311	inside	-0.4533196
-4.104095	inspect	-0.1125905
-4.104095	inspectors	-0.1196518
-4.104095	inspects	-0.1125905
-4.104095	installation	-0.09574772
-3.788678	instead	-0.3060742
-4.104095	instructing	-0.1125905
-3.977935	int	-0.1141189
-4.104095	intently	-0.1190633
-4.104095	interacting	-0.1084955
-4.104095	intermingled	-0.1208781
-4.104095	internet	-0.09567283
-3.788678	intersection	-0.1280527
-2.490599	into	-0.5628098
-4.104095	investigating	-0.1125905
-3.788678	invisible	-0.3126385
-4.104095	invisibledead	-0.1201861
-4.104095	involuntarily	-0.1208896
-3.977935	ipod	-0.1726112
-4.104095	iron	-0.1206931
-1.903116	is	-0.2254112
-3.977935	island	-0.1185905
-3.459916	isnt	-0.1091291
-2.401429	it	-0.3011863
-4.104095	italian	-0.120373
-4.104095	item	-0.1136218
-3.544504	items	-0.1423254
-2.602936	its	-0.1530429
-3.977935	itself	-0.1631074
-4.104095	iv	-0.07425752
-4.104095	iwth	-0.1125905
-4.104095	jack	-0.1084955
-3.389149	jacket	-0.0556241
-4.104095	jackets	-0.09502257
-4.104095	jam	-0.1084955
-4.104095	jeans	-0.1201594
-3.977935	jersey	-0.1198482
-3.977935	jet	-0.1147971
-4.104095	jetliner	-0.1208896
-3.788678	jets	-0.1659772
-4.104095	jetty	-0.1208896
-3.788678	job	-0.07374185
-4.104095	jobless	-0.1201861
-4.104095	jockey	-0.1198923
-4.104095	jockeys	-0.1084955
-3.977935	journey	-0.09377588
-3.977935	judges	-0.119019
-4.104095	jugs	-0.1125905
-4.104095	juice	-0.09574772
-3.977935	jump	-0.09389075
-3.145658	jumping	-0.2804865
-3.459916	jumps	-0.2011122
-4.104095	jungle	-0.09574772
-3.788678	junk	-0.1113579
-3.184632	just	-0.09587531
-4.104095	justice	-0.09574772
-4.104095	kayaking	-0.1097281
-4.104095	keep	-0.1181883
-4.104095	keeping	-0.1187075
-4.104095	kennel	-0.1205864
-4.104095	kept	-0.1194379
-3.788678	keyboard	-0.135713
-3.977935	kick	-0.1108303
-3.788678	kicking	-0.09897549
-3.544504	kid	-0.08757679
-3.389149	kids	-0.09470366
-3.788678	kill	-0.1189481
-4.104095	killed	-0.1084955
-3.788678	kind	-0.3060742
-4.104095	kiss	-0.1149751
-2.990575	kitchen	-0.195449
-4.104095	kitcken	-0.09574772
-3.145658	kite	-0.1613593
-4.104095	kiteboarding	-0.1084955
-3.184632	kites	-0.08446693
-4.104095	kitten	-0.1191168
-4.104095	kitty	-0.1097376
-4.104095	kneels	-0.1190633
-4.104095	knees	-0.1200259
-4.104095	knife	-0.08614306
-4.104095	knives	-0.1186883
-4.104095	knobs	-0.1136218
-3.544504	know	-0.1153062
-4.104095	knowing	-0.09574772
-4.104095	labelled	-0.1203997
-4.104095	lack	-0.1136218
-3.977935	ladies	-0.1200085
-3.227453	lady	-0.1264738
-3.459916	lake	-0.2161817
-3.544504	lamp	-0.1290129
-4.104095	land	-0.09574772
-4.104095	landing	-0.1084955
-4.104095	lands	-0.1084955
-4.104095	landscape	-0.09279156
-4.104095	landscaping	-0.1196785
-4.104095	landslides	-0.09574772
-4.104095	lane	-0.1120195
-4.104095	language	-0.1191971
-3.977935	lap	-0.2207724
-3.274961	laptop	-0.1765772
-3.04615	large	-0.1350444
-3.977935	larger	-0.1200085
-4.104095	lasso	-0.1125905
-4.104095	last	-0.1206398
-4.104095	late	-0.1208896
-4.104095	later	-0.09574772
-4.104095	laughed	-0.1174541
-3.977935	lawn	-0.1203556
-3.459916	lay	-0.1948596
-2.897071	laying	-0.4776147
-3.227453	lays	-0.3385892
-3.184632	lazy	-0.5421258
-3.977935	lead	-0.0838746
-4.104095	leader	-0.1136218
-3.977935	leading	-0.2405129
-3.788678	leads	-0.1116575
-4.104095	leaf	-0.1127358
-4.104095	leaking	-0.1203196
-4.104095	leaks	-0.1193844
-4.104095	lean	-0.1208896
-4.104095	leaned	-0.1194379
-3.544504	leaning	-0.208868
-4.104095	leans	-0.1194379
-3.977935	leaps	-0.1029011
-3.788678	leash	-0.1524384
-4.104095	leashes	-0.09574772
-4.104095	least	-0.09395601
-3.649652	leather	-0.1785254
-4.104095	leave	-0.1208896
-3.328313	leaves	-0.2726953
-4.104095	leaving	-0.1205598
-3.788678	ledge	-0.1721282
-3.649652	left	-0.1385418
-4.104095	leg	-0.1194379
-4.104095	legged	-0.1189829
-3.788678	legs	-0.08420393
-4.104095	lemons	-0.1097281
-4.104095	lense	-0.09574772
-4.104095	leopard	-0.1203463
-4.104095	lesbian	-0.1208896
-3.977935	let	-0.114606
-4.104095	lick	-0.1125905
-4.104095	licking	-0.1198389
-3.977935	lid	-0.0941366
-3.977935	lie	-0.1094914
-3.977935	lies	-0.1861992
-3.544504	life	-0.06954679
-4.104095	lift	-0.08768962
-3.184632	light	-0.1213059
-3.977935	lighted	-0.1645561
-3.977935	lighthouse	-0.2207724
-3.977935	lighting	-0.1042604
-4.104095	lightly	-0.1206931
-3.274961	lights	-0.1418404
-2.918628	like	-0.2727723
-4.104095	likes	-0.1154882
-4.104095	lime	-0.1204797
-4.104095	limited	-0.1208265
-3.459916	line	-0.1014248
-3.328313	lined	-0.2486731
-4.104095	lines	-0.1207998
-4.104095	lingering	-0.1200259
-4.104095	lip	-0.1208531
-4.104095	lips	-0.1193844
-4.104095	listen	-0.1154882
-4.104095	listening	-0.1154882
-3.649652	lit	-0.06182526
-3.977935	littered	-0.1128716
-2.838161	little	-0.2678439
-4.104095	live	-0.1084955
-4.104095	lives	-0.1191168
-4.104095	livestock	-0.1208896
-3.145658	living	-0.530849
-3.977935	load	-0.1137126
-3.977935	loading	-0.1192698
-3.977935	located	-0.2347527
-4.104095	location	-0.1208781
-4.104095	lodge	-0.09574772
-4.104095	logs	-0.1084955
-3.977935	london	-0.07788448
-4.104095	lone	-0.1204264
-2.770298	lonely	-0.3042127
-4.104095	lonesome	-0.1202929
-3.328313	long	-0.1210699
-4.104095	longboard	-0.1097281
-4.104095	longer	-0.1205864
-4.104095	lonley	-0.1198656
-2.786296	look	-0.1676109
-3.649652	looked	-0.1773516
-2.533934	looking	-0.2733459
-2.647922	looks	-0.3887566
-4.104095	looming	-0.1196518
-4.104095	looms	-0.1203997
-4.104095	lose	-0.120453
-4.104095	loses	-0.1206931
-3.788678	losing	-0.3132788
-3.389149	lost	-0.135599
-3.649652	lot	-0.1124902
-3.649652	lots	-0.4310129
-4.104095	loudly	-0.1174541
-4.104095	love	-0.1207198
-4.104095	loving	-0.1208781
-3.977935	low	-0.1200886
-3.017474	luggage	-0.2591331
-3.788678	lunch	-0.1165584
-4.104095	lush	-0.1204797
-3.145658	lying	-0.4297968
-4.104095	machine	-0.09574772
-4.104095	macintosh	-0.1207998
-3.274961	mad	-0.2503899
-3.145658	made	-0.1985379
-4.104095	magnets	-0.1120195
-4.104095	major	-0.1207465
-3.389149	make	-0.2784409
-3.017474	makes	-0.2550139
-3.109894	making	-0.2147384
-3.977935	male	-0.1147426
-4.104095	malfunctioning	-0.1208265
-3.977935	mall	-0.09561633
-2.770298	man	-0.08673213
-4.104095	mand	-0.1120195
-4.104095	manhandling	-0.1208265
-3.788678	mans	-0.1194298
-3.145658	many	-0.1169437
-4.104095	marble	-0.1207465
-4.104095	margarita	-0.1205598
-3.977935	marina	-0.08768962
-4.104095	marion	-0.1208896
-3.544504	market	-0.1669015
-4.104095	marks	-0.1149751
-3.788678	marred	-0.09807737
-4.104095	married	-0.1208265
-3.977935	mascot	-0.1005888
-3.977935	mask	-0.1134415
-4.104095	masses	-0.1084955
-4.104095	massive	-0.1199016
-3.544504	match	-0.1541235
-4.104095	mates	-0.1208781
-3.977935	mattress	-0.1074341
-4.104095	mausoleum	-0.1204264
-3.227453	may	-0.1939953
-3.459916	me	-0.08491108
-3.977935	meadow	-0.1019276
-3.788678	meal	-0.1634469
-3.977935	mean	-0.1185905
-4.104095	meanders	-0.1194379
-4.104095	meanly	-0.1208896
-3.977935	means	-0.1152006
-3.544504	meat	-0.186047
-4.104095	meats	-0.1120195
-4.104095	medal	-0.1200793
-4.104095	media	-0.1208896
-4.104095	medical	-0.1208896
-4.104095	medicine	-0.09574772
-4.104095	melting	-0.1195716
-4.104095	members	-0.1198923
-4.104095	meme	-0.1207998
-4.104095	memorabilia	-0.09574772
-4.104095	memories	-0.1136218
-3.227453	men	-0.1402794
-4.104095	mental	-0.1207731
-4.104095	menu	-0.09574772
-4.104095	mercedes	-0.09574772
-4.104095	mercifully	-0.1208896
-4.104095	mess	-0.08800603
-3.977935	message	-0.1181714
-4.104095	messy	-0.1208265
-4.104095	met	-0.1191168
-3.977935	metal	-0.1192177
-3.788678	meter	-0.06888764
-4.104095	method	-0.1208896
-4.104095	mexico	-0.09574772
-4.104095	mickey	-0.1208896
-4.104095	microphone	-0.1201594
-4.104095	microwave	-0.09574772
-3.788678	mid	-0.2563198
-3.977935	midair	-0.09989972
-3.788678	middle	-0.1923966
-4.104095	midst	-0.1136218
-4.104095	midsummer	-0.1202929
-3.649652	might	-0.1786838
-3.977935	mileage	-0.08630621
-4.104095	military	-0.1208531
-3.649652	milk	-0.1442855
-3.977935	milking	-0.2376152
-4.104095	mill	-0.1203463
-4.104095	mini	-0.1205598
-4.104095	miniature	-0.1207198
-3.977935	mint	-0.1204455
-3.328313	mirror	-0.2339142
-4.104095	mirrored	-0.1206398
-4.104095	mirrors	-0.09414459
-3.788678	miserable	-0.3127453
-4.104095	miserably	-0.09574772
-4.104095	missed	-0.1208781
-3.788678	missing	-0.09418285
-4.104095	mitt	-0.1193844
-4.104095	mixed	-0.1084955
-4.104095	mixture	-0.1136218
-3.977935	mobile	-0.1196611
-3.544504	mock	-0.5348075
-3.788678	model	-0.08368149
-3.977935	modern	-0.1200445
-4.104095	modest	-0.1120195
-4.104095	modified	-0.1207465
-3.977935	mom	-0.1204455
-4.104095	moment	-0.09574772
-4.104095	mommy	-0.1206665
-4.104095	money	-0.1186615
-4.104095	monitor	-0.09337845
-3.977935	monkey	-0.08495746
-4.104095	months	-0.09574772
-4.104095	mood	-0.1205864
-3.459916	moody	-0.4375598
-3.977935	moored	-0.1821339
-4.104095	mopes	-0.1189829
-3.328313	more	-0.08418474
-3.977935	morgan	-0.1203388
-3.977935	morning	-0.2207724
-4.104095	morons	-0.1187151
-4.104095	mosaic	-0.1208265
-3.977935	most	-0.1196688
-4.104095	mostly	-0.1208896
-3.544504	mother	-0.1193114
-4.104095	motion	-0.120373
-4.104095	motionless	-0.1203997
-3.544504	motor	-0.1992048
-4.104095	motorboat	-0.1207465
-3.04615	motorcycle	-0.1125953
-3.459916	motorcycles	-0.1126495
-4.104095	motorcyclist	-0.1146601
-3.977935	motorcyclists	-0.1152546
-4.104095	motorcylcle	-0.1201861
-4.104095	motorycylist	-0.1120195
-3.328313	mountain	-0.1628914
-4.104095	mountainous	-0.1200526
-3.544504	mountains	-0.2049941
-4.104095	mounted	-0.1208265
-3.788678	mouse	-0.09498576
-3.459916	mouth	-0.1290975
-4.104095	mouths	-0.09574772
-3.977935	move	-0.1617991
-3.788678	moves	-0.106177
-4.104095	movig	-0.1208896
-3.227453	moving	-0.1365752
-3.788678	much	-0.1065923
-4.104095	mucking	-0.1203463
-3.109894	muddy	-0.6316745
-4.104095	mug	-0.1012406
-4.104095	mugs	-0.1183492
-4.104095	multi	-0.1206931
-4.104095	multicolored	-0.1206398
-3.649652	multiple	-0.1194218
-4.104095	murky	-0.1208265
-4.104095	mushrooms	-0.1204264
-3.788678	must	-0.1199894
-3.977935	mustang	-0.2455044
-3.459916	my	-0.1566985
-4.104095	nadal	-0.1205064
-4.104095	nails	-0.1084955
-3.977935	name	-0.08995692
-4.104095	named	-0.1206131
-4.104095	naming	-0.1136218
-4.104095	nap	-0.09574772
-4.104095	napping	-0.1097281
-4.104095	narrow	-0.1190645
-3.788678	nasty	-0.1189919
-4.104095	natural	-0.1208781
-3.788678	navigate	-0.1932976
-2.350763	near	-0.5946646
-3.544504	nearby	-0.1314481
-4.104095	nearempty	-0.1208896
-4.104095	nearly	-0.1207198
-4.104095	necessary	-0.1205331
-3.977935	neck	-0.1134686
-4.104095	necktoneck	-0.1084955
-3.328313	need	-0.2719234
-4.104095	needed	-0.1208531
-4.104095	needles	-0.09574772
-3.389149	needs	-0.326585
-3.977935	negative	-0.1207656
-3.977935	neon	-0.1197948
-4.104095	nervous	-0.1204264
-3.977935	nest	-0.08998555
-4.104095	net	-0.09574772
-3.649652	never	-0.1205577
-3.459916	new	-0.1193705
-4.104095	newer	-0.1208531
-4.104095	newly	-0.1206056
-3.788678	news	-0.09494758
-3.977935	newspaper	-0.1193501
-2.209185	next	-1.423939
-3.649652	nice	-0.1066194
-4.104095	niche	-0.1207731
-3.389149	night	-0.2404627
-4.104095	nightfall	-0.09574772
-4.104095	nightmare	-0.1187419
-4.104095	nightstand	-0.09574772
-4.104095	nine	-0.1205331
-3.788678	nintendo	-0.3132522
-3.017474	no	-0.1801579
-3.977935	nobody	-0.09527714
-4.104095	non	-0.1208265
-4.104095	nonchalantly	-0.1190633
-4.104095	nonetheless	-0.1196785
-4.104095	noon	-0.1208531
-3.788678	nose	-0.1531178
-2.754869	not	-0.1435448
-4.104095	notebook	-0.1203463
-4.104095	notepad	-0.09574772
-3.788678	nothing	-0.1749908
-4.104095	notice	-0.1149751
-4.104095	noticeably	-0.1208265
-4.104095	nourishment	-0.1193041
-3.459916	now	-0.1083497
-4.104095	nowalking	-0.1202395
-4.104095	nowhere	-0.09574772
-3.788678	number	-0.2489747
-3.788678	numbers	-0.07559103
-4.104095	nursing	-0.1193844
-4.104095	nuzzled	-0.118018
-4.104095	nuzzles	-0.1203997
-3.788678	obama	-0.1207982
-4.104095	object	-0.09574772
-3.977935	objects	-0.1083405
-4.104095	obnoxious	-0.09574772
-4.104095	obscures	-0.1125905
-4.104095	observers	-0.09574772
-4.104095	observing	-0.1120195
-4.104095	obvious	-0.1207731
-4.104095	occupants	-0.09574772
-4.104095	occupied	-0.1205598
-3.788678	ocean	-0.1638336
-3.977935	odd	-0.1194298
-1.777991	of	-0.341386
-2.786296	off	-0.2096062
-4.104095	offcamera	-0.1194914
-3.977935	offers	-0.2376152
-3.328313	office	-0.2177327
-3.977935	officer	-0.1041219
-3.977935	oil	-0.1204455
-4.104095	oilfilled	-0.1195716
-3.109894	old	-0.1283084
-3.459916	older	-0.1422072
-3.977935	olives	-0.1091903
-4.104095	omen	-0.09574772
-3.459916	ominous	-0.2500919
-1.594319	on	-0.7980887
-3.977935	once	-0.1200085
-4.104095	oncoming	-0.1208781
-2.711621	one	-0.0991345
-3.977935	ones	-0.09513573
-3.977935	onions	-0.1107211
-3.184632	only	-0.2016459
-3.459916	onto	-0.4853412
-3.076853	open	-0.09419068
-4.104095	opened	-0.1149751
-4.104095	opening	-0.1154882
-4.104095	opens	-0.1193844
-3.977935	opponent	-0.09513573
-4.104095	opposing	-0.1208781
-2.918628	or	-0.10892
-4.104095	oral	-0.1208896
-3.017474	orange	-0.0920442
-3.649652	oranges	-0.2113309
-4.104095	orchestra	-0.1084955
-3.788678	order	-0.1692183
-4.104095	oscillating	-0.1208896
-3.977935	ostrich	-0.1194204
-4.104095	othello	-0.1154612
-3.109894	other	-0.07560216
-3.544504	others	-0.1315307
-3.977935	otherwise	-0.1208439
-4.104095	our	-0.1205864
-2.38173	out	-0.2914957
-4.104095	outcome	-0.1136218
-4.104095	outcrop	-0.1136218
-3.977935	outdated	-0.09561633
-3.649652	outdoor	-0.1187394
-3.544504	outdoors	-0.5100488
-4.104095	outfield	-0.09574772
-4.104095	outfit	-0.09574772
-2.533934	outside	-0.384887
-3.649652	oven	-0.1598268
-2.466532	over	-0.5186266
-4.104095	overall	-0.1207465
-4.104095	overcast	-0.120409
-4.104095	overcrowded	-0.1205331
-3.977935	overhead	-0.1202488
-4.104095	overload	-0.1208265
-3.649652	overlooking	-0.1705296
-3.977935	overly	-0.2458511
-4.104095	overview	-0.1202395
-4.104095	overweight	-0.1199725
-4.104095	owlshaped	-0.1207198
-3.977935	own	-0.1109217
-3.649652	owner	-0.1198516
-3.977935	owners	-0.09533369
-4.104095	oxen	-0.1205064
-4.104095	pack	-0.1205331
-3.977935	package	-0.09431466
-3.788678	paddle	-0.1749321
-3.977935	paddling	-0.2445962
-3.389149	painted	-0.1410287
-3.977935	painting	-0.1058915
-4.104095	paintings	-0.1194379
-3.977935	pair	-0.2386465
-4.104095	pairs	-0.1205064
-4.104095	pajamas	-0.09574772
-3.788678	palm	-0.1993481
-4.104095	pan	-0.09574772
-4.104095	paneling	-0.1120195
-3.977935	pants	-0.2370442
-3.389149	paper	-0.1456399
-4.104095	para	-0.1208896
-3.788678	parade	-0.1617991
-4.104095	parallel	-0.1201861
-4.104095	parallels	-0.1187419
-4.104095	parasail	-0.1189829
-4.104095	parasailing	-0.1084955
-3.649652	parents	-0.09356867
-4.104095	paris	-0.09574772
-3.184632	park	-0.1862718
-2.770298	parked	-0.3099765
-3.227453	parking	-0.2608514
-3.977935	parks	-0.1080111
-4.104095	parlour	-0.1207731
-3.788678	part	-0.3060742
-4.104095	partial	-0.1206931
-4.104095	partially	-0.1207465
-4.104095	particular	-0.1208781
-3.977935	partly	-0.1208074
-4.104095	partner	-0.1208265
-4.104095	parts	-0.09574772
-3.544504	party	-0.119416
-4.104095	passed	-0.1198389
-3.544504	passenger	-0.3039437
-4.104095	passengers	-0.09574772
-4.104095	passerby	-0.1154882
-3.788678	passes	-0.1186271
-3.544504	passing	-0.1812634
-3.04615	past	-0.3519855
-4.104095	pasta	-0.1199457
-3.544504	pasture	-0.2279633
-4.104095	patch	-0.1136218
-3.977935	path	-0.2207724
-4.104095	pathway	-0.1195716
-4.104095	patiently	-0.1186615
-3.649652	patio	-0.08756584
-3.977935	patterned	-0.1207024
-4.104095	pause	-0.09574772
-3.977935	paved	-0.1987335
-4.104095	paw	-0.0838746
-4.104095	paws	-0.1204264
-4.104095	pay	-0.1208531
-4.104095	peacoat	-0.1120195
-3.977935	pears	-0.08630621
-4.104095	peck	-0.1206398
-4.104095	pecking	-0.1174541
-4.104095	pedal	-0.1154882
-4.104095	pedestal	-0.1115935
-4.104095	pedestrian	-0.1201153
-4.104095	pedophile	-0.1208265
-4.104095	peeking	-0.1191168
-4.104095	peering	-0.1195716
-3.788678	peers	-0.1964813
-3.977935	pen	-0.09335998
-2.659936	people	-0.1893184
-4.104095	pepper	-0.1120195
-4.104095	pepperoni	-0.1120195
-3.977935	perch	-0.1096282
-3.788678	perched	-0.3021804
-4.104095	perches	-0.1097281
-4.104095	perfect	-0.09574772
-3.977935	perform	-0.108597
-3.788678	performing	-0.1119841
-4.104095	performs	-0.1125905
-4.104095	perilously	-0.1207198
-3.389149	permanent	-0.3377376
-4.104095	permission	-0.09574772
-4.104095	persom	-0.1097281
-3.184632	person	-0.06458062
-4.104095	persona	-0.09574772
-3.977935	personal	-0.1207558
-4.104095	persons	-0.1205864
-4.104095	pet	-0.1205598
-3.977935	petting	-0.1202221
-3.328313	phone	-0.172213
-4.104095	phones	-0.09574772
-4.104095	phonw	-0.1133235
-3.04615	photo	-0.3262641
-3.977935	photograph	-0.1672388
-3.788678	photographed	-0.08755578
-3.977935	photographer	-0.1147412
-4.104095	photographers	-0.120453
-3.977935	photographs	-0.1075715
-3.977935	photography	-0.2207724
-3.788678	photos	-0.3060742
-4.104095	piano	-0.1120195
-4.104095	pick	-0.1194379
-3.977935	picket	-0.1200886
-3.977935	pickle	-0.2370442
-3.977935	picks	-0.1089985
-4.104095	pickup	-0.1204264
-4.104095	picnic	-0.09463618
-2.802906	picture	-0.2827156
-4.104095	pictured	-0.118018
-3.544504	pictures	-0.1250712
-4.104095	pie	-0.113044
-3.788678	piece	-0.3060742
-3.788678	pieces	-0.1672388
-4.104095	pig	-0.1120195
-4.104095	pigeons	-0.1208781
-4.104095	pile	-0.1130888
-3.977935	pillow	-0.1438541
-3.977935	pillows	-0.2207724
-4.104095	pilot	-0.1133235
-3.544504	pink	-0.1081995
-4.104095	pinkish	-0.1206131
-3.977935	pipe	-0.08256632
-3.788678	pitch	-0.1691897
-4.104095	pitched	-0.1207465
-4.104095	pitcher	-0.1139293
-4.104095	pity	-0.1207465
-3.076853	pizza	-0.128008
-3.977935	pizzas	-0.1199551
-3.389149	place	-0.1238501
-3.544504	placed	-0.2053686
-4.104095	placing	-0.1187419
-3.788678	plain	-0.1658555
-4.104095	plan	-0.1154882
-3.076853	plane	-0.1297704
-4.104095	planes	-0.1084955
-3.544504	plant	-0.1632361
-3.977935	planter	-0.1746513
-3.389149	plants	-0.2364391
-4.104095	plastic	-0.1207291
-3.145658	plate	-0.2290089
-3.328313	plates	-0.1967349
-3.459916	platform	-0.1356742
-4.104095	platter	-0.09574772
-4.104095	platters	-0.1136218
-3.389149	play	-0.1732195
-4.104095	played	-0.1205864
-3.649652	player	-0.1553663
-3.788678	players	-0.09524897
-4.104095	playful	-0.1198656
-4.104095	playground	-0.09574772
-2.786296	playing	-0.2843137
-3.389149	plays	-0.2131767
-4.104095	plaza	-0.09574772
-4.104095	pleasure	-0.09574772
-4.104095	plush	-0.1206131
-4.104095	plying	-0.1207465
-4.104095	poachers	-0.1203463
-4.104095	pocket	-0.09574772
-4.104095	pockets	-0.1208531
-4.104095	poignantly	-0.1208781
-4.104095	point	-0.1200793
-3.788678	pointing	-0.07450525
-3.977935	points	-0.1046024
-4.104095	pointy	-0.1203997
-4.104095	poised	-0.1154882
-3.977935	poison	-0.1154419
-4.104095	poisonous	-0.1208896
-4.104095	poked	-0.1194379
-4.104095	pokes	-0.1195716
-3.649652	polar	-0.4380309
-3.977935	pole	-0.06731828
-3.977935	poles	-0.1617991
-4.104095	policemen	-0.1198923
-4.104095	pollution	-0.09574772
-4.104095	pond	-0.1199457
-4.104095	pontoons	-0.1206665
-4.104095	pony	-0.09463618
-3.977935	pool	-0.08800603
-2.965245	poor	-0.2850724
-3.977935	poorly	-0.1205981
-4.104095	populated	-0.118018
-4.104095	population	-0.09574772
-4.104095	porcelain	-0.1208896
-4.104095	porch	-0.09289537
-4.104095	portraits	-0.1206931
-3.788678	pose	-0.09457955
-3.788678	posed	-0.1283509
-3.328313	poses	-0.1990306
-3.328313	posing	-0.2601208
-4.104095	possessed	-0.09574772
-4.104095	possession	-0.1154612
-3.544504	post	-0.1948806
-3.977935	posted	-0.1869692
-3.977935	posters	-0.1094093
-4.104095	postmodern	-0.1208781
-3.788678	pot	-0.1711913
-3.977935	potatoes	-0.2404859
-3.788678	pots	-0.1116575
-4.104095	potted	-0.1207998
-4.104095	potter	-0.1208265
-4.104095	pounce	-0.1174541
-4.104095	pound	-0.09574772
-3.977935	poured	-0.1180273
-4.104095	pouring	-0.1208531
-3.977935	pours	-0.1189923
-3.977935	powdered	-0.1192599
-4.104095	power	-0.1208896
-4.104095	powered	-0.1205598
-4.104095	powers	-0.1136218
-3.977935	practically	-0.1186709
-4.104095	practice	-0.09574772
-3.977935	practices	-0.1207389
-4.104095	practicing	-0.1207198
-4.104095	precariously	-0.1207198
-4.104095	prepare	-0.1197854
-3.649652	prepares	-0.1711913
-3.977935	preparing	-0.1148764
-4.104095	presence	-0.1136218
-3.977935	presentation	-0.2386465
-4.104095	presents	-0.1125905
-4.104095	preserve	-0.09574772
-4.104095	presses	-0.1196785
-4.104095	pretending	-0.1154882
-3.977935	pretty	-0.1144532
-4.104095	prevented	-0.1205598
-3.649652	prickly	-0.2254684
-4.104095	pride	-0.1208531
-4.104095	prime	-0.1120195
-4.104095	private	-0.1208265
-4.104095	prize	-0.09574772
-4.104095	probably	-0.1208781
-3.649652	produce	-0.09388082
-4.104095	professional	-0.1206398
-4.104095	progress	-0.1208896
-4.104095	projected	-0.1207731
-4.104095	projects	-0.1120195
-4.104095	prop	-0.1205598
-4.104095	propeled	-0.118018
-4.104095	propeller	-0.1208896
-4.104095	proper	-0.1198923
-4.104095	propped	-0.1194379
-4.104095	propulsion	-0.1186615
-3.977935	protect	-0.1188316
-3.977935	protection	-0.118778
-4.104095	protesting	-0.1149751
-4.104095	protruding	-0.09574772
-4.104095	provides	-0.1208896
-3.459916	public	-0.1364905
-3.977935	pull	-0.1843787
-4.104095	pulled	-0.118018
-3.649652	pulling	-0.1573987
-3.788678	pulls	-0.1046397
-4.104095	punching	-0.1193844
-4.104095	punished	-0.1186615
-3.977935	puppies	-0.08256632
-4.104095	puppy	-0.1182326
-3.649652	purple	-0.1088378
-4.104095	purpose	-0.1208781
-4.104095	purposes	-0.1136218
-3.977935	purses	-0.09411624
-4.104095	pursuit	-0.09574772
-4.104095	pushed	-0.1149751
-3.977935	pushes	-0.1200352
-3.544504	put	-0.1513933
-3.977935	puts	-0.1149404
-3.977935	putting	-0.1198465
-4.104095	quarry	-0.09574772
-4.104095	queuing	-0.1207198
-4.104095	quick	-0.1208531
-3.977935	quickly	-0.09567283
-3.977935	quiet	-0.1198041
-4.104095	quietly	-0.1097281
-3.788678	quite	-0.1113579
-4.104095	quote	-0.1199457
-3.977935	race	-0.09515834
-4.104095	races	-0.1190633
-3.977935	racing	-0.09553155
-3.544504	rack	-0.1498316
-3.788678	racket	-0.1036356
-3.788678	racquet	-0.1341165
-4.104095	radio	-0.1120195
-4.104095	rafael	-0.1208896
-4.104095	raft	-0.09574772
-4.104095	rafters	-0.09574772
-4.104095	rage	-0.1208531
-3.788678	rail	-0.08322489
-4.104095	railing	-0.09574772
-3.977935	railroad	-0.1201954
-4.104095	railway	-0.1207465
-3.184632	rain	-0.1507598
-3.977935	rainbow	-0.1202755
-4.104095	raining	-0.1196518
-4.104095	raised	-0.1097281
-4.104095	rake	-0.1189829
-4.104095	rally	-0.1154612
-3.649652	ramp	-0.1281398
-4.104095	rams	-0.1205598
-4.104095	ran	-0.1205331
-4.104095	random	-0.1208896
-4.104095	range	-0.09574772
-4.104095	rapids	-0.1084955
-4.104095	rate	-0.1194914
-4.104095	rated	-0.1208531
-3.649652	rather	-0.1745333
-4.104095	ravine	-0.1204264
-3.977935	raw	-0.1201972
-4.104095	rd	-0.1120195
-4.104095	reach	-0.1205331
-4.104095	reaches	-0.1186615
-3.977935	reaching	-0.1184833
-4.104095	reaction	-0.1191168
-4.104095	reacts	-0.1208896
-3.977935	read	-0.120489
-3.649652	reading	-0.1999611
-4.104095	reads	-0.1208212
-3.328313	ready	-0.401625
-3.977935	real	-0.09550329
-4.104095	reality	-0.1136218
-3.544504	really	-0.1610024
-4.104095	rear	-0.1208531
-4.104095	reason	-0.09574772
-4.104095	received	-0.1202929
-3.977935	reclining	-0.2347527
-4.104095	recorder	-0.09574772
-4.104095	recording	-0.1125905
-4.104095	recovering	-0.1193041
-4.104095	recquet	-0.1084955
-4.104095	rectangular	-0.1208781
-2.990575	red	-0.1367039
-4.104095	reevaluates	-0.1196785
-4.104095	reflected	-0.1084955
-3.977935	reflecting	-0.1037158
-3.977935	reflection	-0.2386465
-3.977935	reflects	-0.1184297
-4.104095	refrigeration	-0.1120195
-3.459916	refrigerator	-0.1689167
-4.104095	refrigeratorfreezer	-0.1208896
-4.104095	refrigerators	-0.1182326
-4.104095	reigns	-0.118018
-4.104095	relations	-0.1208781
-4.104095	relatively	-0.1204264
-3.977935	remains	-0.1135753
-4.104095	remarks	-0.1193041
-3.649652	remote	-0.1615865
-4.104095	removal	-0.1208896
-4.104095	renovating	-0.1125905
-4.104095	renovation	-0.1084955
-4.104095	rent	-0.1199457
-3.977935	repair	-0.08630621
-4.104095	repeatedly	-0.1207465
-3.788678	replaced	-0.10637
-4.104095	reporter	-0.1207998
-4.104095	reports	-0.09574772
-4.104095	representing	-0.1149751
-4.104095	repurposing	-0.1191971
-4.104095	residential	-0.1205064
-4.104095	residents	-0.1131974
-4.104095	resort	-0.09574772
-4.104095	responsible	-0.1186615
-4.104095	rest	-0.108066
-3.459916	restaurant	-0.1964356
-4.104095	restaurants	-0.1196785
-3.328313	resting	-0.4099276
-3.977935	restroom	-0.09571148
-3.649652	rests	-0.09512722
-3.977935	result	-0.2386465
-4.104095	resulting	-0.1084955
-4.104095	retail	-0.1200526
-4.104095	retro	-0.1208781
-4.104095	return	-0.08691199
-3.977935	returns	-0.2399997
-4.104095	reveal	-0.1149751
-4.104095	revealing	-0.1196785
-3.977935	reveals	-0.1065257
-4.104095	revels	-0.1084955
-4.104095	rhino	-0.1186807
-4.104095	rickety	-0.1206665
-3.184632	ride	-0.184977
-3.649652	rider	-0.08597172
-3.649652	riders	-0.1071879
-3.076853	rides	-0.3389834
-3.788678	ridiculous	-0.1199911
-2.624846	riding	-0.4268261
-4.104095	rig	-0.1193844
-3.389149	right	-0.05504441
-3.788678	ring	-0.116693
-4.104095	riot	-0.09574772
-4.104095	ripe	-0.1207731
-4.104095	ripped	-0.1202128
-4.104095	riptide	-0.1195716
-3.977935	rises	-0.1189923
-3.977935	rising	-0.1191797
-3.544504	river	-0.189723
-4.104095	riverboat	-0.09574772
-2.897071	road	-0.1641162
-4.104095	roads	-0.09574772
-3.788678	roadway	-0.1078816
-4.104095	roam	-0.1149751
-3.977935	rock	-0.1194685
-4.104095	rocking	-0.1206131
-3.649652	rocks	-0.1145285
-3.977935	rocky	-0.1652253
-4.104095	rodeo	-0.09574772
-4.104095	role	-0.1202128
-4.104095	roll	-0.1136218
-4.104095	rolling	-0.1193844
-3.977935	rolls	-0.1183492
-4.104095	rome	-0.1206665
-4.104095	roof	-0.09574772
-2.786296	room	-0.3368897
-4.104095	rooms	-0.119919
-4.104095	roots	-0.09574772
-3.977935	rose	-0.08995692
-3.788678	roses	-0.09148332
-3.788678	rots	-0.1882861
-2.802906	rotten	-0.5107561
-4.104095	rotting	-0.1097281
-3.328313	rough	-0.3677586
-3.649652	round	-0.1125765
-3.788678	row	-0.1672388
-4.104095	rub	-0.09574772
-3.977935	rubbing	-0.244409
-4.104095	rubs	-0.1198389
-4.104095	rug	-0.1208781
-4.104095	ruin	-0.1196785
-4.104095	ruined	-0.1149751
-3.977935	ruins	-0.1065257
-4.104095	rules	-0.09574772
-3.389149	run	-0.2095294
-4.104095	runner	-0.1198389
-3.227453	running	-0.1202118
-3.788678	runs	-0.1172135
-3.649652	runway	-0.1207657
-3.977935	rural	-0.120098
-4.104095	rushes	-0.1190633
-4.104095	rusted	-0.1120195
-3.788678	rusty	-0.1196263
-3.977935	rv	-0.1208324
-4.104095	s	-0.1204797
-2.990575	sad	-0.2484143
-4.104095	sadder	-0.1206131
-4.104095	saddled	-0.1208531
-4.104095	sadly	-0.1208781
-4.104095	safe	-0.1186615
-3.788678	safety	-0.1999352
-4.104095	said	-0.1154882
-4.104095	sailing	-0.1097281
-4.104095	sails	-0.1205331
-3.788678	salad	-0.1269549
-4.104095	salmon	-0.1084955
-4.104095	salvage	-0.1125905
-4.104095	same	-0.1190722
-4.104095	samples	-0.1097281
-4.104095	sanctuary	-0.1195181
-3.788678	sand	-0.106309
-3.459916	sandwich	-0.2221664
-4.104095	sandwiches	-0.1097281
-4.104095	sandy	-0.1206931
-4.104095	santa	-0.1133235
-3.649652	sat	-0.0934267
-3.649652	saturated	-0.3533899
-4.104095	sauce	-0.1097281
-4.104095	sauces	-0.09574772
-3.977935	sausage	-0.120514
-4.104095	saw	-0.1187419
-3.977935	say	-0.1183492
-3.977935	says	-0.1203654
-4.104095	scale	-0.1125905
-4.104095	scales	-0.1125905
-3.459916	scared	-0.2202032
-4.104095	scarf	-0.1119202
-3.977935	scaring	-0.2399997
-3.328313	scary	-0.2230359
-3.544504	scene	-0.1382506
-4.104095	scenic	-0.1204797
-3.649652	school	-0.1382283
-3.649652	scissors	-0.4131388
-3.977935	scooter	-0.2207724
-4.104095	scores	-0.1136218
-4.104095	scowls	-0.1208896
-4.104095	scrambled	-0.1202395
-4.104095	scraper	-0.09574772
-4.104095	scratch	-0.1206398
-4.104095	scratching	-0.1196785
-4.104095	scratchy	-0.1206665
-3.649652	screaming	-0.3124609
-3.649652	screen	-0.1335804
-4.104095	screensaver	-0.0838746
-4.104095	scrunched	-0.1194379
-3.788678	sea	-0.1530046
-3.977935	seagulls	-0.1005888
-4.104095	seance	-0.1174541
-4.104095	search	-0.1136218
-3.977935	searches	-0.1182151
-4.104095	seaside	-0.1097281
-4.104095	season	-0.09574772
-3.328313	seat	-0.09648719
-3.544504	seated	-0.1362208
-3.977935	seating	-0.09482447
-3.977935	seats	-0.09340685
-4.104095	second	-0.1206665
-3.788678	secondary	-0.3132788
-4.104095	secrets	-0.1136218
-3.459916	see	-0.08388036
-4.104095	seeing	-0.1208531
-3.977935	seem	-0.2405129
-4.104095	seemed	-0.1154882
-3.649652	seemingly	-0.1200103
-3.977935	seems	-0.2405129
-3.389149	seen	-0.1121421
-4.104095	seeping	-0.1195716
-4.104095	sees	-0.1125905
-3.649652	selfie	-0.1517713
-4.104095	selfish	-0.1205864
-4.104095	selfobsessed	-0.1203997
-4.104095	sell	-0.1208896
-4.104095	semi	-0.1204264
-4.104095	sensation	-0.1186615
-4.104095	sense	-0.1154882
-4.104095	separate	-0.1207998
-4.104095	serious	-0.1196518
-3.977935	serve	-0.06743889
-3.459916	served	-0.104719
-4.104095	servers	-0.1120195
-4.104095	serves	-0.1194914
-4.104095	service	-0.09574772
-3.544504	serving	-0.1106371
-3.649652	set	-0.09892921
-4.104095	setting	-0.09574772
-4.104095	seven	-0.1206665
-3.274961	several	-0.1341832
-4.104095	shade	-0.086788
-4.104095	shades	-0.1136218
-3.649652	shadow	-0.1087704
-4.104095	shadowed	-0.118018
-4.104095	shadows	-0.09574772
-4.104095	shadowy	-0.1208265
-3.977935	shakes	-0.2444625
-4.104095	shall	-0.1207465
-3.184632	shallow	-0.6955556
-4.104095	shame	-0.1200793
-4.104095	shape	-0.08630621
-4.104095	shaped	-0.1205864
-4.104095	shapes	-0.1091903
-3.977935	share	-0.1114846
-4.104095	shark	-0.09571148
-4.104095	shaved	-0.1205064
-4.104095	shaves	-0.1084955
-3.977935	shaving	-0.244409
-3.389149	she	-0.1491013
-3.184632	sheep	-0.1657555
-4.104095	sheer	-0.1208265
-4.104095	sheet	-0.1208896
-4.104095	sheets	-0.09574772
-3.977935	shelf	-0.07425752
-3.977935	shelter	-0.113821
-3.977935	shelves	-0.2207724
-4.104095	shelving	-0.1208896
-4.104095	shines	-0.1061495
-3.977935	shining	-0.1735474
-4.104095	shiny	-0.1208781
-3.977935	ship	-0.1942713
-4.104095	shipper	-0.09574772
-3.076853	shirt	-0.1270503
-4.104095	shocking	-0.1202662
-4.104095	shoe	-0.09574772
-4.104095	shoot	-0.09574772
-3.977935	shop	-0.09335005
-4.104095	shopped	-0.1202395
-4.104095	shoppers	-0.1174541
-3.977935	shopping	-0.1186156
-4.104095	shops	-0.08630621
-3.544504	shore	-0.1265011
-4.104095	shoreline	-0.09574772
-3.649652	short	-0.1186995
-4.104095	shortage	-0.1136218
-4.104095	shorts	-0.1205789
-3.788678	shot	-0.1810977
-3.274961	should	-0.2159221
-4.104095	shoves	-0.1187419
-3.788678	show	-0.1985195
-4.104095	showcased	-0.1186615
-4.104095	showed	-0.1149751
-3.184632	shower	-0.3359521
-3.544504	showing	-0.1522293
-3.788678	shown	-0.09877156
-3.274961	shows	-0.2087383
-3.977935	shrimp	-0.1119474
-4.104095	shuttle	-0.1207198
-3.389149	shy	-0.2347628
-4.104095	sibling	-0.1084955
-3.544504	sick	-0.1721196
-3.04615	side	-0.1843402
-4.104095	sidebyside	-0.1208896
-4.104095	sides	-0.09574772
-3.459916	sidewalk	-0.238163
-4.104095	sideways	-0.1097281
-2.802906	sign	-0.1536106
-4.104095	signage	-0.1154882
-4.104095	signal	-0.08305228
-4.104095	signals	-0.1097281
-3.274961	signs	-0.1233363
-4.104095	siking	-0.1084955
-4.104095	silently	-0.1208781
-3.977935	sill	-0.1378304
-3.109894	silly	-0.2475559
-3.649652	silver	-0.1197698
-4.104095	silverware	-0.09574772
-3.977935	simple	-0.1201954
-3.977935	since	-0.2457711
-4.104095	singin	-0.1084955
-3.649652	single	-0.1787487
-4.104095	sings	-0.1120195
-4.104095	sinister	-0.1208896
-3.017474	sink	-0.3539128
-3.649652	sinks	-0.1339847
-4.104095	sister	-0.1084955
-2.802906	sit	-0.4353987
-4.104095	sititing	-0.1084955
-2.38173	sits	-0.4056104
-2.289533	sitting	-0.5418867
-4.104095	situated	-0.118018
-4.104095	six	-0.1205864
-4.104095	sixth	-0.1208265
-3.544504	skate	-0.1907714
-3.227453	skateboard	-0.125973
-4.104095	skateboarder	-0.1199569
-4.104095	skateboarders	-0.1202128
-3.544504	skateboarding	-0.1517797
-3.459916	skateboards	-0.1157712
-4.104095	skates	-0.1200259
-3.977935	skating	-0.1185905
-3.04615	ski	-0.1685761
-4.104095	skidded	-0.1202128
-3.544504	skier	-0.1151001
-3.328313	skiers	-0.08774516
-3.649652	skies	-0.1567519
-4.104095	skiier	-0.1206224
-4.104095	skiiing	-0.1125905
-3.04615	skiing	-0.2998393
-4.104095	skill	-0.1208781
-4.104095	skillet	-0.1133235
-3.977935	skills	-0.1125457
-4.104095	skin	-0.1195181
-4.104095	skinny	-0.1120195
-3.145658	skis	-0.1907615
-3.184632	sky	-0.1508472
-4.104095	skyscraper	-0.09574772
-4.104095	slaloming	-0.09574772
-4.104095	sled	-0.09574772
-4.104095	sleek	-0.1200526
-3.977935	sleep	-0.1092998
-3.274961	sleeping	-0.2133519
-4.104095	sleeps	-0.1084955
-4.104095	sleeveless	-0.1207998
-3.649652	slice	-0.2108319
-3.788678	slices	-0.1913162
-3.977935	slides	-0.1176515
-4.104095	slightly	-0.1084955
-4.104095	slis	-0.1208531
-3.977935	slop	-0.1058915
-3.544504	slope	-0.1601047
-4.104095	slopes	-0.0838746
-4.104095	slow	-0.1202395
-3.977935	slowly	-0.1208554
-4.104095	slumber	-0.1133235
-4.104095	slumped	-0.1084955
-4.104095	slumps	-0.1097281
-3.109894	small	-0.1115803
-3.977935	smaller	-0.1200335
-3.977935	smart	-0.1205691
-4.104095	smelled	-0.118018
-4.104095	smells	-0.1203997
-3.977935	smile	-0.09697045
-4.104095	smiles	-0.09574772
-3.544504	smiling	-0.1857296
-3.788678	smoke	-0.1749443
-4.104095	smothers	-0.1149751
-4.104095	snacks	-0.09574772
-4.104095	sniffing	-0.1205598
-3.977935	sniffs	-0.2424788
-3.04615	snow	-0.1470895
-3.649652	snowboard	-0.07849147
-3.788678	snowboarder	-0.09723475
-3.977935	snowboarding	-0.09425798
-3.788678	snowboards	-0.1428125
-3.544504	snowy	-0.160205
-4.104095	snuggling	-0.1133235
-3.389149	so	-0.1116856
-4.104095	soaked	-0.09574772
-4.104095	soap	-0.09574772
-3.788678	soaring	-0.1982786
-3.459916	soccer	-0.1751669
-4.104095	socks	-0.1205064
-4.104095	soda	-0.1097281
-3.389149	sofa	-0.1376711
-3.977935	sofas	-0.1111671
-3.977935	softball	-0.1093819
-3.977935	solitary	-0.1199818
-2.582077	some	-0.1644876
-4.104095	somebody	-0.1154882
-3.459916	someone	-0.08669373
-3.977935	someones	-0.1196268
-3.227453	something	-0.09659311
-4.104095	somewhat	-0.1205864
-4.104095	son	-0.09574772
-4.104095	sons	-0.1084955
-3.274961	soon	-0.1932035
-3.649652	sore	-0.3531596
-4.104095	sort	-0.1134144
-3.977935	sour	-0.1206584
-4.104095	source	-0.09574772
-3.977935	southwest	-0.1205691
-3.544504	space	-0.08492228
-4.104095	sparse	-0.1207731
-4.104095	speaker	-0.1208896
-3.977935	speaking	-0.1041496
-4.104095	speaks	-0.1195181
-4.104095	spectator	-0.1208781
-3.977935	spectators	-0.1132887
-3.977935	speed	-0.09564458
-4.104095	speeds	-0.1205331
-4.104095	spelling	-0.1206665
-4.104095	spends	-0.1125905
-4.104095	spewing	-0.1191168
-3.788678	spices	-0.09566306
-4.104095	spill	-0.1208531
-4.104095	splendor	-0.1136218
-4.104095	split	-0.1202395
-4.104095	spoiled	-0.118018
-3.977935	spooky	-0.1192064
-3.977935	spoon	-0.0682913
-4.104095	sport	-0.09574772
-4.104095	sporting	-0.1125905
-3.649652	spot	-0.0697332
-3.977935	spotted	-0.111648
-4.104095	spreads	-0.1208265
-3.977935	sprout	-0.120409
-4.104095	squints	-0.1208896
-4.104095	st	-0.09574772
-4.104095	stack	-0.1136218
-4.104095	stacked	-0.1204797
-4.104095	stadium	-0.1133235
-4.104095	stage	-0.09574772
-4.104095	stain	-0.1097281
-3.977935	stained	-0.1910441
-4.104095	stainless	-0.1196518
-3.649652	stairs	-0.09143249
-4.104095	stale	-0.1207998
-4.104095	stalls	-0.09574772
-4.104095	stance	-0.1152816
-3.109894	stand	-0.2053171
-2.490599	standing	-0.5586846
-2.754869	stands	-0.3137799
-3.977935	stare	-0.1163874
-3.977935	stared	-0.2424788
-3.788678	stares	-0.1741544
-3.788678	staring	-0.3099064
-3.977935	starting	-0.2405129
-4.104095	starvation	-0.1154612
-4.104095	starving	-0.1205864
-3.389149	station	-0.2546831
-3.328313	statue	-0.1212307
-3.977935	statues	-0.08800603
-3.788678	stay	-0.1168568
-4.104095	stayed	-0.1207998
-4.104095	steak	-0.1207998
-4.104095	steam	-0.1203997
-3.977935	steel	-0.1053597
-4.104095	steeples	-0.1120195
-4.104095	stems	-0.1084955
-3.788678	step	-0.08383738
-3.977935	stepping	-0.1089985
-3.788678	steps	-0.2882001
-4.104095	stern	-0.1205331
-4.104095	stew	-0.1182058
-3.788678	stick	-0.1094736
-4.104095	sticker	-0.1097281
-3.649652	sticking	-0.2533483
-3.788678	sticks	-0.08094294
-3.649652	still	-0.1577354
-4.104095	stkp	-0.1206931
-4.104095	stoic	-0.120373
-4.104095	stolen	-0.1120195
-3.977935	stone	-0.09368229
-4.104095	stones	-0.09574772
-4.104095	stool	-0.09574772
-2.918628	stop	-0.3765791
-3.544504	stopped	-0.1434429
-3.977935	stopping	-0.1097103
-4.104095	stops	-0.1154882
-4.104095	storage	-0.09574772
-3.544504	store	-0.2972921
-4.104095	stored	-0.1097281
-4.104095	stores	-0.09574772
-3.977935	storm	-0.2207724
-3.328313	stormy	-0.2628217
-3.977935	story	-0.09489097
-3.788678	stove	-0.1816389
-4.104095	stoves	-0.1084955
-3.977935	straight	-0.1172753
-4.104095	strain	-0.1207465
-4.104095	strange	-0.1201705
-4.104095	strangely	-0.1205064
-4.104095	strawberries	-0.1120195
-4.104095	strawberry	-0.1120195
-4.104095	stream	-0.1187151
-4.104095	streams	-0.1195716
-2.711621	street	-0.2110528
-3.977935	streetlight	-0.1028733
-3.788678	streets	-0.173944
-4.104095	strength	-0.1136218
-4.104095	stretch	-0.1136218
-3.788678	stretched	-0.1858687
-3.977935	stretches	-0.1180273
-4.104095	stretching	-0.1193844
-4.104095	strides	-0.1206398
-4.104095	strike	-0.1191168
-4.104095	string	-0.1186883
-3.977935	strings	-0.0838746
-3.977935	striped	-0.1206224
-4.104095	stripes	-0.1097281
-4.104095	stroll	-0.09574772
-4.104095	strolls	-0.1205598
-4.104095	struck	-0.1149751
-4.104095	struggle	-0.1084955
-4.104095	struggled	-0.1154882
-3.649652	struggles	-0.4328793
-4.104095	struggling	-0.1029011
-4.104095	stubborn	-0.1195716
-3.788678	stuck	-0.1654175
-4.104095	student	-0.1053586
-4.104095	stuff	-0.09574772
-3.274961	stuffed	-0.2369367
-3.977935	stump	-0.07839283
-3.977935	stunt	-0.09422963
-3.977935	stunts	-0.1197948
-2.582077	stupid	-0.4897224
-4.104095	stupidly	-0.1208531
-3.977935	style	-0.0954185
-3.977935	styled	-0.1194739
-4.104095	submerged	-0.1084955
-4.104095	suburban	-0.1208531
-4.104095	subway	-0.09482447
-3.649652	such	-0.2353909
-3.977935	sucks	-0.1036229
-3.788678	suffering	-0.1063149
-3.788678	sugary	-0.119065
-3.544504	suit	-0.1044032
-4.104095	suitable	-0.1208781
-3.788678	suitcase	-0.1403723
-3.788678	suitcases	-0.1726396
-4.104095	suits	-0.1120195
-4.104095	summer	-0.1208781
-3.977935	sun	-0.1291564
-4.104095	sunbath	-0.09574772
-3.977935	sunglasses	-0.1042604
-3.977935	sunlight	-0.2207724
-3.977935	sunny	-0.1982518
-4.104095	sunrise	-0.1203997
-4.104095	sunscreen	-0.09574772
-3.544504	sunset	-0.1090525
-3.977935	supplies	-0.1103485
-4.104095	supporters	-0.09574772
-4.104095	supposed	-0.1154882
-3.328313	surf	-0.1795506
-3.227453	surfboard	-0.2144516
-3.788678	surfboards	-0.09159685
-4.104095	surfed	-0.1149751
-3.649652	surfer	-0.1590196
-3.977935	surfers	-0.1092998
-3.184632	surfing	-0.2652896
-4.104095	surfs	-0.1195716
-4.104095	surprise	-0.09574772
-4.104095	surprising	-0.1207558
-4.104095	surround	-0.118018
-3.328313	surrounded	-0.736439
-3.649652	surrounding	-0.1684865
-4.104095	survive	-0.09574772
-4.104095	suspends	-0.1084955
-3.544504	sweater	-0.1066824
-4.104095	sweet	-0.1208896
-4.104095	swiftly	-0.1133235
-3.544504	swimming	-0.06962372
-3.788678	swing	-0.1411872
-3.544504	swinging	-0.3437086
-3.977935	swings	-0.2376152
-4.104095	swoop	-0.1190633
-4.104095	sync	-0.1154882
-4.104095	syrup	-0.1197854
-3.977935	system	-0.0813811
-4.104095	t	-0.1149751
-2.838161	table	-0.2019841
-4.104095	tablecloth	-0.09574772
-3.459916	tables	-0.1205559
-4.104095	tablet	-0.09574772
-4.104095	tabletop	-0.09574772
-4.104095	tagged	-0.1133235
-4.104095	tail	-0.1186883
-3.544504	take	-0.1356756
-3.227453	taken	-0.1331571
-3.109894	takes	-0.4322929
-3.076853	taking	-0.3881268
-4.104095	talk	-0.1205064
-3.544504	talking	-0.2526201
-4.104095	talks	-0.1097281
-3.328313	tall	-0.1907833
-4.104095	tapping	-0.1097281
-4.104095	tarmac	-0.1097281
-3.977935	taste	-0.1195542
-4.104095	tasted	-0.1196785
-4.104095	taught	-0.1208531
-4.104095	taunt	-0.1149751
-3.788678	tea	-0.3009479
-4.104095	teachers	-0.1203463
-4.104095	teacups	-0.09574772
-3.977935	team	-0.08795674
-4.104095	tech	-0.09574772
-3.389149	teddy	-0.4378001
-3.977935	teen	-0.1084603
-4.104095	teeters	-0.1097281
-3.544504	teeth	-0.2607906
-4.104095	teh	-0.1208531
-3.544504	television	-0.117927
-3.977935	tell	-0.1205407
-3.977935	tells	-0.1121184
-3.977935	temporarily	-0.245451
-4.104095	ten	-0.1208781
-4.104095	tender	-0.1208896
-4.104095	tending	-0.1154882
-4.104095	tends	-0.1154882
-3.227453	tennis	-0.0849742
-4.104095	tent	-0.1208896
-4.104095	tents	-0.1196518
-4.104095	terminal	-0.09550329
-4.104095	terrace	-0.1084955
-3.184632	terrible	-0.4588312
-4.104095	terrified	-0.1202128
-4.104095	testament	-0.1154882
-4.104095	text	-0.1208781
-3.788678	texting	-0.1631074
-3.977935	than	-0.2399997
-4.104095	thanks	-0.1154882
-2.204892	that	-0.3480942
-3.977935	thats	-0.1208554
-4.104095	thaw	-0.1208265
-1.866332	the	-0.2050804
-4.104095	thee	-0.1208896
-2.965245	their	-0.137736
-3.017474	them	-0.3071564
-4.104095	themselves	-0.1207465
-4.104095	then	-0.1197413
-2.918628	there	-0.3452757
-4.104095	therefore	-0.1187419
-3.649652	these	-0.1433747
-2.876534	they	-0.1487247
-4.104095	thieves	-0.1207198
-3.977935	thing	-0.2404859
-3.977935	things	-0.09547503
-3.649652	think	-0.1163712
-3.977935	thinking	-0.1191512
-3.544504	thinks	-0.4264747
-4.104095	thirsty	-0.1206398
-2.647922	this	-0.1318627
-3.459916	those	-0.1585643
-4.104095	though	-0.1138752
-4.104095	thought	-0.1200793
-4.104095	thoughts	-0.1203463
-4.104095	thr	-0.120373
-4.104095	threatened	-0.1154882
-4.104095	threatens	-0.1125905
-3.328313	three	-0.1331635
-4.104095	threre	-0.1208896
-2.507418	through	-0.5937569
-3.788678	throw	-0.1050823
-3.649652	throwing	-0.2483213
-4.104095	thrown	-0.1084955
-3.977935	throws	-0.1110212
-3.977935	thru	-0.1072691
-4.104095	thumb	-0.120453
-4.104095	thw	-0.1205598
-3.459916	tie	-0.1687293
-3.977935	tied	-0.1139835
-3.977935	ties	-0.0838746
-3.977935	tight	-0.1206056
-3.459916	tile	-0.1968572
-3.459916	tiled	-0.1780872
-3.649652	tiles	-0.07400071
-4.104095	till	-0.1195181
-4.104095	tilt	-0.1193844
-4.104095	tilted	-0.1133235
-3.184632	time	-0.09092923
-4.104095	times	-0.1084955
-3.977935	tin	-0.09553155
-4.104095	tins	-0.1133235
-3.977935	tiny	-0.1197222
-3.788678	tire	-0.08556513
-4.104095	tired	-0.1196518
-4.104095	tissues	-0.09574772
-1.905253	to	-0.2653646
-3.389149	today	-0.3424803
-4.104095	toddlers	-0.1195181
-3.017474	together	-0.3429781
-4.104095	toiler	-0.1133235
-3.109894	toilet	-0.1569071
-3.977935	toilets	-0.1185369
-4.104095	told	-0.09574772
-3.977935	tomato	-0.1092724
-4.104095	ton	-0.1136218
-4.104095	tongue	-0.1206131
-3.017474	too	-0.1794582
-3.977935	took	-0.2376152
-4.104095	tooth	-0.1208781
-3.788678	top	-0.149044
-3.544504	topped	-0.5276246
-4.104095	toppings	-0.1120195
-4.104095	torn	-0.1190633
-4.104095	tornado	-0.1208896
-4.104095	totally	-0.1207198
-4.104095	touches	-0.1125905
-4.104095	touching	-0.1149751
-3.389149	tough	-0.2761437
-3.788678	tour	-0.3129321
-3.977935	tourist	-0.1127902
-4.104095	tourists	-0.1206398
-4.104095	tournament	-0.09574772
-3.184632	toward	-0.274369
-3.184632	towards	-0.600008
-3.977935	towed	-0.1078188
-3.977935	towel	-0.1720997
-4.104095	towels	-0.1190633
-3.389149	tower	-0.09733875
-3.788678	towering	-0.3118902
-3.544504	town	-0.3059351
-3.544504	toy	-0.0824324
-3.977935	toys	-0.1084603
-3.328313	track	-0.2431254
-3.227453	tracks	-0.2605118
-4.104095	tractor	-0.09574772
-3.076853	traffic	-0.1558374
-4.104095	trail	-0.1084955
-3.977935	trailer	-0.2207724
-4.104095	trailing	-0.1203997
-4.104095	trails	-0.1136218
-2.698112	train	-0.2020502
-3.649652	trains	-0.1154878
-3.977935	tram	-0.2207724
-4.104095	transit	-0.1197948
-4.104095	translucent	-0.1208265
-4.104095	transparent	-0.1208265
-4.104095	transplanted	-0.1064706
-3.977935	transported	-0.09991793
-4.104095	transports	-0.1199725
-3.977935	trash	-0.0862692
-3.544504	travel	-0.1655881
-3.459916	traveling	-0.1796675
-4.104095	travelling	-0.1097281
-3.389149	travels	-0.1793297
-4.104095	traverse	-0.1190633
-3.788678	tray	-0.121565
-3.977935	trays	-0.1096282
-4.104095	treat	-0.09574772
-4.104095	treated	-0.1194914
-4.104095	treating	-0.1193844
-4.104095	treats	-0.1193844
-2.990575	tree	-0.1734476
-3.076853	trees	-0.4005559
-4.104095	trek	-0.1195716
-4.104095	treks	-0.1195716
-4.104095	tressle	-0.1189829
-3.328313	trick	-0.1812306
-3.788678	tricks	-0.1054415
-4.104095	tried	-0.1154882
-3.649652	tries	-0.2995768
-3.977935	trimming	-0.2399997
-4.104095	tring	-0.1154882
-4.104095	trip	-0.1196785
-3.788678	trolley	-0.1206817
-4.104095	trouble	-0.09574772
-3.227453	troubled	-0.6486534
-2.941311	truck	-0.1460815
-4.104095	truckdriver	-0.1207465
-3.788678	trucks	-0.1130264
-4.104095	true	-0.1206931
-3.977935	trunk	-0.08625856
-3.788678	try	-0.251005
-3.04615	trying	-1.006911
-4.104095	tthe	-0.1208531
-3.544504	tub	-0.05829833
-4.104095	tubman	-0.1208896
-4.104095	tucked	-0.1084955
-4.104095	tucking	-0.1196785
-4.104095	tucks	-0.1125905
-4.104095	tune	-0.1194379
-4.104095	turkey	-0.09574772
-3.977935	turn	-0.09652939
-3.788678	turned	-0.1080207
-3.977935	turning	-0.1140648
-3.649652	turns	-0.1659497
-4.104095	turquoise	-0.1120195
-4.104095	tuxedo	-0.1207198
-3.459916	tv	-0.1446651
-4.104095	twice	-0.09574772
-4.104095	twin	-0.1208896
-2.941311	two	-0.153787
-3.977935	type	-0.2386465
-4.104095	types	-0.1136218
-3.977935	typing	-0.0838746
-2.636231	ugly	-0.2843444
-4.104095	ultimate	-0.1205864
-3.076853	umbrella	-0.1546252
-3.04615	umbrellas	-0.1961156
-3.788678	unable	-0.3079405
-3.649652	unaware	-0.2491104
-4.104095	unbeknownst	-0.1154882
-2.647922	under	-0.6553423
-4.104095	underage	-0.1203272
-4.104095	underdressed	-0.1205064
-3.389149	underneath	-0.3554117
-4.104095	underpass	-0.09574772
-3.977935	understanding	-0.112763
-3.977935	uneaten	-0.1093545
-4.104095	unfortunately	-0.1199457
-4.104095	unhappy	-0.1207198
-4.104095	unhealthy	-0.1194914
-3.788678	uniform	-0.07394131
-4.104095	uninhabited	-0.1208781
-4.104095	uninviting	-0.1208265
-4.104095	unit	-0.09574772
-4.104095	unknown	-0.1208896
-4.104095	unless	-0.1203463
-4.104095	unloading	-0.1120195
-4.104095	unlucky	-0.1205331
-4.104095	unmowed	-0.1203997
-4.104095	unnatural	-0.1208531
-4.104095	unnecessary	-0.1208896
-3.649652	unpaved	-0.2561161
-4.104095	unpleasant	-0.1208896
-4.104095	unpleasing	-0.1154882
-4.104095	unpracticed	-0.1207198
-4.104095	unripe	-0.1207731
-4.104095	unsold	-0.1208265
-3.977935	unsure	-0.2386465
-4.104095	until	-0.1208896
-4.104095	unto	-0.1149751
-3.977935	untouched	-0.1057259
-3.977935	unused	-0.1094914
-4.104095	unwelcoming	-0.1133235
-4.104095	unwilling	-0.1154882
-2.466532	up	-0.2173932
-4.104095	upclose	-0.1133235
-4.104095	updated	-0.1207465
-4.104095	uploaded	-0.1154882
-3.389149	upon	-0.3618429
-4.104095	upright	-0.1207198
-4.104095	upscale	-0.1205064
-3.977935	upset	-0.1131702
-3.977935	upside	-0.2440879
-4.104095	upward	-0.1120195
-3.977935	urban	-0.1647436
-3.788678	urinal	-0.09358713
-4.104095	url	-0.09574772
-3.649652	us	-0.1715611
-3.788678	use	-0.08646061
-3.328313	used	-0.2019681
-4.104095	useless	-0.1205064
-4.104095	user	-0.1207998
-3.649652	uses	-0.08389489
-2.990575	using	-0.3018652
-3.977935	utensils	-0.08630621
-3.977935	vacation	-0.1190994
-4.104095	vague	-0.1208896
-4.104095	vaguely	-0.1201861
-4.104095	vain	-0.1186615
-3.788678	valley	-0.07806933
-4.104095	value	-0.09574772
-3.649652	van	-0.154749
-4.104095	vandalized	-0.1203997
-3.977935	vanity	-0.1122816
-4.104095	varieties	-0.09574772
-3.788678	variety	-0.3060742
-3.459916	various	-0.1583105
-3.328313	vase	-0.2341148
-3.788678	vases	-0.1069209
-4.104095	vegan	-0.1206398
-4.104095	vegetable	-0.1206931
-3.459916	vegetables	-0.1984484
-4.104095	vegetation	-0.1084955
-4.104095	veggies	-0.1120195
-3.977935	vehicle	-0.0838746
-3.649652	vehicles	-0.1111395
-4.104095	velvet	-0.1206931
-4.104095	vendor	-0.1208265
-4.104095	verbally	-0.1206931
-4.104095	verdant	-0.1208531
-2.990575	very	-0.1536285
-4.104095	vessels	-0.1208781
-4.104095	vests	-0.1193844
-4.104095	vicious	-0.1206665
-3.389149	video	-0.2726885
-3.977935	vietnamese	-0.2457978
-2.990575	view	-0.4008153
-4.104095	viewer	-0.09574772
-3.977935	viewing	-0.1149404
-4.104095	views	-0.1136218
-4.104095	village	-0.1208531
-3.977935	vintage	-0.1200428
-3.977935	violence	-0.108066
-4.104095	violently	-0.1208781
-3.977935	visible	-0.1173022
-4.104095	visited	-0.09574772
-3.977935	visitors	-0.09513573
-4.104095	vw	-0.1204797
-4.104095	wagon	-0.1208781
-3.649652	wait	-0.1021716
-3.977935	waited	-0.08256632
-4.104095	waiters	-0.1204264
-3.109894	waiting	-0.3165756
-3.544504	waits	-0.1998019
-4.104095	wakeboarder	-0.1207198
-3.184632	walk	-0.1376271
-4.104095	walked	-0.1205331
-2.838161	walking	-0.2674857
-3.076853	walks	-0.1753258
-4.104095	walkway	-0.1182326
-3.04615	wall	-0.2491244
-4.104095	walled	-0.1207198
-4.104095	wallop	-0.1136218
-3.459916	walls	-0.3372846
-4.104095	wander	-0.1190633
-4.104095	wandering	-0.1133235
-3.544504	want	-0.1607824
-4.104095	wanted	-0.1125905
-4.104095	wanting	-0.1154882
-3.788678	wants	-0.3079405
-3.977935	warehouse	-0.1207007
-4.104095	warm	-0.1084955
-4.104095	warmers	-0.1203997
-4.104095	warned	-0.1208265
-3.788678	warning	-0.120445
-4.104095	warplane	-0.09574772
-2.543145	was	-0.1812223
-4.104095	wash	-0.1193844
-3.977935	washing	-0.1113211
-3.977935	wasnt	-0.1064904
-4.104095	wasting	-0.1206398
-3.274961	watch	-0.1333288
-4.104095	watched	-0.1097281
-3.328313	watches	-0.1479177
-2.990575	watching	-0.2946708
-2.990575	water	-0.1723901
-4.104095	waterfront	-0.1207198
-4.104095	waterproof	-0.1208531
-3.788678	waters	-0.1078954
-4.104095	watertherefore	-0.1205864
-3.649652	wave	-0.07798475
-4.104095	waved	-0.1154882
-4.104095	waveless	-0.1208531
-3.977935	waves	-0.1339452
-4.104095	waving	-0.09574772
-3.04615	way	-0.2040032
-3.649652	we	-0.178617
-4.104095	weak	-0.1208531
-4.104095	weaker	-0.1208781
-3.788678	wear	-0.1917767
-2.739969	wearing	-0.4450865
-3.544504	wears	-0.1980246
-4.104095	weathe	-0.09574772
-3.788678	weather	-0.08316859
-4.104095	weathered	-0.1154882
-4.104095	web	-0.1097281
-3.977935	wedding	-0.120489
-4.104095	weeds	-0.1194111
-4.104095	weedy	-0.1204797
-4.104095	week	-0.1203463
-2.918628	weird	-0.209382
-4.104095	well	-0.1207024
-3.977935	went	-0.1136855
-3.459916	were	-0.1021535
-4.104095	werong	-0.1205331
-3.544504	wet	-0.1813391
-3.649652	wetsuit	-0.2193955
-3.109894	what	-0.1786608
-3.977935	whats	-0.120409
-3.977935	wheel	-0.08800603
-4.104095	wheelchair	-0.1154612
-3.017474	when	-0.1984757
-2.941311	where	-0.1384562
-3.389149	which	-0.1373427
-2.451198	while	-0.2365403
-4.104095	whilst	-0.1204797
-2.856924	white	-0.08461064
-2.876534	who	-0.2531831
-3.977935	whole	-0.1200696
-3.788678	whos	-0.1080189
-4.104095	whose	-0.1207731
-4.104095	why	-0.1149751
-3.788678	wicker	-0.1132168
-3.977935	wide	-0.1121297
-4.104095	wierd	-0.1206398
-3.977935	wife	-0.1119846
-3.544504	wii	-0.1371047
-3.649652	wild	-0.08722854
-3.04615	will	-0.1964256
-4.104095	willamette	-0.1207998
-4.104095	willing	-0.1154882
-4.104095	wilted	-0.1208531
-3.977935	win	-0.08691199
-3.977935	wind	-0.09448847
-3.184632	window	-0.1475418
-3.328313	windows	-0.2109807
-4.104095	winds	-0.09574772
-3.977935	windshield	-0.2386465
-4.104095	windsurfing	-0.1203997
-3.274961	wine	-0.1205574
-3.788678	wing	-0.1009057
-4.104095	winged	-0.1207198
-3.977935	wings	-0.1199115
-4.104095	winning	-0.1196785
-3.788678	winter	-0.1450373
-3.977935	wipe	-0.2441414
-4.104095	wipes	-0.1191168
-3.977935	wire	-0.09550329
-4.104095	wish	-0.1203463
-4.104095	wishes	-0.1208265
-1.760751	with	-0.3826424
-4.104095	wither	-0.1197854
-4.104095	withers	-0.1206665
-3.389149	within	-0.4168669
-3.328313	without	-0.1168389
-4.104095	witnessed	-0.1125905
-4.104095	wits	-0.1097281
-4.104095	wodden	-0.1205064
-4.104095	woeful	-0.1208896
-2.897071	woman	-0.1239566
-4.104095	womans	-0.1198656
-3.389149	women	-0.1182853
-4.104095	wonder	-0.1191971
-4.104095	wondering	-0.1203463
-3.977935	wont	-0.1208189
-3.459916	wood	-0.1356803
-4.104095	wooded	-0.1200526
-3.328313	wooden	-0.1749408
-3.977935	woods	-0.1744534
-4.104095	wore	-0.1206131
-3.649652	work	-0.1183021
-4.104095	workaholic	-0.1208265
-3.788678	worker	-0.1622984
-3.977935	workers	-0.09539023
-3.649652	working	-0.09254367
-3.788678	works	-0.1631074
-4.104095	workstations	-0.09574772
-4.104095	worried	-0.1201861
-4.104095	worries	-0.1194379
-4.104095	worse	-0.1205064
-3.227453	would	-0.2140228
-3.977935	wouldnt	-0.1207541
-4.104095	wrecking	-0.1208781
-4.104095	writers	-0.1208781
-3.977935	writing	-0.09697045
-4.104095	written	-0.1097281
-3.389149	wrong	-0.1771292
-3.977935	wrought	-0.2459143
-3.328313	yard	-0.3407561
-4.104095	yards	-0.1206665
-4.104095	yell	-0.1174541
-4.104095	yelled	-0.1174541
-3.977935	yelling	-0.1170065
-3.109894	yellow	-0.1288787
-3.977935	yet	-0.1199551
-4.104095	yield	-0.09574772
-4.104095	york	-0.1194111
-3.184632	you	-0.1291151
-4.104095	youd	-0.1204264
-3.544504	young	-0.1656083
-3.977935	your	-0.1206207
-3.227453	zebra	-0.1425931
-3.274961	zebras	-0.1687655
-4.104095	zero	-0.1204797
-3.977935	zone	-0.09553155
-4.104095	zones	-0.09574772
-3.788678	zoo	-0.1296822
-4.104095	zookeeper	-0.1097281
-3.977935	zooming	-0.1161449
-4.104095	zooms	-0.118018

\2-grams:
-1.459431	1 a
-1.459431	1 depicted
-1.459431	1 four
-1.459431	1 one
-1.459431	1 slices
-1.459431	1 the
-1.459431	1 we
-0.6143325	1the fedex
-1.568575	2 a
-1.568575	2 even
-1.568575	2 just
-1.568575	2 stupid
-0.7661464	2 the
-1.568575	2 these
-1.568575	2 women
-0.6143325	2is this
-1.104489	3 a
-1.655725	3 an
-1.655725	3 as
-1.655725	3 on
-1.655725	3 one
-0.63621	3 the
-1.655725	3 this
-0.6143325	4 black
-0.6143325	555 is
-0.6143325	6 months
-0.6143325	6th avenue
-2.722067	<s> 1	-0.05329765
-4.213888	<s> 1the
-3.662652	<s> 2
-3.194373	<s> 3	-0.05748801
-0.2291273	<s> a	-0.4954877
-4.213888	<s> above
-4.213888	<s> adult
-3.662652	<s> after
-4.213888	<s> airplane
-3.662652	<s> all
-4.213888	<s> along
-4.213888	<s> although
-1.172164	<s> an	-0.3832025
-4.213888	<s> angry
-3.411459	<s> another
-3.662652	<s> antique	-0.09069989
-4.213888	<s> as
-4.213888	<s> asian
-3.662652	<s> at	-0.04734391
-3.662652	<s> athlete	-0.155357
-4.213888	<s> baby
-2.467871	<s> bad	-0.01121198
-4.213888	<s> baseball
-4.213888	<s> based
-4.213888	<s> bears
-3.662652	<s> because
-4.213888	<s> beer
-4.213888	<s> being
-4.213888	<s> beside
-4.213888	<s> bicycles
-4.213888	<s> big
-4.213888	<s> birds
-3.050302	<s> black	-0.01158642
-3.662652	<s> blurry	-0.1899837
-4.213888	<s> boy
-4.213888	<s> bright
-3.662652	<s> broken
-3.662652	<s> butterfly	-0.1058323
-4.213888	<s> by
-3.411459	<s> cars	-0.1237817
-4.213888	<s> children
-4.213888	<s> clock
-3.662652	<s> close	-0.1619413
-4.213888	<s> closedminded
-3.194373	<s> cold	-0.07856511
-4.213888	<s> cooks
-4.213888	<s> could
-4.213888	<s> couple
-3.662652	<s> cows
-3.194373	<s> crappy	-0.07281625
-3.662652	<s> crazy
-4.213888	<s> crowd
-4.213888	<s> crowds
-3.662652	<s> crying
-4.213888	<s> dark
-2.501187	<s> dead	-0.2815409
-4.213888	<s> despite
-3.662652	<s> different	-0.1844009
-2.942304	<s> dirty	-0.06071198
-3.194373	<s> disgusting	0.2297256
-3.662652	<s> down
-4.213888	<s> dozens
-4.213888	<s> during
-4.213888	<s> elephant
-4.213888	<s> even
-4.213888	<s> everyone
-4.213888	<s> evil
-3.194373	<s> fancy	-0.1006812
-4.213888	<s> fat
-3.050302	<s> five	-0.1109871
-4.213888	<s> fog
-3.662652	<s> for
-3.662652	<s> found	-0.1440318
-2.783842	<s> four	-0.03407928
-4.213888	<s> fragile
-4.213888	<s> fresh
-4.213888	<s> frightened
-3.662652	<s> from
-4.213888	<s> fruit
-4.213888	<s> gay
-3.662652	<s> giraffe
-3.662652	<s> giraffes
-3.662652	<s> great
-4.213888	<s> guy
-3.662652	<s> hard
-2.619914	<s> he	-0.02505293
-4.213888	<s> her
-4.213888	<s> hockey
-2.667994	<s> i	-0.05585923
-4.213888	<s> idiot
-2.783842	<s> if	-0.1135745
-2.331398	<s> in	-0.1274325
-4.213888	<s> incase
-4.213888	<s> insane
-4.213888	<s> inspectors
-4.213888	<s> is
-2.144071	<s> it	-0.4530069
-3.194373	<s> its	-0.09161866
-4.213888	<s> kites
-3.411459	<s> large
-3.662652	<s> lazy
-4.213888	<s> leader
-3.411459	<s> little	-0.08939715
-3.662652	<s> living	-0.1839331
-4.213888	<s> lonely
-4.213888	<s> long
-3.662652	<s> look
-3.662652	<s> looking
-3.050302	<s> looks	-0.2515835
-4.213888	<s> lots
-3.194373	<s> man	-0.08935199
-2.722067	<s> many	-0.07196521
-4.213888	<s> men
-3.662652	<s> miniature	-0.09069989
-4.213888	<s> mountain
-4.213888	<s> muddy
-4.213888	<s> multiple
-4.213888	<s> my
-4.213888	<s> near
-3.662652	<s> nine	-0.09069989
-3.662652	<s> no
-3.050302	<s> not	-0.07114775
-4.213888	<s> obama
-2.667994	<s> on	-0.3692431
-2.942304	<s> one	-0.0403027
-4.213888	<s> only
-3.662652	<s> other	-0.2084134
-4.213888	<s> oxen
-4.213888	<s> paved
-2.408047	<s> people	-0.1395717
-4.213888	<s> permanent
-3.411459	<s> person	-0.1195993
-4.213888	<s> picture
-4.213888	<s> play
-4.213888	<s> polar
-4.213888	<s> poor
-4.213888	<s> rafael
-4.213888	<s> rail
-4.213888	<s> red
-4.213888	<s> renovating
-4.213888	<s> riders
-4.213888	<s> rotten
-4.213888	<s> s
-4.213888	<s> seven
-2.048813	<s> several	-0.1936778
-4.213888	<s> shallow
-4.213888	<s> she
-4.213888	<s> shoppers
-4.213888	<s> simple
-4.213888	<s> sitting
-4.213888	<s> six
-3.662652	<s> small
-4.213888	<s> soaring
-4.213888	<s> soccer
-4.213888	<s> solitary
-2.1923	<s> some	-0.1699753
-2.576631	<s> someone	-0.1333574
-4.213888	<s> stop
-3.662652	<s> stormy
-3.662652	<s> street
-1.879049	<s> stupid	-0.9706023
-4.213888	<s> such
-4.213888	<s> surfers
-4.213888	<s> surfing
-4.213888	<s> taken
-4.213888	<s> terrible
-4.213888	<s> thanks
-2.467871	<s> that	-0.0186329
-0.9496933	<s> the	-0.2224084
-4.213888	<s> thee
-2.048813	<s> there	-0.5527568
-2.942304	<s> these	-0.0463687
-3.662652	<s> they
-1.83957	<s> this	-0.2842993
-3.194373	<s> those	-0.05748801
-2.114658	<s> three	-0.1287524
-4.213888	<s> through
-3.662652	<s> to
-4.213888	<s> today
-4.213888	<s> toddlers
-3.050302	<s> traffic	-0.2261344
-4.213888	<s> trying
-1.357656	<s> two	-0.2876654
-3.411459	<s> ugly	-0.07367481
-4.213888	<s> under
-4.213888	<s> unfortunately
-4.213888	<s> vacation
-4.213888	<s> various
-4.213888	<s> we
-4.213888	<s> wearing
-4.213888	<s> weird
-2.537273	<s> what	-0.2993027
-4.213888	<s> where
-3.411459	<s> while	-0.1276818
-4.213888	<s> who
-3.411459	<s> with
-4.213888	<s> within
-4.213888	<s> woman
-4.213888	<s> yellow
-4.213888	<s> yet
-4.213888	<s> youd
-4.213888	<s> young
-4.213888	<s> zebras
-2.973397	a a
-3.992912	a abused	0.2909493
